-0.356243 -0.0241401 0.417524 -0.886288 0.956481 0.648915 -0.134007 0.463302 -0.470138 -0.0590533 0.31547 0.0477004 0.24778 0.565477 0.533189 -0.156468 -0.654775 0.322001 0.605701 0.135167 -0.662343 0.559496 0.799554 0.182409 -0.733573 0.690237 0.269387 -0.653554 -0.427168 0.817072 -0.573351 -0.765984 -0.0860927 -0.46379 0.780328 0.424665 -0.76812 0.97882 0.0637836 0.345311 0.390606 0.154844 0.464382 -0.162042 0.693307 0.651063 -0.276917 -0.992004 0.571276 -0.233375 -0.940123 -0.0605792 -0.16953 -0.854305 -0.496872 0.715567 -0.358623 -0.076693 0.65215 0.483383 -0.286843 0.524094 -0.422468 -0.00332654 0.886471 0.118137 0.696116 -0.744352 0.479095 -0.177839 0.436424 0.781439 0.779153 0.74639 -0.559163 0.0484824 -0.454082 0.548321 0.216017 -0.168066 0.0263375 0.902951 -0.697745 -0.21073 -0.0440993 -0.474654 0.752556 -0.166051 -0.40727 0.431257 -0.804061 -0.844089 -0.91795 0.710629 -0.838984 -0.846171 -0.0204498 -0.0907343 0.14686 0.0867712 -0.32949 0.82222 0.451119 -0.522057 -0.41922 0.739059 -0.134206 0.848677 0.652577 -0.727409 -0.383526 0.073336 0.935606 0.555712 -0.641285 0.107089 0.945956 0.480072 0.609464 -0.288188 0.931456 -0.933396 -0.31662 0.449643 0.829454 0.481159 -0.810596 -0.0407183 0.319087 0.38296 -0.79969 -0.707252 0.302326 -0.0555092 0.881849 -0.781757 -0.25064 0.979858 0.730277 0.334147 0.420759 0.0744957 0.547166 0.303048 0.0327684 0.728352 -0.84496 -1.00995 0.50787 -0.875 0.160551 -0.742226 -0.951994 -0.075068 -0.258688 -0.631976 0.63977 -0.488509 0.277001 0.355773 0.283147 0.338261 0.0702615 -0.914193 0.461681 -0.592245 -0.728195 -0.688467 -0.715201 -0.816706 0.848323 0.326871 -0.254069 0.451129 0.616427 -0.162049 -0.165946 -0.736398 -0.75699 0.725473 -0.909814 0.840049 -0.00499458 0.883874 -0.587449 -0.831966 0.113989 0.859201 0.91764 -0.515124 -0.624296 -0.822717 0.133955 -0.287074 0.646203 -0.801135 0.737724 -0.135472 0.478079 0.054473 0.0195535 0.53404 -0.856747 0.475649 0.439783 0.681739 0.991731 -0.92724 -0.00204032 0.45347 -0.356656 -0.61723 -0.0517417 -0.103935 -0.79695 0.607533 -0.125815 0.920858 -0.213651 -0.879471 0.36618 0.305807 0.56057 -0.159475 -0.491623 0.184301 -0.521158 -0.39958 0.4292 0.186023 0.292538 0.550871 -0.579846 -0.360314 0.774008 0.301888 0.0777388 0.573847 0.952421 0.878122 0.4142 0.76396 0.535467 -0.0233196 -0.141614 -0.733617 -0.272281 0.147043 1.1335 -0.230226 -0.712557 0.553758 0.0934172 0.299983 -0.540776 0.954565 -0.270901 0.350476 0.732516 -0.126213 -0.806379 -0.570675 -0.537986 0.451149 -0.0825059 0.292601 0.782957 1.15613 0.00671206 0.863663 -0.222679 0.976487 -0.529672 -0.791376 0.129683 0.444591 -0.468134 0.26217 -0.518768 -0.451338 0.259804 0.684361 0.617902 -0.415277 0.378191 0.353639 0.41659 -0.334197 -0.57974 0.0944704 0.791208 -0.834433 -0.454533 -0.158276 0.413021 0.666644 0.525603 -0.750209 -0.211962 -0.532347 0.397725 0.0392067 -0.947673 0.159478 0.423811 0.883876 -0.883392 -0.131016 0.989135 -0.922788 0.737455 0.197962 0.993793 0.923093 -0.0508205 -0.0099003 -0.518164 -0.708969 1.04549 0.257588 -0.455093 -0.428118 0.296797 0.821186 -0.1491 -0.189654 -0.658196 0.294455 0.652974 -0.698412 -0.354855 -0.701193 0.421044 0.107851 0.282697 -0.220985 -0.949767 -0.515366 -0.152991 -0.447538 -0.183821 0.927065 -0.998925 -0.312561 -0.0863192 0.357875 -0.246468 0.139825 0.904884 0.850208 -0.439189 0.648356 -1.03634 0.283676 -0.67101 0.0146856 0.195216 0.742515 0.909378 0.482747 0.938322 0.43827 -0.539619 0.551683 -0.610767 -0.225379 -0.776631 0.171599 -0.801533 0.465142 0.718314 0.147088 -0.459471 0.974338 -0.825 -0.750295 -0.423693 0.467457 -0.408142 0.573925 -0.349488 0.158328 -0.0205587 -0.102053 0.192719 0.774771 0.719519 -0.495136 0.572848 0.850732 0.103561 -0.41258 -0.477889 -0.75457 0.433637 -0.0159424 0.51434 -0.977443 -1.05814 0.147535 0.0428608 0.444226 0.733409 0.74934 0.542419 0.78133 0.234917 -0.0376101 -0.134676 -0.142317 0.694135 -0.337909 0.294854 -0.645767 0.841189 -0.378806 0.105194 0.55727 -0.918235 -0.197058 -0.880123 0.621448 -0.909299 -0.220495 -0.518594 0.247564 -0.143111 -0.325013 -0.924437 0.0017722 0.048899 0.0159841 0.519314 -0.838598 -0.144229 -0.243364 -0.261747 0.537704 -0.299752 0.301599 0.0445417 0.994052 -0.839935 0.413502 -0.51603 0.538843 -0.273433 -0.773614 0.972167 -0.088229 -0.966075 -0.56905 -0.779765 -0.741764 -0.93381 -0.385182 -1.13477 -0.991443 -0.575193 0.273553 -0.639305 -0.991042 -0.721351 0.118552 -0.935642 0.306226 -0.407278 -0.262024 0.765676 0.491825 0.905484 -0.843943 -0.865 0.394686 -0.801456 -0.262551 0.517014 0.570605 -0.404902 0.873932 -0.748069 0.857617 -0.719718 0.570139 0.326964 -0.0809591 0.256793 -1.174 -0.312648 -1.32953 0.466314 -0.486451 0.044792 -0.825744 -0.250929 0.712227 0.0114171 0.422039 0.190888 0.0857432 0.860517 0.752836 0.743339 0.889279 0.125156 -0.604907 -0.344342 0.653077 -0.63043 0.133814 0.255385 -0.50843 0.404404 0.306929 0.50631 -0.708834 -1.05368 -1.23365 0.40648 0.042866 -0.245922 0.128517 -0.708829 -0.59815 0.123261 -0.995453 -0.207452 0.859075 0.184489 -0.995848 0.697073 -0.249855 -0.674917 0.599658 -0.83058 0.0723004 0.933845 -0.341453 -0.916747 -0.135616 0.276217 0.38527 0.431587 0.553541 0.107034 -0.511906 -0.028246 -0.125172 0.355545 0.0615053 0.0780092 0.128799 -0.571031 -0.200205 -0.0175505 -0.990274 -0.673723 0.234724 0.804559 0.7022 -0.842586 -0.497299 -0.141446 -0.0544558 0.807982 -1.02439 -0.876272 0.373914 -0.570297 0.665733 0.0341284 -0.316221 0.471571 -0.916195 0.500818 -0.796071 -0.548323 0.157141 0.632897 -0.555829 -1.01393 -0.914757 -0.0601954 -0.798864 -0.499516 -0.517471 -0.440328 0.133946 -0.154515 0.265419 -0.238599 -0.313507 -0.61405 0.37959 0.768155 0.484832 -0.622193 -0.347642 0.830311 0.105102 0.900355 0.803521 -0.781152 0.691853 -0.450625 0.016591 -0.552983 0.164844 0.0359779 0.686684 -0.897694 0.227552 -0.349258 -0.629791 -0.716046 -0.0337229 -0.0299997 -0.882748 -0.733936 -0.142499 0.626945 -0.76801 -0.441211 0.812625 -0.646064 -0.327659 0.41674 0.781643 0.841154 5.67181e-05 0.917747 0.536916 0.0959997 0.18537 -0.333239 0.638892 -0.894427 0.933139 -0.751068 0.0937163 0.803896 0.378679 0.612071 0.94647 0.33488 -0.491195 -0.574578 -0.00180334 0.513868 0.409218 -0.83048 -0.565389 1.27705 -0.450055 -0.470565 -0.562584 0.288007 -0.26365 -0.338541 -0.0469462 0.299162 0.452414 -0.0438136 -0.518858 -0.601388 -0.192413 0.137931 -0.041024 0.525354 0.630604 -0.925535 -0.349895 0.712271 0.626575 0.177892 0.865561 0.257866 0.916878 -0.802996 -0.128261 0.294086 -0.00133952 0.776431 -0.739949 1.08833 -0.939621 0.468632 0.236187 0.135891 0.054944 0.120371 -0.93916 0.824674 -0.542069 -0.804127 0.280952 -0.84999 0.379009 -0.534532 0.127415 0.653737 -0.290506 -0.874569 0.66558 -0.931562 0.640435 -0.927435 1.02192 1.05164 1.01153 0.281452 0.768005 0.129293 0.270093 0.32841 0.302314 -0.95503 -0.493464 0.180351 -0.0377442 -0.444659 -0.126832 0.709229 -0.757846 0.700299 -0.392193 0.683401 0.131443 0.555345 -0.396771 0.628651 0.661408 -0.616309 -0.72475 0.773205 -0.210038 0.559704 0.830915 0.499628 0.0609033 0.863622 -0.235326 -0.646327 0.493762 0.154039 0.535122 -0.355962 0.934349 0.360665 -0.100513 -0.38609 -0.926695 -0.916379 0.292337 0.731559 0.865902 0.164586 -0.00949126 -0.134983 -0.371136 0.842158 0.686819 0.702215 0.99917 -0.894581 0.715873 0.333961 0.419791 -0.52248 0.95068 -0.185721 0.711283 0.55441 -0.562368 0.502909 0.283988 0.607654 -0.167516 -0.983398 -0.433088 0.571703 -0.300943 0.566759 0.189795 0.715506 -0.265603 -0.451216 0.514634 0.323099 -0.0180975 -0.853816 0.0503861 0.688711 0.0950041 0.790094 0.329081 0.74102 -0.285379 -0.722465 0.800226 -0.3914 0.0220039 0.362713 -0.692007 -0.559984 0.530015 0.632984 -0.287698 0.789239 0.175146 0.482772 0.217261 -0.119236 0.773003 -0.00210577 0.969054 0.0660726 -0.100986 0.561937 0.485824 0.783746 -0.741691 -0.00190692 -0.517527 0.335734 -0.394298 0.0577453 -0.350641 -0.206505 0.27866 0.0756119 -0.0353099 0.344523 0.40788 -0.418805 0.0558794 -0.607044 -0.137303 -0.283547 -0.751579 -0.272439 -0.998596 0.236488 0.790033 -0.932981 -0.718375 -0.0745567 -0.143284 0.298135 -0.201758 -0.765561 0.8896 -0.282833 -0.19694 0.939819 0.824616 -0.42206 0.29428 -0.273809 -0.223787 0.31876 0.712761 0.271331 -0.234721 0.629017 -0.223304 0.964049 0.970702 0.86462 0.580798 0.819636 0.198096 0.00717187 -0.942198 0.537473 -0.998599 -0.543704 -0.322685 -0.598876 0.085651 0.108715 -0.251235 -0.918456 -0.375736 -0.184969 -0.10475 -0.402203 -0.216006 -0.216025 0.591057 -0.880106 -0.661736 0.956298 -0.316446 0.495468 0.866634 0.968505 -0.890622 0.0684531 -0.118931 0.868241 0.131939 0.0558745 0.668009 -0.243583 0.368423 -0.342663 0.338195 -1.06756 0.74582 0.563849 -0.280935 -0.231606 -0.630588 -0.273769 0.472528 0.460963 0.223245 0.627222 0.873528 -0.0765288 0.218299 -0.446883 0.766228 0.876034 0.0953703 0.403119 0.745378 -0.572107 0.681145 0.500783 0.436578 1.00614 0.342244 0.643455 -0.460614 0.662147 0.327802 0.030121 0.219393 0.0592235 -0.412731 0.642118 -0.329312 -0.701718 -0.305533 0.754388 0.946662 -0.533719 -0.334084 -0.275537 -0.518296 0.430708 0.167211 0.460494 0.311351 -0.162345 -0.784466 0.740959 -0.308801 -0.292722 0.184403 -0.012688 0.036079 -0.661067 -0.846832 0.719995 0.409346 -0.235882 -0.558069 0.0526806 -0.331445 -0.236414 -0.184826 0.147079 -0.181401 -0.0343343 0.919997 -0.0253376 0.46146 -0.729301 -0.539781 -0.312396 -0.303271 -0.602893 0.803058 -0.677008 0.0919237 0.152144 0.668303 -0.600927 0.916237 0.841149 0.306416 0.101383 -0.205052 0.335899 -1.1119 -0.241768 0.544621 0.776335 0.352662 0.60089 0.106997 -0.18475 0.837486 0.00835967 0.401246 0.745476 0.616749 -0.919068 0.117968 0.817952 -0.829023 0.375916 0.566134 0.382662 -0.170919 -0.302208 -0.0973708 0.815103 0.302031 1.03988 0.0510987 -0.34051 -0.345154 -0.904974 -0.447271 0.0958777 0.769046 0.258188 0.739614 -0.629388 -0.203619 -0.255796 -0.249733 0.1489 0.849881 0.808273 0.822723 0.201419 -0.276872 -0.0780036 0.929879 -0.314482 0.62595 0.592434 -0.242089 0.816156 0.178002 -0.783674 -0.493628 1.05778 0.27751 -0.26011 0.0994999 0.611958 -0.595826 0.249932 -0.722461 -0.233126 -0.525348 -0.636504 -0.953429 -0.543565 0.414624 0.332756 -0.518496 -0.359436 0.203375 -0.0877372 -0.823087 0.444534 0.291075 0.462865 -0.233791 0.0516748 0.130277 0.57307 0.0161447 1.09207 0.209617 -0.422023 0.227785 0.735971 0.801607 0.239796 0.341651 -0.58068 0.659387 -0.0788269 0.0275582 -0.246437 0.204077 -0.304935 0.750262 0.843612 0.238698 0.81689 -0.624639 -0.734188 -0.677181 0.053509 0.474586 -0.942309 0.0688041 0.641446 1.03419 0.574553 0.27048 -0.688009 0.423043 -0.521827 0.850955 -0.0585419 -0.617437 0.720785 -0.78703 0.975207 -0.558214 -0.456893 -0.546434 -0.0736082 0.399707 -0.808894 0.684019 0.47252 -0.817955 0.12445 0.55126 0.550522 0.0852875 -0.906846 -0.501869 0.464037 0.466874 -0.555054 -0.131908 0.47713 -0.593186 0.0708983 0.94082 0.151675 -0.805715 -0.0547865 -0.0959939 -0.986338 0.508774 0.118992 0.423078 0.84235 0.392774 0.0465645 -0.820963 0.0760694 0.332487 -0.702116 -1.09473 -0.987003 -0.582078 0.276234 -0.547053 -0.509472 -0.537689 -0.130692 0.175701 0.173601 -0.20922 0.187858 -0.73312 -0.233617 0.694397 0.676874 0.327865 -0.640859 -0.0408033 0.194128 -0.741691 0.136448 0.180222 0.508704 -0.327317 -0.198174 -0.999589 -0.572373 -1.21031 -1.11115 0.243555 0.16843 -1.05526 0.678023 -0.733181 0.315271 0.0517633 -0.336295 -0.219344 0.101381 0.24728 0.565995 -0.479491 -0.441433 0.478184 -0.767805 -0.40434 0.969237 -0.468123 0.562548 0.0228492 0.948194 0.243333 -0.884013 -0.883392 0.0672645 -0.904324 -0.432263 0.297911 -0.252078 0.54522 -1.08327 0.813841 -0.550161 0.305768 0.534384 0.723433 0.801212 0.115576 -1.00688 -0.285468 -0.616454 0.345847 0.665653 0.309854 -0.169164 -0.100864 0.710892 -0.497209 -0.400756 0.164964 -0.955423 0.0335154 0.764288 0.108307 0.39941 0.0158352 -0.0832815 0.738466 0.407679 0.219137 -0.7043 -0.155515 -0.0451581 0.992365 -0.927305 0.488492 -0.515831 -0.0240634 -0.469003 -1.0012 0.933868 -0.505783 -0.133824 0.305216 0.123321 0.845697 0.23349 -0.396642 0.502293 0.0832221 0.0161591 0.420128 -0.660183 -0.339723 -0.137305 0.833673 -0.127326 -0.576431 -0.748217 0.784941 -0.652529 0.436138 0.254185 0.678149 -0.453168 0.0409576 -0.59133 -0.315561 -0.749382 -0.213782 -0.619251 0.179662 0.484257 0.168731 0.164395 0.718473 -0.297831 -1.09566 -0.230313 -0.999849 -0.987249 -0.85968 0.512826 0.72626 0.885127 -0.880524 -0.0182293 -0.294084 -0.822231 -0.933107 -0.364423 -0.401559 0.717024 0.562098 0.501596 0.224399 -0.671621 0.0813929 0.608631 -0.942137 -0.537937 0.562939 0.771154 0.768379 0.594577 0.68041 -0.579944 0.433988 -0.0876906 -0.531899 -0.761962 0.948628 0.629192 -0.247694 -0.456144 -0.565702 -0.0907686 -0.58078 0.045972 -0.554348 -1.04188 -0.611843 0.415771 -0.962838 0.554308 0.754204 -0.199194 -0.93524 -0.971668 -0.0734774 -0.490947 0.407091 -0.988016 -0.348003 -0.322808 -0.628006 -1.06895 0.439229 -0.174536 0.818251 -0.861803 -0.187081 0.829774 -0.799591 -0.100724 -1.1297 0.0801067 -0.189289 0.121693 0.721046 -0.626108 0.737761 -0.541925 0.0225532 -0.119724 -0.300089 0.92265 -0.383583 0.209212 0.0644204 -0.759105 0.582486 -0.309292 -0.0277883 0.269394 -0.117784 0.080053 -0.283539 0.358127 -0.156138 -0.601181 -0.943448 -0.222667 -0.0506878 -0.163379 -0.712524 -0.701357 -0.108235 0.295468 -0.771599 0.144158 -0.604724 -0.149022 0.360576 0.705364 0.548354 -0.0383776 -0.547462 -0.42041 0.858255 -0.705085 -0.812244 0.697076 -0.640008 -0.632411 0.322728 0.194672 -0.0410833 0.597181 0.554587 0.345249 -0.767756 0.879072 -0.838407 -0.900796 -0.621455 0.107845 -0.158547 -0.611691 -0.861507 0.148228 -0.959227 -0.508468 -0.925743 -0.39566 -0.719541 -0.783179 0.518729 0.84506 0.290141 -0.667555 -0.78966 0.185935 -0.133613 -0.118175 0.198849 0.492711 -0.0616751 -1.00196 -0.311993 0.222328 0.786697 0.344009 -0.700022 0.060282 -0.845637 -0.925108 -0.300943 0.11771 0.643788 0.754021 -0.73854 0.599851 -0.657358 1.02174 0.213767 0.188514 -0.434458 -0.583567 1.14207 -0.775326 0.331404 -0.261455 -0.481271 -0.713556 0.507647 -0.524989 -0.0757843 0.742349 0.216169 0.0460613 0.113547 -0.822273 -0.250099 -0.320902 0.0228584 0.811457 -0.655507 0.973876 -0.372354 0.394586 -0.925195 0.187348 0.652994 1.07156 0.313669 0.383844 -0.158301 0.42441 0.252869 -0.45432 -0.82975 0.301675 0.151516 -0.487599 0.189619 0.928723 -0.828923 0.285635 0.796237 -0.292712 0.386212 -0.535508 0.704947 -0.712882 0.441572 -0.159581 -0.64039 -0.275407 0.518379 -0.831192 0.709737 0.861678 -0.326695 0.535498 -0.396213 -0.437131 0.429029 0.472215 -0.19127 1.02317 0.254614 0.40103 -0.00987239 0.0990172 0.75866 0.772149 0.130345 -0.979369 -0.952208 -0.906369 0.909055 -0.400739 0.133946 0.670095 -0.226844 -0.0663167 -0.751206 0.480771 -0.856123 0.0107139 -0.250581 -0.893774 -0.714361 -0.86074 0.300137 0.334404 -0.350859 0.351981 0.584666 -0.782838 0.973031 0.187414 -0.479415 0.49852 -0.00155646 -0.901181 -0.7069 0.335734 0.994629 0.668874 0.661367 0.734489 0.0734581 -0.7481 -0.480087 0.13657 0.531419 0.0923796 -0.265908 -0.849666 0.931028 -0.660268 0.345012 -0.815119 0.448775 0.254555 0.200598 0.806391 -0.945067 0.918882 0.0752891 -0.370037 -0.911679 -0.23722 -0.659963 0.559679 -0.212378 0.219886 -0.754265 0.187475 -0.657888 0.824274 -0.117588 0.166173 0.0253608 0.0613728 0.876827 -0.634163 0.969144 0.285257 0.882059 -0.395264 0.140391 -0.00762036 -0.0306017 0.939176 0.181677 0.919797 -0.106052 0.815058 -0.706595 0.816034 0.327372 -0.300577 0.434187 0.969176 0.270302 -0.723258 -0.355998 -0.966308 0.43614 -0.623402 0.525071 -0.0693686 -0.12064 0.373734 0.249347 -0.0207723 0.844236 0.881551 -0.12567 0.576617 0.829299 -0.459521 -0.0407804 0.843502 0.600675 0.942167 -0.770437 -0.656117 -0.810297 -0.620045 -0.226722 0.258461 -0.865047 0.528062 0.225135 0.672353 0.214148 -0.556433 -0.307182 -0.314159 1.03234 0.0247574 0.691041 -0.0604247 -0.92034 0.385868 0.115237 -0.559029 0.258979 0.232869 0.711763 0.508141 -0.621949 -0.974981 -0.379281 -0.678579 0.582873 0.890744 -0.833491 -0.685598 -0.775018 -0.410443 -0.270547 0.0423081 0.624563 0.298802 0.503009 -0.634477 0.433344 -0.171563 -0.217078 0.785004 -0.545495 -0.677638 0.837798 0.42828 -0.717169 -0.719163 0.569354 -0.522092 0.590783 0.520397 0.501253 -0.27495 -0.7022 -0.306253 -0.277566 -0.674062 0.429914 -0.57561 0.373322 0.187335 0.482522 0.642416 0.290182 -0.374765 -0.761636 0.17987 0.020123 0.840229 -0.628468 -0.36058 -0.114109 -0.322338 0.164566 -0.779062 0.495151 0.524607 -0.26547 0.561738 -0.779951 0.391533 -0.355172 -0.848027 -0.146886 0.524705 0.651357 -0.462508 -0.977516 -0.543415 -0.845917 0.402424 0.17493 0.984471 0.733135 -0.355873 0.122418 0.770528 -0.451891 0.345196 0.450032 0.931259 0.865916 -0.535405 -0.699366 -0.0458459 0.771088 -0.306406 -0.896035 -0.51621 0.947833 -0.817735 0.09337 -0.542589 0.736381 0.925897 -0.917101 -0.540799 -0.886908 0.748181 0.143295 0.817157 -0.192943 0.488311 0.351339 -0.000500409 0.865295 -0.0705728 0.127125 0.158968 1.33105 0.916201 0.642907 0.45455 0.0979645 0.648993 -0.230802 0.514995 0.408598 0.479022 -0.840991 0.637074 0.274087 0.438591 0.0908455 -0.0483067 0.601265 0.0304673 1.18878 0.375339 -0.781631 1.03102 1.03327 0.869236 -0.0752395 -0.375928 -0.113867 -0.435378 -0.0597908 1.23833 0.607781 0.267453 0.508846 0.842924 -0.857191 0.298181 -0.415169 0.0477424 0.096408 -0.239723 0.692552 -0.766478 -0.702352 0.340827 1.07549 -0.0566674 -0.355573 0.968681 -0.937597 0.719913 -0.666098 0.486945 -0.811488 0.677373 -0.108299 0.29335 0.148075 1.25825 0.237115 0.409509 0.259493 -0.223895 -0.263943 -0.701944 -0.111331 0.70308 0.532395 0.679067 -0.903658 -0.980458 -0.540137 -0.565674 -0.288912 0.442686 0.391493 -0.359417 -0.79343 0.436369 0.460718 0.324579 -0.499943 -0.448896 0.459157 -0.304978 1.07311 0.267773 0.882138 1.03359 1.01247 0.373411 -0.207142 0.580513 0.0205108 0.208507 -0.00436413 -0.686941 -0.72515 0.789187 -0.409625 -0.677198 -0.361369 0.725542 0.551142 -0.661912 -0.350378 -0.507375 0.276052 -0.381283 -1.00147 0.438124 -0.417202 -0.702361 -0.66721 -0.260559 -0.184111 -0.805477 0.448335 -0.668133 -0.864392 -0.923657 0.235308 0.830648 0.12186 0.692129 -0.670095 -0.340669 -0.905106 -1.05318 0.807167 0.628904 0.0603341 -0.313014 -0.301729 0.486196 0.0838592 0.238643 -0.795208 -0.56542 0.218279 -0.634022 -0.696369 0.855046 -0.269324 -0.410442 -0.641224 0.827491 -0.733406 0.100629 0.236399 0.762652 0.791681 0.313578 0.349956 0.609977 -0.804165 0.838052 -0.336857 -0.270119 0.899503 -0.204735 -0.545634 1.07088 0.358364 0.495026 0.788481 -0.51257 0.551592 -0.2737 -0.433885 -0.427902 0.743299 -0.00205806 -0.115287 -0.829185 -1.00239 -0.3254 -0.212093 0.537689 0.0935392 0.00503552 -0.425886 0.771416 -0.985502 -0.957771 0.361452 0.910146 -0.0264303 -0.621593 0.396325 0.106843 0.768689 -0.782267 -0.536614 -0.837959 -0.207278 0.686538 0.587438 -0.24706 0.283696 -0.886196 -0.486997 0.278072 0.576469 -0.143544 -0.950799 -0.3566 -0.944273 -0.522568 0.481979 0.865719 -0.100387 0.0476881 -0.848534 -0.144296 1.09431 0.73576 -0.0743167 -0.0129978 -0.092165 0.653095 0.671902 -0.169988 -0.0447074 0.0408327 0.866573 0.892255 -0.940866 -0.1801 0.376156 -0.444318 -0.911613 0.865368 -0.792545 0.267745 -0.914243 -0.24247 -0.75396 -0.384946 0.96307 -0.298615 -0.0453605 -0.746439 -0.576886 -0.729666 0.92393 0.394351 -0.614302 -0.17389 -0.048932 -1.08191 -0.257343 0.641965 -0.337252 0.187979 0.0295143 0.600977 0.244925 -1.08858 0.473392 -0.166893 0.812621 -0.24219 -0.946165 -0.313334 -0.013947 -0.268431 -0.129442 0.593896 0.968378 1.10957 -0.0909586 -0.514975 0.555062 -0.518086 -0.716007 -0.621433 0.156183 -0.955445 -0.318739 -0.0764609 -0.0803581 0.824801 0.324252 -0.98481 0.801843 -0.106911 -0.0126253 -0.596203 0.511164 0.903378 -0.0411084 -0.326579 0.260231 -0.8161 -0.245498 -0.810318 0.405133 0.92818 -0.28731 0.405594 -0.936211 -0.797558 0.227113 0.857114 0.12814 0.263999 0.817184 -0.47974 -0.0601877 0.634357 -0.346016 0.77504 0.931827 0.638865 0.597778 0.89031 -0.836875 0.937376 0.11362 -0.112217 -0.766594 0.459374 0.241444 0.340488 -0.571281 -0.0563284 0.67766 -1.06886 0.184161 0.102241 -0.0825117 -0.312113 -0.19001 -0.652655 -0.290272 0.236342 -0.582451 -0.769038 0.331135 0.259466 -0.457846 -0.306474 0.165015 -0.0944265 -0.00783331 0.578906 0.787225 -0.915891 -0.0419629 -0.539634 -0.543178 1.08005 -0.680686 1.01028 0.572213 -0.348114 -1.03017 -1.23106 -1.06138 0.176998 -0.342761 0.704321 -0.610678 -0.525621 0.155323 0.565306 0.202183 0.286045 -0.253966 -0.192252 -0.532066 0.952071 0.432659 0.672212 -0.758232 -0.759453 0.205725 0.730918 -0.957709 -0.624435 0.28022 -0.31479 0.334625 -0.223247 0.597168 -0.428073 -0.991751 0.0236382 -0.87497 -0.955509 0.151481 -0.289608 0.6455 0.752623 -0.898116 0.670302 -0.0640695 0.969459 -0.159327 0.72405 -0.290105 0.902637 -0.898556 0.202368 -0.712516 0.809014 -0.91685 -0.795943 0.861826 -0.354235 -0.160609 0.0533292 -0.478192 0.933647 0.714387 0.296229 -0.515945 0.671763 -1.12167 0.560781 -0.898098 -0.578318 -0.825504 -0.613401 -0.803072 0.817507 0.816023 0.0165376 -0.131017 0.568036 0.991028 -0.483627 -0.700186 0.201892 0.745985 0.348881 -0.0865753 0.86639 -0.475716 0.587566 -0.738054 0.748096 0.444002 0.0166663 0.12224 0.297299 0.879399 0.323845 0.297737 -0.067719 0.456059 0.834167 -0.853877 0.31539 0.400286 -0.991842 0.638905 -0.137913 -0.619129 -0.354839 0.233253 -0.202246 -0.296846 -0.559153 -0.85279 0.47617 0.68304 -0.830952 -0.498661 -0.20346 0.129089 -0.756264 -0.193994 -0.798254 -0.795452 0.649178 0.0328959 -0.544181 1.04597 -0.168507 -0.270647 0.652211 -0.546851 0.517442 -0.564806 -0.522019 0.577502 -0.253456 -0.617237 0.406476 0.451407 -0.759277 0.413585 0.891229 -0.258284 -0.298274 0.201288 -0.399562 -0.259927 -0.105496 0.654037 0.657696 0.369352 0.917306 0.411975 0.666414 -0.911419 -0.191872 -0.159738 0.785061 0.194922 -0.762566 -0.908444 -0.897702 -0.204749 0.207739 0.495773 -0.941954 0.0877298 0.926145 -0.273844 -0.222832 0.453835 0.0612368 -0.96711 0.0249596 0.503602 -0.133426 -0.484547 0.124826 -0.291764 -0.68648 0.940016 0.3873 -0.508377 0.304471 -0.537873 -0.10361 -0.155126 0.318033 0.723136 0.693533 0.247902 -0.879269 -0.903928 0.781671 -0.290139 -0.487533 -0.284667 -0.855815 -0.894631 0.393893 0.299841 0.349388 0.566735 0.845678 0.207749 -0.349969 -0.525578 0.418294 0.697602 0.324353 -0.450622 0.0501419 -0.420576 0.208838 0.722221 0.816584 0.113559 -0.967711 0.197302 0.886654 -0.578722 -0.456771 0.396771 -0.014069 0.346599 0.1489 0.283425 -0.327555 -0.123569 -0.0956145 -0.358257 0.742119 0.17478 -0.33726 0.879025 0.0757774 -0.708304 0.196631 -0.0917692 0.239784 -0.389141 -0.893674 0.675893 0.153661 -0.902463 -0.675466 0.896481 0.135838 -0.589282 -0.9682 -0.443342 -0.358684 -0.0598468 -0.205542 -0.248573 -0.996765 -0.168187 0.737285 -0.587856 -0.509262 -0.936684 -0.437052 -0.488912 1.00148 0.641388 0.245338 0.22544 -0.339763 0.948119 0.154393 0.785882 0.760491 0.369366 0.52562 -0.635243 -0.846858 -0.818293 0.980285 0.735893 0.604297 0.826899 -0.0245674 0.18131 0.307169 -0.395734 -0.0249416 -0.744738 -0.0732473 0.859125 -0.850725 -0.182289 -0.677397 0.704525 0.436208 0.339453 0.78885 -0.659519 -0.280524 0.271453 -0.895627 -0.845759 0.0758384 0.932554 -0.00637835 -0.568285 -0.290811 0.73339 0.195593 0.89111 0.498959 0.774422 -0.868173 0.160243 -0.970978 -0.814994 0.217247 -0.909343 0.690653 -0.400532 1.01777 -0.902443 -0.891541 -0.936702 -0.831019 -0.526419 0.834093 -0.458216 0.282144 0.181127 0.733329 -0.507309 -0.522874 -0.796197 0.580676 0.989318 0.516295 -0.424902 0.861674 0.739838 0.00726273 0.59774 -0.687603 -0.545041 -0.705141 -0.370057 0.503867 0.462802 0.225151 0.39001 0.663509 -0.588924 -0.898516 0.267828 -0.884478 -0.664664 0.364297 -0.607288 -0.808527 0.397321 0.249977 -0.547288 -0.950133 -0.819619 -0.586471 -0.276438 0.407777 -0.517839 -0.488426 -0.0952095 -0.68341 0.207481 0.962043 0.144738 0.764159 0.586999 0.79208 -0.703236 -0.62348 0.49075 0.413374 0.35021 0.243587 0.857264 -0.290224 0.832729 -0.828396 -0.0644856 0.0998871 -0.150731 0.00161743 -0.0399373 -0.00860587 -0.26453 -0.481797 -0.492504 -0.858416 0.585369 0.184564 0.622987 0.632763 -0.244784 -0.991766 0.16143 0.333366 -0.088381 0.393451 0.598779 0.531367 0.104316 -0.0299369 0.934989 -0.714019 0.147471 0.671084 0.331408 0.71276 -0.73925 0.0595343 0.77026 0.950308 -0.487915 -0.143359 -0.892434 -0.641398 -0.211176 -0.1483 -0.773279 0.277977 -1.00794 0.601714 -0.113433 -0.300258 0.56209 -0.26799 -0.257687 0.415648 -0.884201 -0.139208 0.913755 -0.533409 -0.930601 0.0349571 0.199211 0.0580157 -0.65569 0.556479 -0.274791 0.749293 0.452512 -0.304561 0.563057 -1.01859 0.191112 -0.780754 0.470544 0.787515 -1.0572 -1.13996 -0.181807 0.138609 -0.485317 -1.13513 0.400969 0.617306 -0.851463 -0.100662 -0.320031 -0.568142 0.681246 0.695825 -0.60802 -0.409467 -0.315339 -0.157629 -0.672183 -0.0619731 -0.776037 0.829005 0.738309 0.700753 -0.568612 -0.933072 -1.0797 0.10336 -0.81292 0.543807 0.469103 -0.647804 0.67519 -0.953102 0.59776 -0.138671 0.0755748 -0.156016 -0.884429 -0.101028 -0.838145 0.870857 0.183691 0.45671 -0.0414337 0.628618 -0.780956 0.898797 -0.56248 0.869905 0.174723 -0.680807 0.084972 0.283102 -0.977105 0.4222 -0.316293 -0.0065284 0.507451 -0.252652 -0.464181 -0.691541 -0.159277 0.53218 0.775191 -0.865211 0.53616 -0.0964178 0.0172207 0.433784 -0.280374 -0.108921 -0.568163 -0.8085 -0.202828 -0.91198 0.918881 -0.555407 -0.295679 0.250185 0.203281 -0.549347 -0.48405 -1.21084 0.0866557 0.490668 0.529032 0.500371 -0.449708 -0.0544975 0.214654 0.390093 0.537532 -0.261105 0.342519 0.612681 -0.499818 -0.742161 -0.325297 -0.00686669 -0.56151 -0.37951 -0.680098 0.794948 0.858229 0.540479 0.324966 -0.722284 -0.866238 -1.19923 -0.174101 -0.759709 0.611007 0.245858 -0.397649 0.39059 0.342451 -0.00158814 -0.309669 -0.88669 0.462342 0.781164 0.0357298 0.760998 -0.161776 0.86503 0.0557573 0.0694907 -0.921812 0.514512 0.97798 -0.234407 0.262032 0.549193 -0.741732 -0.0770797 0.766447 -0.353318 0.177461 0.0801036 -0.242866 -0.766359 0.842147 -0.017657 -0.92723 0.801436 -0.265917 0.750891 -0.959542 0.0848287 -0.0892052 0.00453347 -0.74065 0.0376623 -0.913755 0.730155 -0.320292 -0.559862 0.570046 0.20702 0.304553 -0.773489 0.37907 0.417847 -0.324789 0.584637 0.488321 0.731052 0.786935 0.309802 0.598576 0.406863 0.787238 -0.126864 0.857867 0.549844 0.367996 -0.753258 -0.301698 -0.827741 0.180337 0.10549 0.110019 0.926817 0.437971 -0.336406 0.778275 -0.152416 -0.0556378 0.552868 -0.322521 0.998731 0.52938 0.758521 0.407512 0.71381 0.290354 0.988728 -0.33557 -0.373017 0.730272 -0.766593 -0.328454 0.576164 -0.363286 -1.00658 0.506652 0.247311 -0.115093 0.577907 -0.547288 0.119236 0.664052 -0.821695 0.822137 0.367214 -0.902965 -0.876172 -0.231623 -0.550264 0.145061 -0.677282 0.49899 0.546081 0.84485 -0.582614 0.367641 0.568091 -0.880881 0.456705 -0.566289 -0.655395 0.962165 0.190025 0.0254026 0.357201 -0.763578 0.81071 0.17716 0.75866 -0.914487 0.56558 -0.283114 -0.464338 0.925888 0.654701 0.568543 -0.542947 0.793743 0.932643 1.0522 -0.323238 0.116267 0.57905 0.162524 -0.255605 0.623537 0.21946 0.670433 0.282745 -0.081429 0.955593 0.0632306 -0.944938 -0.183231 0.384381 -0.32902 -0.725578 -0.364544 -0.659026 -0.153625 0.228139 -0.201294 0.100211 0.0737287 -0.95743 0.760441 0.135297 -0.354727 -0.443207 0.791341 0.195317 0.756043 -0.698818 0.0575429 -0.336476 0.021998 0.498233 0.512747 0.255837 0.222614 0.893678 0.86335 -0.0910367 0.00418103 0.753227 0.166845 -0.373179 0.909917 0.34676 0.259571 0.727489 -0.663724 -0.614873 0.252402 -0.579191 -0.911416 -0.277089 -1.1591 0.681471 0.348621 -0.541675 -0.305864 0.0220744 0.168929 -0.154748 0.928317 -0.0538668 0.755792 0.56153 0.606135 0.91876 0.992798 -0.504501 -0.469405 0.641713 -0.87247 0.86211 -0.849079 -0.991921 -0.993958 -0.0382899 -0.24526 -0.635921 0.542723 -0.371017 0.786603 -0.486401 0.495193 0.960936 0.209991 0.349971 0.33232 -0.976795 -0.79465 -0.370772 0.645989 0.784785 -0.744258 0.549747 0.907895 0.640126 -0.545824 0.720234 -0.365527 0.583205 0.945035 0.749593 -0.768702 0.286112 0.134061 0.695762 0.217207 0.774917 0.646919 -0.127053 -0.519041 -0.526619 0.660915 0.41255 -0.741366 -0.0211126 -0.17636 0.291208 -0.61807 0.174987 0.212647 -0.302881 0.766533 -0.958556 0.658498 0.87089 0.996822 -0.041552 0.0721894 -0.615156 -0.474037 0.105804 -0.709446 -0.240417 -0.049313 -1.07315 -0.600263 0.213364 -0.261927 0.309397 -0.0622259 -0.0573699 0.341502 0.287464 0.332098 -0.688527 -0.940488 -0.716962 0.885151 0.325817 -0.858333 0.588733 -0.349406 0.0279949 -0.0599634 -0.841564 0.23696 0.315352 -0.821249 0.150388 -0.411994 -0.448126 -1.08323 -0.227416 0.440615 -0.332472 -0.921186 0.747051 0.364166 -0.898733 0.581104 -0.588845 0.221669 0.359754 -0.9181 -0.224002 -0.459273 0.628773 -0.570055 0.153905 -0.370037 0.166906 0.954105 0.742413 0.771287 -0.601685 0.220572 -1.01999 0.146496 0.30557 -0.456237 -0.466762 -0.330915 -0.884112 -0.812 -1.03884 -0.898617 -0.169244 -0.668633 0.329503 -0.214473 -0.898403 -0.171025 -0.683565 -0.332255 -0.274209 0.513047 -0.643727 -0.0550859 -0.376141 0.859212 -0.401108 -0.339702 -0.413776 -0.099205 -0.583171 0.955245 -0.485076 0.576333 0.265949 0.138969 0.502093 0.104242 -0.819497 0.274517 -0.97671 0.071169 0.232679 -0.392314 0.303074 0.109141 -0.967579 0.248878 0.584521 0.752068 0.330668 -0.462203 0.52794 -0.601678 -0.806516 -0.420816 0.682011 0.6388 0.0513986 -0.198913 0.364495 -0.962719 0.371422 0.226618 -0.461946 -1 0.407118 -0.579393 0.460589 0.380091 0.383404 -0.507206 -0.926084 0.267861 -0.114231 -0.599231 0.845882 0.250526 0.686941 0.816034 0.94525 -0.484909 0.412397 0.454749 -0.601926 0.33481 0.0580047 0.827486 -0.710942 0.96016 -0.297736 0.296433 0.515595 -0.741534 -0.269479 0.818518 -0.698709 -0.183437 -0.185217 -0.0351878 -0.156835 -0.0361034 -0.889706 -0.183996 0.251564 -0.674734 -0.151036 -0.614124 -0.577319 0.45439 -0.321757 0.814875 0.686453 -0.890805 -0.917112 0.372051 -0.935789 -0.262368 -0.81872 0.316996 -0.0650349 0.731681 0.212683 0.686758 -0.0774255 -0.986633 0.0286568 -0.92822 -0.180883 0.515915 0.901242 -0.557665 0.355876 0.121067 -0.040437 0.0878627 0.633778 -0.383526 -0.432173 -0.267129 0.0273141 -0.764702 0.957762 -0.109531 -0.626832 -0.660149 -0.57329 0.517014 0.254291 -0.192399 0.415499 -0.97034 0.207556 -0.286782 0.776605 -0.249489 0.621021 0.780389 0.54741 -0.162145 -0.790094 -0.692251 -0.46086 0.769463 -0.191748 -0.00570697 0.0548418 -0.562181 -0.667592 0.30607 0.048738 -0.0773034 0.716916 0.92111 0.0376761 -0.0198675 -0.414237 0.817151 0.0655638 -0.586594 -0.218269 0.56596 0.153247 0.20517 0.711456 0.478048 0.191626 -0.360271 0.706229 0.796991 -0.91345 0.234169 0.635853 -0.782952 -0.843257 0.161351 0.0529161 0.516887 -0.931021 -0.707814 0.538247 -0.632519 -0.181817 0.697349 -0.44147 -0.383031 -1.07359 -0.678126 -0.954589 0.831984 -0.920915 -1.07479 0.550417 -0.0728392 -0.592517 -0.416791 -0.729423 0.415509 0.807978 -0.195837 0.329142 -0.889279 0.0034315 -0.314017 0.312974 0.07593 0.741223 -0.832035 -0.91077 0.467454 -0.777047 -0.659772 -0.706032 -0.51161 -0.952892 0.154484 0.61288 -0.861575 0.238504 0.549321 0.65004 0.0637536 0.780151 0.509445 -0.410321 -0.526536 -0.337565 0.93292 0.534715 -0.284614 0.531368 -1.03244 -0.369332 -0.507658 0.148441 -0.0678973 -0.52214 0.334698 0.648333 0.365049 0.518559 0.133399 -0.687115 -0.249125 -0.0249443 0.216823 -0.649411 0.0117685 0.821013 -0.115011 -0.340646 0.785553 0.0736123 -0.835444 -0.088168 0.306436 -0.221168 0.699391 -0.98061 0.413498 0.244947 -0.731903 0.818977 -0.651547 -0.843268 -0.229146 -0.857034 -0.98396 0.641378 0.142467 -0.195292 0.692871 -1.03515 0.465136 -1.02632 -0.779595 0.876766 0.793783 0.437252 0.697563 -0.332623 0.725234 0.361675 0.870968 0.136365 0.111164 -0.428594 0.114386 0.0685226 0.763364 0.206749 1.04019 -0.0128386 -0.545161 0.970871 0.276957 1.05976 -0.240517 -0.685548 -0.356946 -0.747977 0.931474 0.688042 0.748472 0.467085 -0.476565 -0.0110316 -0.157338 0.852045 -0.632403 0.480758 0.222633 -0.189855 -0.664473 0.776121 0.299052 0.720026 -0.500289 0.243238 -0.3252 0.379808 -0.640429 0.42944 0.898825 0.394724 0.0103925 1.16417 0.321888 -0.431977 -0.17658 0.475776 -0.252327 -0.491165 0.472439 -0.592243 -0.426078 0.470455 0.675344 0.587756 0.803346 0.310626 0.417183 0.127484 -0.00267383 -0.432337 0.779022 0.0871059 -0.463339 -0.654458 -0.882285 -0.0545775 0.391326 0.644266 0.382147 -0.787924 -0.347791 -0.454318 1.02948 -0.170754 -0.425159 -0.637907 -0.169809 0.282216 0.648398 0.695811 -0.145848 0.291177 -0.690605 -0.103319 0.351817 0.125135 -0.467691 -0.475431 0.720149 -0.437786 1.07064 0.0477559 0.528205 -0.379527 -0.170309 -0.623127 0.859372 0.195031 0.554556 0.799469 -0.76748 -0.646644 0.911954 -0.636544 0.460827 0.241373 -0.868652 0.68255 0.259072 0.371197 -0.163427 0.0532243 0.531795 0.0560953 -0.579346 0.823001 -0.0279644 0.404798 0.00721186 0.568423 0.291562 -0.0492109 0.86596 0.922415 0.689006 0.884752 -0.036242 0.174821 0.0790331 0.386993 -0.0217464 0.516188 0.284848 -0.931173 -0.210237 0.623715 -0.493332 0.289895 0.0611286 0.543185 0.246296 -0.752602 0.85358 0.950252 -0.185807 0.619004 0.779348 -0.158419 1.03592 1.02037 -0.532312 -0.5485 0.849958 0.175755 0.630005 -0.816355 0.411269 -0.68416 -0.64475 0.227332 0.659213 0.652443 -0.48609 0.595421 -0.055269 0.518296 -0.974548 -0.130697 0.103198 0.647577 0.100991 -0.631823 0.151013 -0.355971 -0.429675 -0.0500501 -0.454985 0.967708 1.14546 1.09363 1.01037 1.34522 0.453538 0.20861 0.360539 -0.58186 -0.53371 -0.408482 -0.20639 -0.730119 0.0713673 0.461963 -0.541124 -0.132786 -0.10593 0.74865 0.323577 -0.506177 0.785341 0.141849 0.666578 -0.569848 0.299045 -0.322205 -0.0348 0.777734 0.547256 -0.223821 0.535658 1.18944 -0.232797 0.926027 0.18575 -0.178542 -0.583251 -0.495617 0.519585 -0.504771 -0.999024 0.799651 -0.451399 -0.990661 0.135899 -0.688894 -0.0798271 -0.317356 -0.237181 0.12652 -1.11321 -0.00518571 -0.477388 -0.151949 -0.765435 -0.775135 0.109652 -0.781659 0.992349 0.852065 -0.309778 -0.236677 0.162933 0.244455 -0.70017 -0.0364944 -0.0540063 -0.837069 -0.591946 -0.573732 0.609973 0.380596 0.571581 -0.288062 -0.490224 0.701659 -0.934296 -0.123556 -0.0496281 -1.13593 -0.742623 -1.07005 0.62569 0.573612 -0.856116 0.546267 -0.544342 -1.13807 0.200856 -0.625899 -0.117808 0.40984 0.0851585 0.497661 -0.992734 -0.354463 -0.121282 -0.909606 -0.636891 -0.352763 -0.279763 0.837806 0.152607 -0.596142 0.733799 -0.969183 -0.636215 0.503318 0.638233 -0.870638 -0.313611 -0.353568 0.624619 0.48896 0.244621 -0.150483 0.149612 0.757664 -0.805364 0.0166927 0.410959 -0.060924 -0.741258 0.49548 -0.753878 -0.681997 0.362163 0.927854 0.885922 0.799527 0.451733 0.18918 -0.224146 -0.243657 -0.285207 -0.983248 -1.0561 -0.20468 -0.887172 -1.31228 -0.210208 0.338173 0.607725 -0.0129402 0.702767 0.712684 -0.681254 0.500504 0.49727 -0.477899 -0.0945757 -0.932495 -0.657427 -0.242775 0.523606 0.955687 0.418256 -0.102505 0.439343 -0.769962 0.761154 -0.0663573 -0.313395 0.344501 -0.719592 -1.13826 0.145157 -0.172604 -1.12637 -0.892765 0.534813 -0.622107 -0.947122 0.0525803 -0.326955 -0.432846 -0.964336 0.734768 -0.898685 -0.799127 0.279234 -0.0694296 0.613025 0.370708 0.587817 -0.249831 0.978727 -0.26841 -0.566797 -0.552746 0.569912 -0.498572 -0.452163 0.709186 -1.43394 -0.338407 0.250774 -1.01043 -0.915809 0.739083 -0.701855 -0.00430819 0.425084 0.160032 -1.05628 -0.11575 0.310118 0.408367 -0.218562 -0.963692 0.625416 -0.672292 -0.488632 -0.736323 0.572923 -0.514541 -0.675844 -0.886764 -0.0386634 -0.0594232 0.460234 -0.22624 0.0929241 -0.323197 0.123144 -0.955237 0.65862 0.411261 -0.0811384 0.801325 -0.0376131 0.0841477 -0.900023 -0.437995 0.119301 0.661888 -1.00234 0.486778 0.997864 -0.391644 -0.434248 -0.857924 0.623133 0.897049 0.87438 0.452185 0.394017 0.198043 0.215768 0.606732 0.319916 0.476259 -0.199937 0.899947 -0.6591 0.824949 -0.350937 -1.00623 -0.019585 0.147187 -0.156227 0.531887 -0.75896 -0.179323 0.0613052 0.807864 0.591601 0.424482 0.727592 -0.381114 0.928003 -0.0570722 0.682508 -0.780158 0.0429425 0.787463 -0.365992 1.04695 -0.776948 0.746962 0.464908 0.146393 -0.6013 -0.179791 0.257671 0.232908 0.686445 -0.510698 -0.950672 -0.194484 0.941445 -0.387642 -0.0389721 -0.366008 -0.61858 0.100742 0.275918 -0.901914 0.554258 -0.404127 0.134985 0.224802 0.300645 -0.187483 0.620082 1.10457 0.962621 -0.725105 0.291154 0.0433641 0.891074 0.0991757 -0.130046 0.526405 -0.693942 -0.2472 0.727441 -0.369349 -0.956855 -0.74715 0.262734 0.539964 0.789544 0.823176 -0.703909 0.392926 -0.156663 -0.593727 -0.368866 -0.155089 0.70784 0.995245 -0.745477 0.0160019 -0.0246764 1.05674 0.0876439 0.802999 -0.255972 0.656289 1.03159 -0.739825 0.42314 0.0508305 0.264095 -0.818808 0.944673 0.0205133 0.902707 -0.660024 -0.399213 0.641957 -0.578234 0.250343 0.627128 0.810404 -0.386774 0.255113 0.849326 -0.451069 -0.94595 0.173064 -0.781194 -0.168953 0.659725 -0.185666 -0.760975 0.968376 -0.834199 0.518023 0.552573 0.823677 -0.759755 -0.291665 -0.499252 0.481552 -0.37962 -0.505722 0.398541 -0.0843837 0.252236 0.84753 0.440901 -0.060213 0.355155 0.125858 -0.495892 -0.925468 0.919401 -0.296203 -0.569021 -0.10635 0.914755 -0.405342 0.415264 0.131738 -0.755263 -0.136594 -0.975437 0.822993 -0.535813 0.601062 -0.562487 0.900937 -0.549058 -0.595202 0.456771 0.383892 0.883847 0.949339 -0.17069 -0.35783 0.797418 0.693838 0.48735 0.950682 0.153233 -0.604236 0.233497 -0.324259 -0.471114 0.291971 -0.551744 -0.596606 0.983764 -0.248024 0.379376 0.321329 0.162877 -0.783074 0.575365 -0.832636 -0.298868 -0.764031 0.0268258 0.0570391 -0.00845361 -0.587451 0.576464 0.502121 0.37846 -0.926145 -0.838374 -0.0664998 0.839595 0.475142 -0.548514 -0.959716 -0.781268 -0.64919 -0.560234 -0.762103 0.0719393 0.630181 -0.436934 0.577258 0.188452 0.115513 0.887265 -0.591845 0.851619 -0.0411695 -0.0433668 0.109409 -0.100803 0.725883 -0.163549 0.196814 -0.352458 -0.12534 -0.0693075 -0.876217 -0.258522 -0.543631 0.131081 0.0865798 0.995217 0.858254 -0.138753 -0.849105 -0.718116 -0.63794 -0.418639 0.958051 -0.496877 0.400694 -0.747451 -0.515671 0.822382 0.304605 -0.421308 0.963988 -0.924863 -0.727897 0.0961639 -0.64153 -0.570116 -0.544803 0.208657 -0.207461 -0.475356 -0.000530326 -0.569498 0.135465 -0.0390877 -0.152289 0.359825 -0.0172857 0.203351 -0.391056 -0.936619 -0.252984 -0.656123 0.806335 0.853238 0.551805 -0.96118 0.316324 0.806146 -0.244057 0.491501 0.00131226 -0.0926237 -0.872488 0.913872 -0.601246 0.72413 0.171599 0.948337 -0.174999 0.233915 -0.225185 -1.00877 0.0317973 0.675592 0.759751 -0.933517 -0.351573 0.899746 -0.126922 -0.419623 -0.719881 -0.861157 0.876548 -0.263588 -0.81457 -0.628101 0.363018 0.284036 0.200476 -0.673339 0.597185 0.116036 0.923098 -0.926434 0.520016 0.667548 -0.387613 0.370307 -0.660064 0.394643 0.289886 -1.15735 -0.158583 -0.337752 -0.890615 -0.0208467 0.0561639 -1.02641 0.900633 -0.60496 -0.86305 0.977289 0.0603714 -0.848384 0.189001 0.150304 0.0491654 1.00439 -0.720378 -0.899399 0.847385 0.619731 0.659714 -0.192994 0.861928 0.216809 0.394062 -0.901726 0.223702 0.273739 -0.69564 -0.542876 -0.211569 -0.831137 0.0470389 -0.129464 0.202284 -0.491488 -0.865749 0.569753 -0.477669 0.499519 0.889401 -0.0761437 0.648107 0.822235 0.863108 -0.47755 0.920104 -0.67998 0.56004 -0.378861 0.288739 -0.386499 0.263689 -0.567133 -0.0245244 0.456588 -0.800923 -0.126406 -0.714449 -0.718611 -0.0231087 -0.164217 0.370983 -0.527691 -0.388254 -0.00378093 0.373677 0.559791 -0.77459 -0.238929 -0.794322 -0.887688 -0.5509 0.76558 -0.982705 0.738194 -0.488022 0.172962 -0.401247 -0.0580473 0.643005 0.779652 -0.261806 -0.0761555 -0.0733068 -0.242838 -0.286736 0.122462 0.0960536 -1.48032 -0.0389422 -0.726774 -0.813423 0.807807 -0.46285 0.472701 -0.765007 0.379666 0.0763483 0.319887 0.404697 0.171391 -0.0320866 -0.173594 -0.523879 0.00158482 0.338462 0.296399 0.939676 -0.177399 -0.208444 0.369563 -0.40325 0.473327 0.425963 -0.427679 -0.116275 0.0106393 -0.0492319 -0.52801 -0.952543 -0.986104 -0.353413 -0.676931 -0.093051 0.784545 -0.669956 -0.0282957 0.901253 0.0987808 0.968738 0.533301 -0.119195 0.764444 -0.080543 -0.720922 0.207634 0.139258 0.159877 -0.55211 0.0766584 0.869293 -0.626776 -0.281587 0.813165 0.436101 0.124831 -0.38513 0.184001 -0.475715 -0.0834156 0.0369579 -0.452864 -0.0796838 -0.452839 -0.912268 0.465568 0.316759 0.766939 0.149844 0.967298 0.549238 -0.232641 -0.159245 0.234259 -0.691127 -1.19179 -1.03169 -0.521121 1.12945 1.07312 0.298458 -0.673459 -0.0407036 -0.380563 0.0294823 -0.206057 0.501889 -0.701202 0.824885 -0.976562 -0.313456 0.519274 0.798155 -0.843746 -0.359985 -0.30615 0.205837 -0.765653 -0.542679 0.872169 1.07318 0.310285 -1.19587 -0.115108 -0.386883 0.598939 0.200258 -0.247885 0.112902 -0.61816 -0.817232 -0.70607 -1.17028 0.873307 0.640096 -0.567608 -0.659658 -0.923093 -0.246254 0.544626 -0.76693 0.470042 0.902847 0.20411 -0.0405148 0.721274 1.02582 -0.738507 -0.723892 -0.149575 -1.05474 0.223501 0.0884891 1.22086 0.274743 1.17798 0.167615 -0.454653 0.665353 -0.493211 -0.679795 -0.969804 -0.929729 -0.150751 -0.591235 -0.113193 -0.382 0.0564897 -0.521609 -0.749289 0.411653 0.246633 0.54828 0.247196 0.682986 -0.315966 -0.260594 -0.753265 0.296513 -0.922858 0.745239 0.374068 0.706008 0.888704 0.876052 0.502882 0.932373 -0.64105 -0.215276 -0.537653 0.108482 -0.475759 -0.72515 0.0775476 0.331156 0.104343 0.638455 0.210041 -1.09375 -0.453033 0.837678 -0.277701 -0.881528 0.357964 -0.285725 -0.338143 -0.284218 0.499059 1.25867 -0.354758 0.473983 -0.348009 -0.802574 0.332416 0.227093 0.0517631 0.317806 -0.274484 -0.921667 -0.743426 -0.692495 -0.646168 -0.655873 -0.355156 0.935641 0.339391 -0.711676 -0.401724 0.867506 -0.4169 0.619023 0.861746 0.129997 0.446528 0.0656248 0.4165 -0.620735 -0.0816707 0.620762 -0.084558 -0.247707 -0.113819 0.248332 -0.971293 0.52559 -0.670267 0.583121 0.499885 0.0992767 -0.0470901 0.901669 0.0777729 0.83017 -0.412137 -0.9453 0.184714 -0.369323 0.596072 -0.648978 -0.570445 -0.391473 -0.695393 0.762417 1.08306 0.90567 0.227491 0.909095 0.323525 -0.642595 0.00185816 -0.6699 -0.462272 0.687153 0.980283 -0.223254 -0.479904 0.897519 -0.899899 -0.575732 0.849345 0.834623 0.832853 -0.435047 0.616252 -0.432211 0.348653 -0.412761 0.0354107 0.754586 0.0540544 0.544816 0.364424 0.1911 -0.230669 -0.667054 0.207747 0.465437 -0.802735 0.474548 1.01306 -0.847268 -0.494727 -0.146295 0.375042 -0.694327 -0.343974 0.317301 0.776581 0.341142 -0.845329 0.574109 0.124204 -1.1562 0.269106 0.351891 -0.572287 0.550789 -0.18171 0.151228 -0.503468 0.871237 -0.354611 -0.00162835 0.759967 -0.472627 -0.104444 0.614072 0.0101228 -0.609673 -0.0392112 0.561249 -0.462508 0.191076 -0.85699 -0.358135 0.801871 0.21331 -0.0664606 0.409891 -0.206792 -0.357481 0.0818873 -1.33019 -0.0391846 -0.287828 0.828476 0.176346 -0.199041 0.20667 0.275103 0.659972 -0.962715 -0.823421 0.769964 0.549691 -0.717397 -0.827988 -0.685065 0.668466 -0.210023 0.737236 0.337382 -0.91229 0.795699 0.978736 0.0840615 0.00961338 -0.516104 -0.166611 0.0196362 0.565495 -1.00005 -0.216884 0.334751 -0.541598 -0.0152199 -1.33644 -0.212138 -0.289781 -0.276289 -0.968834 -0.334943 0.235448 -0.698243 -0.393164 -0.161242 -0.671407 0.120646 -0.421308 -0.384259 -0.316263 0.195317 -0.226394 -1.01002 0.230293 0.471101 0.632399 -1.04905 -0.592865 -1.08789 -0.811234 0.0111363 0.427148 -0.688356 -0.124784 0.209944 -0.574819 -0.272514 -0.980337 0.852256 0.0576871 -0.00673102 0.934015 -0.166 -0.491991 -0.751725 0.955016 0.243324 0.6845 -0.914054 -0.222392 -0.214659 0.931909 -0.305453 -0.499392 -0.615776 0.687117 -0.63205 -0.656393 -0.285746 -0.0931652 -0.113728 -0.147018 -0.99297 -0.301244 0.253092 -0.469537 0.727049 -0.206911 -0.0867994 -0.28723 -0.202686 -0.104526 -0.546678 -0.178564 0.790216 -0.930052 -0.54326 -0.735586 -0.0106922 -0.787897 -0.883496 -0.153387 0.544703 -0.722398 0.802434 0.765832 -0.799786 -0.706388 -0.442454 0.482167 -0.539286 -0.185443 0.124817 0.77812 -0.716024 1.00233 -0.38858 -0.608132 0.720744 0.867 0.541917 0.855281 -0.13535 0.0961639 -0.702994 -0.0157987 0.137811 0.927223 0.905549 0.648021 -0.266583 -0.191042 -0.0341743 0.396181 0.0214514 0.481952 0.286282 0.647359 -0.490946 -0.55257 -0.347848 -0.934301 -0.423723 -0.242508 -0.884114 0.955968 -0.463063 0.866939 0.489242 -0.707327 -0.649464 0.333781 -0.770623 0.0676945 0.90461 0.131844 0.0828156 0.611541 1.01071 0.137382 0.2409 0.599771 0.297334 -0.587477 0.544575 0.882835 -0.192565 -0.207617 0.550916 -0.972142 0.384659 0.234971 -0.230323 -0.0539262 -0.0393994 0.628712 0.461531 0.536729 -0.664907 -0.367229 0.366863 -0.834956 -0.876217 -0.875732 -0.312679 0.748977 -0.955159 -0.437709 -0.809072 -0.517983 -0.0947639 -0.718386 0.625008 0.950498 -0.401101 -0.233305 -0.847195 0.0983064 -0.611011 -0.0526444 0.435957 0.595202 -0.105869 -0.286721 0.96997 0.470687 0.91699 -0.549303 -0.921567 0.967956 0.601184 -0.0635701 -0.192846 -0.177831 0.125034 -0.515854 -0.331156 0.132176 -0.721122 0.462447 -0.659536 -0.479049 -0.76635 0.238075 -0.918332 -0.871822 -0.186071 0.608142 0.689749 0.996887 -0.413373 0.782708 0.801141 -0.582446 0.0795007 -0.0193182 -0.646168 0.792047 0.440046 0.701529 0.0224311 -0.421613 -0.150792 0.735282 0.437544 0.881589 0.00119019 0.973746 -0.995275 -0.749175 0.961782 -0.916983 0.127659 0.243812 0.718314 0.106235 0.667653 0.330363 -0.265847 0.048799 -0.580004 -0.319498 0.81872 -0.481185 0.452132 -0.582446 -0.373394 -0.521043 0.0957366 -0.112827 0.0986053 0.174474 0.413008 -0.490948 0.15546 -0.701066 0.948001 0.773435 -0.0379603 0.463548 -0.426773 0.940353 0.060239 0.0223202 0.258138 0.033723 -0.291238 -0.664479 0.533433 -0.397015 0.712394 0.506943 0.523728 0.966491 -0.924192 0.683645 0.305521 0.347099 -0.215786 0.962712 -0.56767 -0.454252 -0.975463 0.975592 -0.578019 -0.298386 -0.840566 -0.790269 -0.914236 0.736582 0.777537 0.136774 -0.669988 -0.127781 -0.895505 0.192114 -0.499313 0.0863979 -0.882199 -0.311808 -0.107578 -0.194006 0.668996 0.721243 0.286316 0.50886 -0.0884273 0.118139 -0.653592 -0.223816 0.416008 -0.469694 0.671652 0.378495 -0.0777818 -0.49536 0.318634 0.973242 -0.919981 0.372539 -0.315281 0.838989 0.786661 -0.505966 0.279885 0.501877 -0.813532 0.814386 0.685232 0.410259 -0.579622 0.239242 0.0319935 -0.378772 0.0875331 -0.26295 0.0454397 0.751079 0.472948 0.976741 0.555606 -0.988669 -0.329268 0.363659 0.067881 -0.245412 -0.965019 -0.431188 0.420921 -0.159245 0.631038 0.968364 0.596422 -0.0660726 -0.117649 -0.659536 0.496567 -0.884554 -0.0389106 -0.575508 -0.280851 -0.162813 0.663353 -0.616605 0.238907 -0.508243 -0.0220704 0.888707 0.180704 0.982286 -0.679765 -0.352358 -0.905555 -0.660772 0.826571 -0.429284 -0.655845 0.0140749 0.167859 0.0959479 -0.980601 0.69126 -0.808832 -0.454024 0.776376 -0.290837 -0.473367 -0.199272 0.125873 -0.185832 -0.349388 -0.138167 -0.548155 -0.0927365 0.400192 0.782622 -0.0172885 -0.235075 0.0551418 -0.0104702 0.247626 -0.718709 0.841872 0.143551 0.295626 -0.146763 -0.753674 0.814357 0.649667 0.0411504 0.709891 -0.481246 -0.372697 -0.218102 0.630268 0.925922 0.218598 0.650342 0.761639 0.249103 -0.763828 0.419697 -0.99507 0.353645 0.119601 -0.710774 -0.149849 -0.502522 0.740883 0.591433 0.437583 0.939352 0.833761 0.668714 0.886148 -0.638806 -0.937234 -0.951109 0.800775 0.440063 -0.299298 -0.201095 -0.376018 -0.517155 -0.289455 -0.890931 -0.599652 0.187412 -0.0740432 -0.00670778 0.0738464 -0.328751 0.45497 0.906809 -0.54211 -0.72761 0.709307 -0.907759 -0.138297 -0.0519315 0.0188346 -0.163563 -0.19586 -0.0924291 -0.74968 0.545702 0.501022 -0.392795 0.876833 -0.196026 0.327825 -0.827936 -0.922063 -0.078095 -0.631178 0.919284 0.767458 0.448313 0.490702 1.03112 0.345403 0.192748 -0.212011 -0.229391 -0.293352 0.525508 0.800517 -0.582818 -0.773115 -0.686657 0.381462 -0.53106 -0.770625 -0.91052 -0.627125 -0.366192 0.411903 -0.289141 0.910756 0.801088 -0.946717 0.469175 0.918958 -0.113438 0.42986 -0.08642 0.144133 0.337491 0.642952 -0.385508 -0.441412 0.855884 0.0943553 -0.424097 -0.588975 0.104149 -0.491212 0.707625 -0.45877 -0.0705978 0.964596 0.887143 -0.517197 -0.739311 0.264396 0.128274 -0.812079 -0.919624 -0.0373203 -0.573039 0.529321 -0.0806425 -0.947429 -0.600005 0.513697 -0.0348233 0.524951 -0.0850191 -0.649951 -0.977977 0.68533 -0.26363 0.633137 0.0532367 -0.0557946 0.467914 0.425751 -0.598811 0.354043 0.612842 0.697317 0.219703 0.250093 -0.409258 0.585373 -0.450423 0.758366 0.267492 -0.338051 -0.509482 0.726654 -0.104508 -0.521302 -0.677727 0.205508 0.365234 -0.949337 0.803193 -0.778635 -0.720763 0.463315 0.128543 0.897986 0.434471 0.527056 0.870773 0.929014 -0.940977 -0.517869 -0.415387 0.727226 -0.747226 -0.0976582 0.0185864 0.410503 -0.0572901 0.719936 -0.0466039 0.52346 0.616005 -0.270816 0.430998 0.528332 -0.13977 -0.864903 0.476479 0.248037 -0.327041 -0.195188 0.40483 -0.693121 -0.225208 0.0621633 -0.214734 0.963312 0.555528 0.393841 0.0486159 -0.469039 0.87871 -0.925386 0.0345425 -0.73131 -0.577341 -0.667143 -0.695021 -0.308679 -0.930856 0.267815 -0.757697 -0.693744 0.0608495 0.629044 -0.586096 0.0838407 -0.645613 0.977803 0.584446 0.752415 0.777702 -0.042987 0.884837 0.68118 0.096347 0.44908 -0.435652 0.79465 -0.91031 0.143945 0.649867 -0.766777 0.101103 -0.856893 -0.859155 0.285686 -0.484607 -0.417048 0.56414 -0.165589 -0.647099 -0.738197 -0.544423 0.939746 -0.36545 -0.930222 -0.89505 -0.25385 0.914734 -0.433085 -0.212114 -0.749608 -0.888913 -0.438704 0.785394 0.376377 -0.147648 -0.413328 0.346067 0.396454 0.794735 0.136053 -0.207972 0.191994 -0.46555 -0.788826 -0.689165 -0.877785 0.379195 0.0702715 0.101693 -1.07315 -0.479568 -0.307926 0.558556 -0.328906 -0.123781 -0.68367 -0.24748 0.247658 -0.181738 -0.769402 -0.254738 -0.425934 0.0859929 -0.782366 0.948621 0.548766 -0.508079 0.909258 0.160703 -0.569863 -0.0590079 -0.640764 -0.351812 0.768622 -0.532074 0.354034 -0.808035 -0.208796 -0.333719 0.562717 -0.594457 -0.9586 -0.462905 0.508522 -0.948754 -0.715934 -0.902402 0.675588 0.213172 -0.193773 0.361265 -0.132664 -0.645425 -0.399831 0.956931 0.134881 0.448152 -0.0528989 -0.126572 -0.571391 0.935333 0.658746 -0.741691 -0.831518 -0.563354 0.549274 -0.203798 -0.776742 -0.178774 -0.272897 -0.146136 -0.55875 -0.604095 0.479171 -0.179357 0.593738 -0.837947 -0.0464229 -0.389669 0.970938 -0.402182 -0.376467 -0.317484 1.0307 0.833855 0.853079 0.292325 -0.21828 0.829714 -0.738556 -0.728741 -0.513898 0.647038 -0.790992 0.304746 -0.150415 -0.0361458 0.0492956 0.549523 -0.0092536 0.853179 -0.531177 0.57445 -0.261757 -0.211707 -0.936437 -0.189572 0.290457 0.330659 -0.145273 -0.449898 0.637031 -0.678868 -0.330609 -0.771963 -0.678109 -0.390169 -0.339733 -0.86553 0.358965 -0.541544 -0.846695 0.175279 -0.458851 0.130708 0.123699 -0.366188 -0.0474093 -0.317047 -0.36308 -0.281716 0.499069 -0.481185 0.0635035 -0.454196 0.95965 0.47846 -0.428796 -0.279548 -0.476029 -0.690637 -0.973528 0.444307 0.29724 -0.935161 -0.389457 0.0879942 -0.42117 0.57983 -0.344642 -0.140964 0.980809 -0.984646 0.438472 0.575525 -0.815534 0.541306 -0.743585 0.709525 0.674917 -0.555162 -0.781982 0.405311 0.0461829 0.315314 0.5346 0.234032 -0.804185 -0.31152 -0.262161 0.460891 -0.308297 0.187393 0.0214065 0.326041 -0.238163 0.948551 -0.563019 -0.581196 -0.0307123 -0.0175236 -0.851207 -0.881796 0.882748 -0.515793 0.228614 0.636708 -0.375652 0.618274 0.987487 -0.838441 -0.212732 0.480325 -0.323404 0.479085 -0.462766 -0.96215 -0.111923 -0.12752 -0.927041 -0.0804478 0.531154 -0.0913714 -0.114243 0.346451 -0.978964 0.612446 -0.979323 -0.602913 0.82172 -0.276834 0.0771203 -0.790399 0.106906 0.896786 -0.0163884 -0.350688 0.985839 -0.361003 -0.30059 0.402667 -0.319225 0.386109 -0.383437 0.303286 0.909091 0.60231 -0.572161 0.821386 -0.65743 -0.359376 -0.116008 0.148763 0.0329583 0.885908 0.853112 0.496256 0.415141 0.491134 0.572924 0.975219 0.0940275 -0.0451979 -0.862239 -0.958129 0.723441 -0.763317 0.779447 0.508121 0.197377 -0.382197 -0.201236 -0.719405 -0.221872 -0.426236 -0.946605 0.739495 -0.0412659 0.278556 -0.276254 0.0975203 0.0672837 0.414468 -0.637745 -0.597705 -0.955626 0.557054 0.525864 0.6292 0.698965 -0.87701 -0.366436 0.705435 0.822871 0.0412306 -0.033784 -0.425813 -0.773968 -0.0434936 0.364602 -0.608936 0.417767 -0.566282 -0.141577 -0.11666 -0.247441 -0.255401 -0.46118 -0.0453695 0.891174 -0.170089 0.0497147 0.616077 -0.694876 0.877377 -0.16892 -0.807672 -0.258705 -0.703238 0.721427 0.0793176 0.394452 -0.570116 -0.0611896 -0.106479 -0.396222 0.693838 0.928159 0.211097 -0.0927457 0.675039 0.329447 -0.0859706 -0.746391 0.742912 -0.613025 0.211829 0.187414 -0.254677 -0.887204 0.401349 0.818842 0.348796 -0.483688 -0.572192 0.3914 -0.414655 0.213233 -0.691275 -0.740287 0.16953 0.72515 -0.51616 0.0900601 0.146703 -0.216102 0.153233 0.0963035 -0.559252 -0.0481887 -0.334016 -0.884488 0.823104 0.866528 0.0215877 -0.619537 0.0249946 -0.546617 -0.444868 -0.314249 0.196509 0.326945 0.837275 -0.0674154 -0.225562 0.844722 0.908261 0.710074 0.881344 -0.024018 -0.150304 -0.194617 -0.941527 -0.612903 0.792535 0.440934 -0.1832 0.0185763 -0.590607 -0.998112 0.588862 0.479317 -0.0746822 -0.7333 -0.330303 0.730006 -0.0411677 0.51954 0.566948 0.689138 0.5197 0.933958 -0.441755 0.328776 0.35136 -0.512558 0.849483 0.306803 0.741325 -0.291364 0.920875 -0.864204 -0.797621 0.629267 0.632819 -0.919505 -0.761507 0.116512 0.770495 -0.0330939 -0.250723 0.0194248 -0.76767 -0.367412 0.435714 0.854205 0.279585 -0.759758 0.331523 -0.47972 0.479171 -0.712149 -0.976318 0.676626 0.0967742 0.820312 0.337152 -0.204003 -0.881711 -0.288843 -0.0943075 0.877623 -0.378579 0.254783 0.115398 0.0646754 0.417769 -0.151915 -0.584045 -0.124955 -0.723609 -0.0037071 0.214444 0.381109 -0.364235 0.114865 -0.215064 0.428022 -0.489242 0.252846 -0.0234687 0.193274 0.667331 -0.993295 0.288616 -0.287632 -0.128412 0.0221794 0.441896 0.140213 0.857355 0.474704 0.705118 -0.138259 0.960214 0.748125 -0.228881 -0.443914 0.883537 -0.602889 -0.59585 0.875104 -0.71518 0.181139 -0.867509 -0.463321 0.224403 -0.0845668 -0.081515 0.558763 0.0521872 0.203582 0.0759916 -0.562728 0.798485 -0.986328 0.742356 0.797924 0.637983 0.7243 0.852137 -0.618919 -0.195507 0.0114388 1.16472 0.276267 0.314199 0.0249639 -0.794144 -0.405748 0.924355 0.382169 0.0194492 -0.461574 0.466618 -0.177343 -0.116489 0.645591 0.707258 0.831166 0.0709371 -0.16801 0.286 -0.030108 0.0671838 -0.764533 -0.700044 0.525977 0.703305 -0.53238 0.902776 0.912496 -0.0771391 0.335298 0.845308 -0.291938 -0.676704 -0.320416 -0.809045 0.342804 0.289344 -0.482655 0.536628 -0.300516 0.0119327 -0.910914 0.562202 0.556583 -0.134034 -0.406039 -0.664426 0.0814087 -1.11661 -0.882848 0.725141 -0.570726 0.116615 1.04374 0.37431 -0.146233 0.664071 -0.352421 0.71328 -0.469486 0.0571644 0.198616 -0.0286901 0.666205 0.119426 -0.0326633 0.656911 0.588549 0.878721 0.0343429 0.551182 -0.383914 -0.888465 0.424528 0.899923 0.715965 -0.868071 -0.157032 -0.287181 0.882646 0.49586 -0.556909 -0.310005 0.359706 -0.214777 0.186537 0.915362 0.800587 -0.305864 -0.730515 0.677275 -0.34276 0.115892 0.0929497 -0.0972015 -0.00674456 0.830045 0.926692 -0.0679561 0.302796 -0.631739 0.767997 0.525131 0.0149161 0.677368 0.89287 0.913099 -0.772034 -0.244584 -0.477706 -0.271345 -0.910662 -0.639125 -1.06478 0.488749 -0.172558 0.131726 0.391061 0.680089 -0.768279 -0.800513 -0.905064 -0.683889 0.2125 -0.302652 -0.953288 -0.446773 -0.764341 0.553643 0.535868 -0.190421 -0.431196 0.50912 0.511399 0.932655 0.25558 1.12264 -0.424981 -0.416064 0.51479 -0.664461 -0.868183 -0.131628 -0.467505 -0.717749 -0.740591 -0.575715 0.799742 -0.501767 -0.153012 -0.747917 0.0544755 0.436506 0.394535 -0.215922 -0.976385 0.30956 0.738391 0.0496243 -0.840445 -0.607042 0.509875 0.938807 0.57114 0.850305 0.937551 0.689761 0.291755 -0.512206 -0.654361 -0.403015 0.126321 0.0490667 -0.310107 -0.028389 0.960326 -0.939536 -0.925199 -0.129307 -0.883541 -0.975646 -0.272869 -0.748428 0.0430399 -0.20198 0.345177 0.799602 0.249019 -0.165032 -0.260635 -0.652381 -0.1744 0.831774 -0.65066 -0.0512101 0.484114 -0.388741 0.670786 0.114544 0.200435 -0.149648 -0.492211 -0.485364 -0.727554 0.0954464 0.370041 0.708548 0.818964 0.10886 -0.621632 -0.857013 -0.847781 0.14022 0.347632 -0.0159715 -0.679679 -0.905348 0.273281 0.797261 0.561623 0.669072 0.793992 0.831821 -0.617131 -0.671411 0.196905 0.512988 -1.04777 0.523013 -0.191399 -0.210545 -0.690341 0.288111 -0.0726732 0.270424 -0.619129 0.832942 -0.480026 -0.843308 -0.231923 0.978552 -0.717732 0.288125 -0.281233 0.304678 -0.754718 -0.118961 0.0827369 -0.544648 -0.0529562 0.456388 -1.1718 0.464975 -0.640242 -1.04031 -1.18557 -0.578084 0.00901282 -0.474997 0.697504 -0.257641 -0.39345 -0.422101 0.923887 0.27195 -0.396162 -0.107858 0.155714 0.0660832 0.55317 -0.789459 -0.298056 -0.943705 -0.0659962 0.761708 0.821959 0.256928 -0.903049 -0.350352 -1.01214 0.706342 -0.139524 -0.259085 0.0244725 -1.01584 0.567118 -0.288702 0.06314 0.799125 -0.959884 0.612659 -0.107028 0.921934 -0.348774 -0.213058 0.516721 0.967755 0.0875112 0.437072 -0.650262 -0.427561 0.113927 0.435539 -0.623406 0.371494 0.796387 -1.12127 -0.136795 -0.539855 -0.874174 -0.15252 -0.0596444 -1.12613 0.420362 -0.790397 0.0664473 -0.581889 -0.550707 -0.408795 0.981262 -0.324442 -0.935807 -0.661672 0.0660679 0.676032 -0.783128 -0.289461 0.563478 0.509885 0.719877 -0.107012 0.26658 0.0788159 -0.311487 -0.209296 -0.752761 0.576205 -0.8114 -0.028466 -0.204817 0.67945 -0.0472032 0.602228 -0.959166 -0.678799 0.88525 0.00985754 -0.254555 0.724601 -0.319362 0.781663 -0.163638 0.203392 0.623196 -0.646263 -0.787128 -0.165073 0.127751 -0.950286 -0.551833 0.71657 -0.486176 0.229778 0.0885315 0.188557 0.405319 0.324494 0.329728 -0.791888 -0.0843463 -0.284703 0.00729066 -0.638571 -0.438582 -0.603565 0.101352 -0.175146 0.735109 0.0152534 0.749746 0.804015 0.676668 0.33827 0.661472 0.0169122 -0.102405 -0.500962 -0.817901 -0.609094 0.126052 -0.509203 -0.603458 0.918476 -0.132509 0.685941 0.285696 0.301104 -0.735639 -0.951339 -0.457259 -0.108556 0.970484 0.706473 -0.11539 0.362713 0.376454 0.536968 0.911403 0.0656837 -0.248049 0.655268 -0.548531 -0.0639875 0.617801 -0.556414 -0.0697883 -0.479182 -0.198361 0.0233115 0.162334 -0.841241 -0.725768 0.159297 -0.635438 0.653846 -0.566085 0.666786 -0.380012 0.0859216 -0.525407 0.301248 0.66625 0.659474 -0.457021 0.909512 -0.146105 -0.728326 0.260599 -0.872256 0.727518 -0.68226 -0.199097 -0.746457 0.214593 0.347362 0.965609 -0.277682 -0.634492 0.854681 0.498788 0.963771 -1.00761 0.348945 0.671148 -0.376701 0.535094 -0.0721043 0.0564538 -0.553941 -0.991028 0.951537 0.748831 0.91518 -0.682638 -0.853411 -0.833897 0.211127 0.83094 0.247785 0.347752 -0.556063 0.571453 -0.428138 0.464713 0.817039 0.316342 0.430027 -0.235917 -0.344596 -0.999289 -0.813398 0.514711 -0.481695 -0.0237028 -0.738029 0.91821 -0.735282 -0.646901 -0.516221 -0.436506 -0.0766212 -0.0998526 0.705851 -0.0983468 0.588784 0.660189 0.408865 -0.393851 0.504065 0.376574 -0.800504 0.112802 -0.436599 -0.200636 -0.240439 -0.449932 0.148897 -0.250821 -0.341479 0.794771 -0.105022 0.921655 -0.648183 0.614185 0.0889615 -0.282083 0.154332 -0.574633 -0.779167 -0.0830186 -0.49524 -0.208248 0.849825 0.466216 -0.326912 -0.761438 0.33225 -0.240937 0.846927 0.493564 0.975837 0.0725427 0.489325 0.751653 -0.798553 -0.826697 -0.381699 -0.694867 0.303188 -0.961256 -0.669362 0.407636 -0.860103 0.407819 -0.853633 -0.505783 -0.812167 -0.406184 -0.306595 0.665495 0.402138 -0.00342103 -0.321399 0.891843 -0.967943 -0.57694 0.32052 -0.397544 -0.856695 0.428213 -0.205833 -0.472427 -0.919472 0.846466 -0.685403 0.385296 -0.912473 -0.0220038 -0.967284 -0.463118 -0.521104 0.909604 0.987243 0.226539 -0.651357 0.691519 -0.166673 -0.122924 -0.995616 -0.542276 0.929983 0.363906 0.650044 0.706804 0.639574 0.75229 0.808737 0.0519231 -0.555593 0.975535 -0.703468 0.814875 0.254006 0.419965 -0.03708 -0.262123 0.62212 0.0794396 0.165685 -0.831843 -0.530503 0.360454 0.138096 0.948912 0.599963 0.852718 -0.891781 0.404767 0.01236 0.6386 -0.40849 -0.298746 -0.92523 -0.979003 0.457747 0.894345 0.6245 -0.526292 0.329508 -0.015717 0.0558183 0.627003 -0.124607 0.286294 0.459334 -0.899106 0.560533 0.429792 -0.126194 -0.00131232 0.416059 -0.701346 -0.285562 -0.127232 0.391034 -0.773431 0.438887 -0.02061 -0.130846 -0.242836 -0.484213 0.615522 0.774441 -0.71239 -0.247961 0.38975 -0.772942 0.884091 -0.956359 -0.792657 -0.313944 -0.351787 -0.355754 0.777276 0.709159 -0.16245 -0.0708334 -0.523545 -0.390423 -0.838374 0.821772 -0.620106 0.628224 0.500778 -0.12656 0.283471 0.24259 0.392087 -0.906971 0.382134 -0.170638 0.506713 -0.419188 0.79515 0.218339 -0.2542 0.865475 -0.764674 -0.842384 0.596973 0.67217 0.176489 0.746452 -0.0297555 -0.050203 0.701895 0.442549 0.0218208 -0.496017 -0.475336 -0.328991 0.738087 -0.476953 0.546065 0.441432 0.493936 -0.584975 -0.224707 -0.707644 -0.403514 -0.554408 -0.184736 0.0943611 0.0569302 0.572514 0.086477 -0.633702 -0.831233 0.640431 -0.611805 -0.742241 -0.491806 -0.415387 0.656911 -0.817011 0.433275 -0.981126 0.735763 0.524895 0.926819 -0.702775 -0.702576 -0.827284 0.638289 0.447784 0.79558 0.0901271 0.475823 1.00348 0.754536 -0.636341 0.694271 0.651665 -0.86394 0.426273 -0.836844 0.443587 -0.311258 -0.465438 0.217078 -0.382183 -0.254494 -0.651588 0.654486 -0.85315 0.960583 0.462713 -0.933309 -0.793706 0.334038 -0.678734 0.361943 0.966488 0.867045 0.0719721 0.519059 0.121925 0.601 -0.918652 -0.785408 0.467677 -0.713076 -0.494522 -0.127911 0.368498 0.427364 -0.338298 0.434675 0.257912 0.677541 -0.197841 0.0874016 0.598575 0.199164 0.00431429 0.561828 0.0698122 -0.406135 -0.0545676 0.519536 -0.631035 0.151698 0.0450974 -0.264035 1.21269 0.424164 0.639485 -0.961882 -0.559081 -0.678057 -0.787965 -0.733419 -0.326133 0.319713 -0.627152 0.249306 0.35197 0.569462 -0.8124 -0.193407 0.430368 0.180363 -1.04846 0.515055 0.769352 -0.119075 0.789922 -0.183354 0.78563 1.3026 1.20963 0.408494 0.344644 -0.964359 -0.354655 0.772426 -0.519224 0.0548924 0.620253 -0.600211 0.221152 -0.129753 -0.376412 0.55736 0.963805 -0.0177136 -0.343688 -0.918061 0.679989 -0.454069 -0.844262 0.704919 0.610726 -0.321285 0.155452 0.0645869 -0.189372 1.03037 0.111828 -0.540638 -0.470245 -0.688637 -0.606917 -0.989011 0.933102 0.07261 0.000188791 -0.898648 0.196783 0.514078 -0.212073 -0.812983 -0.24775 -0.498345 -0.312071 0.435187 0.238505 0.781394 -0.933282 0.191053 -0.141192 0.909639 -0.764238 0.68975 0.130071 0.177974 -0.70388 -0.757771 -0.991933 0.0165804 0.23316 -1.07384 -0.0891414 -0.306402 -0.686173 0.0558822 -0.440997 -0.727982 0.451216 0.275918 -0.410651 -0.33986 -0.753549 0.381684 -0.136934 -1.06466 -0.146843 -0.109453 -0.820748 -0.045845 0.898076 0.751606 0.675539 0.181355 0.749531 0.142631 -0.857965 -0.826415 -1.04393 -0.00764569 -0.823142 0.234647 0.238136 -0.436981 -0.430563 0.601489 0.729606 0.0901822 -0.149266 0.807731 0.873861 -0.404386 -0.348777 0.194404 0.388853 -0.115507 -0.658839 0.285538 -0.186022 0.0595209 -0.119342 -0.788787 0.956583 -0.635359 0.181371 -0.94953 0.76747 -0.246948 -0.167661 0.731702 -0.115685 0.112502 0.0408312 0.0247173 0.0292672 -0.52739 -0.176183 0.635779 -0.138275 0.298311 -0.0138985 0.783478 0.750661 0.357598 -0.0511308 0.292514 0.31703 0.978787 -0.105298 -0.334096 -0.649189 0.569066 0.463721 -0.0332924 -0.30271 0.33705 0.26287 0.137699 0.852927 0.738573 0.247261 -0.65792 -0.789422 0.106845 0.663564 0.0573442 -0.712867 0.612666 -0.772354 0.757276 -0.872826 0.824997 0.706667 -0.249464 -0.0552348 1.02438 0.843054 0.869644 0.129644 -0.304689 -0.857283 -0.290258 -0.556963 -0.360435 0.61761 0.861797 -0.88913 -0.957105 -0.336462 0.036003 -0.918088 0.785882 -0.662282 -0.868587 -0.916396 -0.762289 0.0696431 -0.252407 0.381128 0.349829 -0.277813 -0.253307 0.437158 0.296912 0.600616 -0.18109 1.25724 -0.259425 0.464237 0.237624 -0.152441 0.0154019 -0.109982 0.432879 -0.372559 0.108258 0.0887165 0.605405 -0.837214 0.871578 0.997986 -0.308206 0.90056 0.931324 0.654872 -0.321318 -1.00353 -0.971276 -0.488379 -0.530614 0.2671 0.10264 0.122114 0.0285079 -0.774432 -0.713567 0.627711 -0.425978 -0.335995 0.195169 0.0475107 -0.877885 0.696556 -0.638357 -0.337704 0.489681 0.654775 -0.866512 -0.786615 0.396579 -0.33487 -0.79386 0.54274 0.474676 0.060502 -0.613675 0.946123 0.502729 0.323159 -0.0793609 0.477862 0.577246 -0.79648 0.400371 -0.562293 -1.0677 -0.603997 0.212126 -0.818618 -0.249778 0.633762 -0.238546 0.00409176 0.316346 0.556078 -0.846065 0.50615 0.874665 -0.0683242 -0.782884 -0.873304 -0.928829 -0.113589 -0.249648 0.937379 -0.801685 -0.0410282 0.894395 0.70318 -0.267684 0.743139 -0.949928 -0.505211 -0.0849634 -0.146127 -0.204422 -0.576091 -0.0770252 0.42551 0.489249 -0.948609 -0.985046 0.859004 -0.513413 0.624012 0.653175 -0.224872 -0.390103 0.420059 -0.423895 -0.539393 0.0654651 0.11827 -0.251261 -0.409007 -0.652876 -0.978436 0.921929 -0.49638 0.364456 -0.735043 0.69778 0.699832 -0.516154 0.341696 -0.872528 -0.538395 -0.714036 -0.97663 -0.292093 -0.233985 -0.242897 0.989807 -0.433109 0.371085 -0.308752 0.944432 0.935983 0.106258 -0.837137 -0.310074 -0.51033 0.104431 -0.408015 0.257709 -0.204604 -0.326146 0.791916 0.131946 0.696877 -0.631691 -0.478737 -0.1968 -0.120331 -0.670769 -0.853192 -0.0590275 0.906857 0.863826 0.892331 0.76342 -0.68229 0.110904 0.96509 -0.713451 0.647222 -0.133912 0.0527088 -0.816726 -0.187359 -0.67982 -0.637565 -0.352842 0.0198121 0.545402 0.858008 0.468828 -0.309595 0.877787 0.0243041 0.0522768 0.543833 0.935014 0.817257 0.174651 0.720558 -0.809137 0.665944 0.955077 0.876794 -0.978028 -0.655587 0.462045 0.109705 0.318605 -0.215468 0.335004 0.538333 -0.69326 0.861986 0.0992822 -0.839137 -0.61642 -0.239614 0.623388 0.87963 0.0837608 0.47916 -0.817073 -0.691206 0.130092 0.930324 0.350194 0.816063 0.13834 0.747978 0.0261544 -0.562574 0.795987 -0.846867 0.726579 0.00247702 -0.0628127 0.941834 -0.935117 -0.71652 -0.727748 -0.602495 -0.101607 0.677529 0.832059 0.23309 -0.260503 0.916576 -0.868819 -0.924783 0.270959 -0.742272 0.812015 0.673338 0.151994 -0.225188 0.11887 0.445784 -0.583056 -0.396569 -0.102524 -0.778797 0.199363 0.118204 0.399964 0.229625 0.788554 0.0267478 0.514557 0.0561745 1.05823 0.257376 -0.889937 -0.0448712 0.597015 -0.697007 0.186868 -0.153185 -0.903178 0.715829 -0.0891326 -0.0857826 0.408124 0.546739 0.943968 -0.676077 0.436689 0.437178 -0.843577 -0.0941646 -0.197204 -0.15283 -0.132052 -0.423476 0.655827 0.804467 0.100249 0.0544529 0.91998 0.0328014 0.299044 -0.159977 0.0039218 0.427411 0.820151 0.0188143 0.549802 -0.111581 0.825752 -0.733343 -0.0633259 -0.30314 0.845088 -0.109409 0.954527 -0.85168 -0.550421 -0.190822 0.430843 0.811925 -0.573324 -0.955378 0.15474 -0.453775 0.524894 0.90526 -0.934428 -0.243102 -0.165009 -0.61465 -0.818565 0.0507016 -0.0197829 0.155849 -0.808208 -0.956429 -0.366992 0.977705 -0.444197 -0.875301 0.076571 0.537462 -0.670705 -0.942137 0.677502 -0.919157 0.245317 0.631792 0.194063 -0.95538 -0.326694 0.170535 0.858729 0.374524 -0.296397 -0.444024 -0.931481 -0.279187 -0.114591 -0.781699 -0.676673 -0.0595024 0.432998 0.961669 0.342387 0.965209 0.707022 -0.0652791 0.0389721 -0.078402 0.0148625 0.530381 -0.457442 0.996704 -0.338696 0.0889713 0.0305613 0.0520382 0.852113 -0.4208 -0.192567 -0.470567 -0.780131 0.285578 -0.509227 -0.917759 0.0676584 0.318104 -0.0743147 0.416486 -0.523057 -0.504562 0.018891 -0.824091 -0.868954 -0.838618 -0.141453 0.97589 0.277993 0.56859 -0.371258 0.0852993 0.506455 0.764092 -0.252907 -0.427778 0.648183 0.144444 -0.65038 0.0533769 -0.219947 -0.301431 -0.189795 -0.615589 -0.597766 0.724174 0.842647 0.604968 0.854244 0.828486 -0.253395 0.449141 -0.968017 -0.972411 -0.638356 -0.26426 0.468368 -0.244484 -0.710562 -0.0504471 0.839045 0.595508 -0.0508744 -0.673574 -0.0431226 -0.452985 0.0266494 0.754936 -0.681759 0.642374 0.881402 0.806765 0.257033 -0.288489 0.471114 0.209204 -0.212928 -0.851253 0.362529 -0.930113 0.166601 -0.574084 0.381207 -0.829829 -0.724357 0.232154 0.472579 0.63567 -0.148228 -0.987976 0.330851 -0.701224 0.652272 -0.260227 0.405663 0.0956046 -0.385149 -0.335289 0.529875 0.598999 0.0135072 -0.940452 0.689346 0.626326 -0.147297 -0.580728 0.895138 -0.798334 -0.702567 -0.689932 -0.667409 -0.796136 0.41319 -0.60332 0.368816 -0.585864 0.204627 -0.380717 0.321055 -0.533752 -0.999735 0.273386 -0.460595 0.050404 -0.65285 -0.223709 0.0776305 -0.676614 -0.945674 1.01533 0.270882 0.754281 0.398089 0.936228 0.648183 0.385174 0.446394 -0.316324 0.996704 -0.881649 0.164281 -0.984863 0.831477 0.271162 0.301619 -0.881682 -0.923628 -0.426016 -0.906276 -0.300773 -0.355164 0.331477 -0.0955369 -0.157314 0.0915402 0.594336 -0.415965 0.426405 -0.0403639 0.564621 0.0843084 0.400029 0.879248 0.289245 -0.613514 -0.125217 0.447249 -0.480514 0.229957 0.429182 -0.497989 0.273443 -0.0695078 0.120487 -0.305993 -0.0194652 0.687534 -0.0846901 0.532456 -0.487503 0.55621 -0.718162 -0.800368 0.125258 -0.884791 -0.616804 0.2452 -0.771098 -0.0275166 -0.0909495 0.956696 -0.0853763 0.812084 -0.217651 -0.939573 0.0589312 -0.685659 -0.451582 -0.424433 0.0148616 -0.333753 0.532467 -0.17329 0.414081 -0.701765 0.432606 0.649031 -1.07055 -0.740667 0.582048 0.230773 -0.891089 0.810468 0.779052 -0.962689 -0.166448 0.951297 -0.817844 0.949586 -0.613058 -0.390633 -0.216737 -0.456046 0.0969573 -0.11362 0.317356 0.179697 0.288587 -0.341759 -0.436051 -0.720543 0.370129 -0.391496 0.249563 0.559819 -0.737921 0.845534 0.351482 0.449067 0.221371 -0.484162 0.239203 -0.836239 0.882294 0.535792 -0.757536 -0.154057 -0.355904 0.704295 0.988064 -0.0767756 0.494247 -0.445479 0.33829 0.234048 0.272241 -0.0229785 -0.0407151 0.380026 0.920805 -0.416992 0.0527653 0.916047 0.0376734 -0.487291 0.835056 0.888731 -0.295752 -0.39082 -0.617551 -1.21621 0.666655 -0.792613 0.0621537 0.796673 0.0368437 0.876903 -0.472339 -0.578478 -0.279946 -0.507869 -0.655229 -0.268668 -0.780889 -0.155328 -0.437168 -0.841184 0.40065 0.601966 0.29676 1.13507 -0.363013 -0.66357 0.570018 -0.924975 -0.0807804 -0.106821 -0.334285 0.230564 0.125 0.628281 0.164058 0.78465 -0.78795 -0.99756 -0.429877 0.173315 0.464156 -0.64855 0.205781 -0.472544 -0.951263 0.926981 -0.0368488 -0.222742 0.137401 0.337261 0.0174759 0.904108 0.879069 0.429242 0.585629 -0.868603 0.241884 -0.471602 -1.13295 0.768426 -0.709502 -0.559065 -1.02428 0.347501 -0.760098 0.161868 0.740653 -0.294107 -0.0596637 -0.896725 -0.791942 -0.594288 -0.0458697 -0.778538 0.472731 0.0314799 -0.530934 1.35283 -0.0747035 0.403297 0.86712 0.691162 0.5201 -0.125093 -0.202785 -0.359668 -0.832007 0.55942 -0.995524 0.221238 -0.537647 0.713776 0.489697 0.0402527 0.636447 0.128819 0.0690634 -0.76043 -0.898924 -0.656079 0.176665 0.531464 -0.92822 -0.128503 0.132935 -0.852899 -0.885974 0.0365914 0.3663 -0.40711 0.0274186 0.0717282 0.871617 0.35953 -0.591278 -0.319927 -0.0854521 0.342791 -0.173908 -0.143731 -0.89491 -0.889885 0.151971 0.967711 0.725761 -0.222694 -0.1175 0.0719486 0.10404 0.744093 -0.283511 -0.502002 -0.23678 0.501322 -0.41276 0.729483 -0.995 0.330791 -0.493324 -0.595985 -0.909685 -0.110467 0.588827 -0.63262 -0.583369 -0.227983 -0.502003 0.519491 0.505159 0.921512 0.2314 -0.420331 0.243873 -0.499619 0.861629 -0.252179 0.0611106 -0.537329 -0.785664 -0.497404 0.126783 0.717754 0.816526 -0.890863 0.739937 0.54969 -0.164417 -0.0389042 0.30289 0.684026 0.326372 0.513215 0.642643 0.380969 0.751732 0.346929 0.972574 0.0524154 -0.182045 0.0892056 0.358806 -0.122654 0.608264 0.749153 -0.264211 0.268086 -0.135468 -0.843781 -0.910202 0.333232 0.400691 0.515546 0.647052 0.76812 -0.514702 0.305643 0.561231 0.392043 -0.823557 -0.374901 -0.608504 0.515104 -0.592764 0.778152 0.594764 0.0963686 -0.354809 0.779962 -0.219092 -0.907529 0.622509 -0.5912 0.634549 0.255557 0.572295 -0.655416 0.507766 -0.254714 -0.274418 1.12689 0.785562 -0.660838 -0.373883 -0.158485 -0.401972 -1.08339 -1.11993 -0.995473 0.149444 0.61261 -0.93087 0.865041 -0.338527 -0.882163 -0.448302 0.881893 -0.414899 0.62743 -0.655675 0.771731 -0.486121 0.255053 0.4897 -0.510931 -0.85442 -0.420619 1.06131 0.186517 0.816629 0.904071 0.010924 0.823423 0.563725 -0.0112782 0.205081 -0.997294 0.243429 0.0236844 -0.996573 0.732074 -0.174101 -0.885926 0.0260323 0.690054 0.60387 -0.168798 0.177789 -0.787377 0.372137 -0.192985 -0.917003 -0.559226 -0.482774 0.270157 0.178843 1.00706 0.0638637 1.1154 1.00245 0.321864 0.239594 0.414959 -0.578782 0.00667131 0.846911 0.860814 -0.347214 0.823099 -0.00432185 0.708283 -0.339274 -0.0468459 0.0121158 0.916562 0.281146 0.915982 0.767613 0.962278 0.686639 0.145419 0.51615 -0.317549 0.954959 0.741859 0.617129 0.870643 0.0747716 0.375165 -0.0514947 0.670763 -0.488765 0.385081 0.758232 0.768177 0.594148 -0.00875269 0.559871 -0.238808 -0.796075 0.468856 -0.709281 -0.181738 -0.272625 -0.902402 -0.196043 -1.07739 -0.950161 0.316119 0.536868 0.242813 0.598925 -0.0296116 -0.104028 0.704169 0.214321 -0.98513 0.757546 -0.862741 0.675694 0.0643707 0.776529 0.902979 0.51545 -0.182709 -0.403877 -0.841161 -0.105952 -0.176183 0.75689 -0.646168 -0.271666 -0.0599927 0.216015 -0.997349 -0.271875 0.334585 -0.95043 0.789925 0.754192 0.404105 -0.469269 0.695155 -0.780381 0.298495 -0.914978 -0.591265 -0.759755 0.203874 0.732558 0.184613 -0.638149 0.4794 0.52605 0.286835 0.775407 0.215857 0.847652 0.121372 -0.21226 0.234247 -0.791705 0.29916 -1.16996 0.0564629 0.687771 -0.000167876 -1.16704 -0.0709508 -0.105435 0.232349 0.886244 -0.450336 -0.56172 0.536109 0.441205 -0.618936 -0.498873 -0.917325 -0.449876 0.499592 -0.270222 -0.347179 0.662897 -0.704825 -0.654714 -0.426801 0.146681 0.442262 0.823031 -0.480743 0.746061 -0.163096 0.483881 0.0563105 -0.0393594 -1.0587 0.140287 -0.863068 -0.015125 -0.100653 -0.561706 -0.728627 -0.103992 -0.688566 -0.897984 -0.473853 -0.435804 0.43409 0.653513 0.996399 -0.544603 0.9635 0.731986 0.70397 -0.510483 0.405086 0.503267 -0.103922 -0.480028 0.0217032 -0.590817 -1.09448 -0.257266 -0.463339 -0.1178 0.513142 -0.816711 -0.764356 -0.486097 0.399806 -0.0474312 -0.285653 0.800297 -0.0806026 0.801621 -0.968884 0.935256 0.439314 0.491989 -0.933714 0.859859 0.787774 0.503647 -0.421932 0.453371 -0.18258 0.7569 -0.58373 -0.313546 0.832431 -0.922702 -0.501072 -0.0686927 0.91547 -0.363254 -0.327673 0.84426 0.904024 0.923283 -0.516825 0.766268 0.483816 -0.596212 0.768658 -0.116886 -0.957152 0.631275 -0.0808435 -0.873959 -0.395001 0.934263 0.452377 0.969608 0.436452 -0.701415 -0.864186 -0.747673 0.994001 -0.381234 -0.229034 -0.757764 0.344555 0.0643625 0.234063 -0.740784 -0.771677 0.703599 -0.349241 -0.962613 -0.635892 -0.490951 0.426984 0.233314 0.226783 -0.269326 0.601184 -0.661489 -0.405499 0.878231 -0.4962 -0.698538 0.564936 0.703763 -0.384162 0.386369 0.227112 -0.569316 -0.876565 0.720572 -0.806519 -0.87656 0.794414 -0.163206 0.25677 0.282358 -0.185718 -0.440413 0.982788 0.000701904 -0.0494705 -0.508347 0.492233 0.230811 0.95764 -0.539354 -0.631397 -0.0102237 0.301248 0.212134 0.833308 0.239601 0.217933 0.670644 0.210974 -0.289773 -0.594653 -0.920164 0.760002 -0.341289 -0.00436413 0.33372 0.928587 0.351054 -0.640065 0.811579 -0.90112 -0.921323 -0.691763 -0.970031 0.882809 0.523423 0.245643 -0.577013 -0.970519 -0.718375 0.848445 -0.435713 -0.989502 -0.637989 0.822138 0.142979 0.341716 0.46796 -0.695352 0.00558484 0.706912 -0.122829 0.475905 -0.41689 0.946159 -0.266567 0.929136 0.975585 -0.0421461 0.555223 0.402692 0.123997 -0.379254 0.792108 0.362896 -0.811945 0.723624 -0.788202 0.0787072 0.635121 0.0408642 -0.0390942 0.70159 -0.761956 -0.429121 -0.906255 0.937655 -0.661646 0.0163553 0.381309 0.832008 -0.338192 -0.436721 -0.782589 -0.711028 0.974435 0.00954854 0.487487 -0.0693011 -0.879696 -0.642994 -0.987182 0.59508 0.257118 0.871944 0.743156 -0.572924 -0.850459 -0.341838 -0.892459 0.82623 -0.493526 0.907422 0.6369 -0.0258917 0.794503 0.79729 0.520241 -0.758087 0.568025 0.0848088 -0.12971 -0.350461 -0.499589 -0.4106 -0.168833 0.138322 0.919309 -0.528367 -0.197302 -0.179174 0.80578 -0.486618 -0.93762 0.421918 0.256429 0.216018 -0.659463 -0.231122 -0.414057 0.172265 -0.622301 -0.293082 0.942762 -0.670534 0.734881 0.771328 -0.153205 -0.372959 0.858554 0.0116158 -0.888256 1.00621 -0.180223 -0.588468 0.962216 0.862423 -0.197058 -0.888852 -0.364544 -0.800775 0.647816 0.233193 -0.368014 0.126852 0.116149 0.180775 -0.268066 -0.627218 0.195535 -0.321907 0.846808 0.0131992 1.04526 -0.366361 0.44949 -0.779778 0.716673 0.231025 0.0916833 0.702659 -0.143246 -0.320495 0.961955 -0.320572 0.285679 0.660878 -0.870174 0.875546 -0.629017 0.11511 -0.100531 -0.63671 -0.934265 -0.372805 0.769814 0.25792 -0.237601 0.144465 0.820637 0.102164 -0.724058 -0.60166 0.331559 0.29387 -0.540424 -0.450737 0.317888 -0.765285 0.236867 0.296919 0.248203 -0.67933 0.675831 -0.0125693 0.401593 -0.808466 0.322354 0.674478 0.54996 0.369535 0.823787 0.892258 -0.943036 0.46865 0.199413 -0.709172 0.758914 -0.12695 -1.15717 -0.533656 0.213395 -0.836293 -0.882735 -0.45524 0.165741 -0.555796 -0.13439 -0.0487737 0.676443 -0.589996 -0.362093 -0.651715 0.818598 0.671438 -0.95449 0.950096 0.595492 -0.917098 0.0835807 -0.408889 -0.585826 -0.487371 0.469322 0.904165 -1.14694 -1.09409 -0.323054 -1.0356 0.29576 -0.593422 0.103931 -0.724787 -0.410028 0.777273 -0.420272 -0.0879429 0.371412 0.910172 -0.479104 -0.724357 -0.903439 -0.8239 0.86533 -0.889923 -0.0148918 -0.935457 0.558478 0.158891 -0.873643 -0.86713 0.718128 0.33072 -0.663832 -0.827258 0.304483 -0.596751 0.205489 0.570189 -0.458234 0.200985 -0.946277 -0.915693 0.413603 -0.131193 0.155556 -0.068111 0.702379 0.227515 0.145604 0.164916 -0.000692446 -0.14681 -0.790371 -0.338206 0.571784 -0.187437 -0.624042 0.0531299 0.961825 -0.80709 -0.0291218 -1.03495 0.161366 0.430349 -0.248596 0.822906 -0.38969 0.0245627 -0.232586 0.313171 -0.40945 0.150781 0.245279 -0.590202 -0.386391 -0.765557 0.85754 -0.0160832 -0.761649 0.496607 -0.806021 -0.698153 0.796818 -0.17056 -0.581565 0.382371 0.620236 0.606216 -0.0462335 0.208975 -0.483026 0.864933 0.16336 0.0245009 0.617718 -0.901647 -0.693617 -0.1749 0.293228 -0.772569 -0.866742 -0.13941 -0.876467 -0.488205 -0.976684 -0.0421461 -0.469029 0.314363 0.442645 0.4413 -0.917362 -0.171446 -0.71366 -0.0567704 -0.615612 0.901002 0.344722 -0.954671 -0.491269 -0.785957 1.09545 0.799147 -0.921632 0.901411 0.398756 -0.0875251 -0.313626 0.965686 0.510668 -0.282512 -1.0064 -0.0348827 0.565844 -0.599597 0.661047 -0.43786 -0.0975087 -0.373976 0.0131437 0.218405 0.508499 -0.901544 -0.838241 -0.181441 -0.461815 -0.849503 -0.730918 0.872233 0.0524337 0.516884 -0.140998 0.589027 0.252066 0.283372 0.656298 -0.198382 -0.964948 0.157808 0.950707 0.528062 -0.723197 -0.842219 0.448103 0.832206 0.773438 -0.744333 -0.357731 0.533003 0.942705 0.580615 1.06499 -0.206201 -0.660321 0.2545 -0.771179 -0.800324 0.802449 -0.629394 0.289093 -0.877869 -0.414582 0.445019 0.121635 0.11953 -0.201256 -0.139978 0.260042 0.269448 0.245766 0.0742515 -0.977477 0.758076 -0.826727 0.0598473 -0.607327 0.431581 1.17371 0.185038 0.715317 -0.616147 0.104045 0.53212 0.414824 -0.56181 -0.663678 0.344757 0.465272 -0.929294 0.907847 -0.339886 0.135347 -0.940693 0.126336 0.0726353 0.384059 0.207556 -0.833247 -0.18009 0.113238 0.926511 -0.97566 -0.68801 -0.526202 -0.354528 -0.469048 -0.14173 0.578021 0.627604 -0.670513 0.85805 1.04433 -0.456469 0.0774295 -0.170725 0.0864762 -0.611438 -0.558608 0.0474089 -0.886636 0.000922412 0.293644 -0.637029 0.435234 -0.231178 0.712821 0.5197 -0.0801092 0.0445805 -0.67041 -0.401798 0.163626 0.119258 1.06451 -0.0485859 0.956991 -0.624361 0.303029 0.530061 0.459775 -0.479095 -0.360388 0.681142 -0.525055 -0.365283 -0.371458 0.953554 0.348641 0.41522 0.155685 0.590328 0.00521863 0.828608 0.16306 0.620167 -0.763906 0.242566 -0.989462 -0.803326 0.764529 -0.488801 0.870111 0.0874327 0.773635 -0.0319852 -0.00835996 -0.295725 0.87848 -0.348478 0.190847 0.361505 0.288341 0.884306 -0.912912 -0.591924 -0.0576741 -0.471977 -0.225966 -0.627924 -0.718925 0.271462 -0.527879 -0.567858 -0.382626 -0.5311 -0.485966 0.889076 0.317129 -0.886463 -0.804368 -0.164515 0.445891 -0.212063 -0.0385258 1.05577 -0.30743 0.217914 0.649018 -0.28265 0.327531 0.572986 0.885966 0.651386 -0.886603 0.795844 -0.429161 0.838769 0.95819 -0.991516 -0.0317698 -0.213233 -0.855112 0.888227 0.351123 0.230157 -0.876057 0.453007 0.806544 -0.992604 -0.0499214 -0.668587 0.350051 0.642967 0.948422 -0.224009 -0.0561824 0.181171 -0.564657 0.970613 0.449437 0.825757 0.938527 -0.558586 -0.15594 -0.357264 -0.338738 0.389386 0.867244 -0.757561 0.488463 -0.776996 -0.233473 0.218295 0.125498 -0.169142 0.181797 -0.978142 -1.008 -0.419464 0.589459 -0.524434 -0.0940869 0.591365 -0.660903 -0.308317 -0.311423 0.501749 0.677823 0.207447 0.10171 -0.497091 0.914641 -0.0143666 -0.357724 -0.0540483 -0.208899 -0.720389 -0.818383 -0.955085 -0.303666 -0.87595 -0.653947 -0.0642931 0.185035 0.0715173 0.641481 0.816631 -0.63312 0.568209 0.634684 0.616207 -0.237751 -0.971701 0.229382 -0.234173 0.646045 -0.11394 0.919904 0.755666 0.40714 -0.927019 0.342103 -0.594104 0.477889 0.921873 0.441165 0.833725 -0.72528 0.653787 0.751901 -0.164549 -0.753647 -0.732864 -0.495846 -0.218846 -0.161633 0.2647 -0.87496 0.80734 -0.0831319 0.863138 0.309884 -0.889285 0.366287 -0.954099 -0.97079 0.309829 0.368241 0.245033 0.551805 0.913144 -0.1301 0.219825 0.480819 -0.149325 0.0272761 -0.596392 0.281847 -0.418787 0.274953 0.168325 -0.457639 -0.325925 -0.635365 -0.957378 0.0993262 0.25124 -1.06586 0.46342 -0.0240909 -0.616283 -0.300103 -0.656776 -0.412401 0.579399 0.658164 -0.583117 0.890439 0.392621 -0.230934 0.0364085 0.906552 -0.307109 0.904227 0.275662 0.986127 -0.179418 0.980567 -0.450438 -0.84133 0.420493 0.380342 -0.388833 0.836192 -0.814799 0.243664 -0.362202 -0.97217 -0.309825 -0.786918 0.257541 -0.314772 0.975971 -0.120845 -0.796503 -0.745232 -0.00222784 -0.754204 -0.430341 -0.103122 -0.490219 0.413848 0.894063 -0.386928 0.766028 -0.982635 -0.77371 0.427345 0.170983 -0.61017 -0.105371 0.353148 0.6218 0.804527 0.0389151 0.0272839 -0.871719 -0.915098 -0.885495 -0.420331 0.997803 -0.123936 0.123875 0.891781 0.576647 0.989196 0.052034 0.855403 0.789178 -0.00167853 0.213638 0.420193 -0.886877 0.494659 0.760369 -0.654769 0.608234 -0.722539 0.363662 -0.580142 -0.48276 -0.201737 -0.873792 -0.0401783 0.0128597 0.171667 -0.198706 0.408734 -0.348491 -0.933226 -0.626881 -0.152684 0.0956144 -0.213538 0.0622883 0.224036 0.668447 -0.146397 -0.179724 -0.877682 -0.696036 0.412702 -0.624928 0.875362 0.45323 0.760125 -0.110874 -0.159764 0.510178 0.316202 0.293741 0.645863 0.320109 -0.648976 0.361797 -0.775201 -0.668203 0.776727 0.580554 -0.556017 0.957701 0.318461 0.888852 -0.855464 -0.297647 -0.622913 -0.661183 0.405133 -0.375774 -0.104404 0.747124 -0.160484 0.691231 -0.457991 0.39587 -0.257171 0.592361 0.520433 0.847384 -0.102655 0.573717 0.327433 0.935423 0.850826 0.846736 -0.24723 0.992615 0.480392 0.152379 0.459395 -0.619007 0.654042 -0.975341 -0.567858 0.384747 -0.198035 -0.673635 0.623096 0.528306 0.210824 -0.383464 -0.89704 -0.611649 -0.144372 0.910774 -0.0112283 -0.0901479 -0.443628 0.406114 -0.349856 0.513799 -0.623523 -0.28707 -0.932493 -0.480514 0.841731 -0.824458 -0.732536 0.726005 -0.896237 0.842158 0.616565 0.511704 -0.388329 -0.36684 -0.420287 0.922527 -0.764195 -0.675006 -0.907895 -0.465803 0.498037 0.658518 0.0411645 0.613762 -0.914431 0.742676 -0.0419311 -0.0837383 0.939004 0.585229 0.586535 0.0830408 -0.792657 -0.343913 -0.144749 0.589465 -0.511765 -0.802301 0.721956 -0.416909 -0.463315 0.578758 0.232756 -0.418285 -0.0977915 0.349646 0.40361 -0.182897 -0.0777423 0.815059 -0.0821488 -0.404423 0.127324 0.436037 -0.296656 -0.441835 0.467132 -0.242672 -0.805852 -0.298257 0.54387 -0.372967 0.325602 -0.943541 -0.628529 0.941631 -0.418633 0.0184816 -0.261408 0.622238 -0.519896 -0.201429 -0.82232 -0.711255 -0.236422 -0.366952 -0.464024 0.893325 0.569269 0.875476 -0.678145 -0.364342 -0.456451 -0.941977 0.0530685 0.666344 -0.100383 -0.259384 0.0708101 0.37907 0.961791 -0.18894 -0.901303 -0.153196 0.453413 -0.725814 0.919208 0.901406 0.590951 0.802282 0.438205 0.977371 -0.290918 0.47699 1.02324 0.0805307 -0.625479 0.718186 -0.328428 -0.294187 0.0555957 -0.389807 -0.212756 0.495492 0.269849 -0.177435 -0.612471 0.84268 0.859371 0.991577 0.981027 -0.201649 0.138672 0.168663 -0.597581 -0.610944 -0.998509 0.85781 0.139939 0.00119702 -0.570072 -0.0140987 0.970252 -0.524499 -0.708102 -0.418096 -0.0722144 0.0922811 0.657067 0.494228 0.503191 0.474313 -1.01998 0.704415 -0.557113 -0.621983 0.186438 -0.841243 -0.861098 0.000928317 -0.732262 -0.600322 -0.617077 0.173936 -0.697919 0.254938 0.448531 0.306249 0.933862 0.255917 -0.224688 0.498309 0.372076 0.403721 0.118143 -0.50478 0.296173 -0.327289 -0.66189 0.0265776 0.794997 -0.215811 0.0382952 0.0563066 -0.739189 0.815765 0.696356 0.258253 0.327728 -0.569597 0.55191 -0.56688 0.780202 -0.370503 0.611828 0.0574539 0.043306 -0.122651 0.79344 -0.0718111 0.927819 0.079203 0.282544 0.801378 0.208463 0.366421 -0.452474 -0.165245 -0.58068 -0.714551 0.581437 -0.802362 0.630665 0.914681 0.0072736 0.842723 -0.733284 0.712994 -0.565389 0.620107 -0.068566 0.490606 0.62974 -0.513167 0.535802 -0.410481 0.431745 -0.819254 0.410007 -0.441466 -0.380526 0.223652 -0.357727 -0.179563 -0.69667 -0.651564 0.344382 -0.9693 -0.286972 -0.832209 -0.653554 0.791009 0.59954 -0.473634 0.497929 -0.704456 0.520285 -0.509336 0.253179 -0.394152 0.156148 -0.241992 0.584953 0.872359 0.813209 -0.291124 0.221311 -0.578431 0.763539 0.250699 -0.680235 0.196019 0.113498 0.438724 0.437099 0.0311301 0.530032 -0.560106 -0.387371 0.959594 0.54628 0.252442 0.75551 0.282995 -0.773278 -0.0803423 0.275324 -0.408752 -0.785592 -0.437822 -0.748971 0.856347 -0.583049 -0.0820377 -0.31706 -0.270543 0.415727 -0.137884 -0.0893663 -0.245247 -0.169137 0.245984 -0.949323 0.138077 -0.861097 -0.23545 -0.995178 -0.787835 -0.0822244 -0.516942 -0.277154 0.936468 -0.80591 -0.686399 -1.09197 0.0918992 -0.938526 -0.327359 -0.780246 0.169006 -0.75806 0.572826 -0.817595 0.517798 -0.574562 -0.667228 -0.103962 0.510251 -1.00602 0.419079 -0.618929 0.485993 -0.86673 -0.571032 0.441267 -0.5468 0.0240791 -0.767467 0.58226 -0.978167 -0.306758 0.32582 -0.0468485 -0.878893 -1.11603 0.532827 -0.130627 -0.268709 -0.796079 0.105228 0.4121 0.0472848 -0.17218 -0.513987 -1.00987 -0.888789 0.896395 -0.965953 0.517724 0.0301171 -0.237935 -0.463485 -0.904294 -0.288858 -0.870663 0.64883 -0.969106 -0.995633 -0.163129 -0.474999 -0.863111 -0.316302 -0.599524 0.0330832 -0.248335 0.0275747 -0.0428447 0.310084 -0.299541 -0.558131 -0.41255 0.0655053 -0.848933 0.80555 -0.233745 0.0179497 -0.565283 0.602723 0.440881 0.242286 0.439253 0.763359 0.330402 -0.840787 -0.367895 -0.457137 -0.667607 -0.487488 0.12393 -0.731737 0.119529 -0.336346 -0.0572721 0.453468 0.157896 -0.773095 0.87554 -0.45174 -0.983141 0.184008 0.0356632 -0.526248 0.874103 -0.189039 0.84494 -0.0665163 -0.783815 -0.116062 0.598254 -0.188513 0.278041 -0.965369 -0.166104 0.23619 0.256014 0.969599 0.282685 0.831798 0.9112 1.05761 1.10015 0.166298 0.0492864 -0.526669 -0.894619 -0.451619 -0.949206 -0.758081 -0.279887 0.552148 0.202793 0.0169636 0.196001 -0.710813 0.166723 -0.0554521 -0.783441 0.645619 0.438584 0.368675 0.908442 -0.114528 -0.326601 0.34976 0.808463 -0.122463 -0.379684 0.805586 1.03207 0.149266 0.64729 -0.319767 -0.177463 0.539049 -0.726761 -0.196021 -0.975832 0.373643 0.966058 0.573528 0.259024 0.740409 0.985351 0.784478 0.00918603 0.733451 -0.428137 0.407307 -0.367981 -0.229453 -0.0453652 0.734378 -0.13495 0.833836 1.2676 -0.198215 0.278193 0.840407 -0.964937 -0.550452 0.264113 -0.594038 0.481363 0.402631 0.407558 0.404973 0.756762 0.210605 0.148988 0.839035 -0.259072 0.0805384 -0.805841 0.673452 -0.879242 0.0804059 0.376542 0.289979 0.437351 -0.206134 -0.604397 -0.203111 0.654552 -0.16319 -0.00840659 0.875749 -0.695525 -0.0829542 -0.121425 0.0327744 -0.432925 0.383345 0.436131 -0.788115 -0.860723 -0.376179 -0.959324 0.00203255 0.470121 0.910154 0.991882 0.44847 0.208489 -0.18022 -0.558752 0.637642 0.361742 0.921622 0.736879 -0.990118 -0.579217 -0.560098 -0.0830289 0.994336 0.278917 0.557898 0.630944 -0.378304 -0.762951 -0.331135 -0.726387 -0.597686 0.143044 0.63697 -0.136104 0.0591037 0.189243 -0.583361 0.377178 -0.0824915 -0.0926979 -0.537502 -0.885334 -0.485037 0.245782 0.456505 -0.664333 0.519131 1.03603 0.396371 0.73795 -0.408105 -0.383158 -0.493508 -0.0964744 0.790198 0.121083 -0.898975 -0.337957 0.611739 0.118957 -0.243908 -0.725061 -0.477667 -0.913853 0.994995 0.274087 -0.0162053 -0.518175 0.297422 -0.6763 0.533573 0.693883 -0.725261 0.439159 0.604283 -0.808567 -0.170529 1.01826 1.01579 0.420416 0.846432 0.608686 -0.578635 -0.409342 0.850089 0.662775 -1.0145 0.652466 0.378268 0.806293 0.766961 0.55974 0.933653 -0.621754 -0.124546 0.299844 0.0504195 0.38613 -0.559998 -0.0841378 -0.406262 0.243494 -0.474621 0.689871 0.0082647 -0.222968 0.541654 0.624206 -0.210265 -0.616536 -0.159762 0.681089 0.84879 -0.458212 0.114066 -0.988141 -0.47248 -0.576837 0.758721 0.787103 0.451888 -0.203162 0.977477 0.0889004 0.895391 0.73708 -0.79437 -0.289218 0.183639 -0.522697 -0.706563 -0.158067 -0.336433 0.790497 -0.440133 -0.39755 0.465166 0.00773467 0.183028 -0.380655 -0.437421 -0.373418 0.972332 0.12438 0.955672 -0.984408 -0.280984 0.514145 0.068392 0.691336 0.651662 -0.776421 -0.674902 -1.00503 0.516976 -0.643717 0.249288 0.169213 -0.189403 -0.353593 -0.241029 -0.68005 0.681738 0.34648 -0.511889 0.6557 -0.921494 -0.851087 -0.412183 0.81243 -0.665701 0.791986 -0.488205 0.584582 -0.862972 0.764031 -0.760186 -0.887326 0.482589 -0.261574 -0.118931 0.702322 0.559596 0.881568 0.853344 -0.551747 -0.942192 0.0713445 0.339717 0.0581791 0.9909 -0.0343528 0.62609 0.203856 0.871634 -0.571955 0.76382 0.653066 -0.455611 -0.553697 0.253761 0.568102 -0.414167 -0.862606 0.206336 0.214759 0.386822 0.750237 -0.393658 0.444136 0.976806 -0.553148 -0.78576 -0.76635 -0.353069 0.683096 0.675771 0.608509 0.436567 0.998352 -0.599292 0.253517 -0.454695 -0.971374 0.774834 -0.869686 -0.265908 0.555101 0.264687 -0.590075 -0.223731 0.399091 0.981323 0.0342723 -0.977538 0.978576 -0.738456 0.219764 0.140965 0.336344 -0.166845 0.214148 0.0965911 -0.545418 -0.874694 -0.379986 0.430294 -0.334945 0.275121 0.597642 0.901017 -0.0309763 0.42851 0.256935 -0.44377 -0.911496 -0.152074 -0.44145 -0.712577 0.0371411 -0.576464 -0.975097 -0.0622272 0.0513016 0.145604 0.58446 0.0235298 -0.322916 -0.907956 -0.144078 -0.869442 -0.167697 -0.495613 0.160496 -0.974877 0.636265 -0.524947 0.773735 0.72581 0.89437 0.932054 0.0699809 0.990456 -0.120381 -0.756019 -0.894467 0.410321 0.482528 -0.67101 -0.467452 -0.105136 -0.717338 0.514328 -0.823786 -0.505783 0.506804 -0.0655357 0.154837 -0.717487 -0.319606 0.941033 -0.0444775 -0.60968 -0.41371 0.00859767 0.707908 -0.649835 0.955085 0.976921 -0.860053 -0.359603 -0.504267 -0.272155 0.237281 -0.458235 0.676382 0.47911 -0.600391 0.807123 -0.388531 0.515427 -0.340224 0.232178 0.763609 0.626199 -0.894635 -0.766936 -0.0153154 0.408896 -0.771938 -0.243238 0.346432 0.759092 0.80558 0.202031 0.0348531 0.482166 0.580683 0.798573 -0.692599 -0.957586 0.695038 -0.432661 0.671987 -0.416303 0.885556 -0.272988 -0.613392 -0.418749 -0.701272 0.749833 0.917653 0.501117 -0.897638 -0.669418 0.110826 -0.30601 -0.406058 -0.770088 0.619736 -0.717334 0.897301 0.811971 0.382095 -0.537972 0.438947 0.400798 -0.341427 0.050074 -0.622335 -0.338212 -0.0398179 0.056856 -0.908505 0.322794 -0.311136 -0.784173 0.347904 -1.00545 0.068075 0.78959 0.547725 -0.308876 1.14529 0.317937 -0.376815 0.368415 -0.29295 0.459672 -0.839928 0.938551 0.598303 -0.0377918 0.651538 0.0786735 -0.596099 0.839613 0.512293 0.000482148 -0.788338 -0.430727 -0.923643 0.280129 -0.127128 -0.886598 -0.546785 0.93247 -0.127114 -0.840728 -0.39681 -0.648017 0.089412 -0.705732 0.295375 -0.111495 0.38662 0.602932 -0.451875 -0.905914 -0.844738 -0.0821038 -0.754866 0.793248 0.566576 0.498343 -0.972726 -0.355985 0.0836049 -0.733706 -0.148473 0.0679647 -0.974412 -0.446414 0.205853 -0.507796 -0.621136 0.18929 0.581102 -0.0905645 0.673249 -0.240693 -0.129426 0.351844 -0.824542 0.799847 -0.209673 -0.292722 -0.510784 -0.389605 -0.509228 -0.722083 -0.356968 -0.573747 0.107848 -0.631739 0.859503 -0.292093 0.442122 -0.495804 0.0116497 -0.032012 -0.845662 -0.655054 -0.0647165 0.536852 0.0428481 0.338785 -0.504816 -0.0789573 0.521323 0.563611 -0.717285 -0.883811 -0.431738 0.826272 0.715507 0.0801107 1.01759 0.374874 -0.240639 0.355847 -0.715679 -0.567554 0.554048 -0.65624 0.202307 -0.439555 -0.187587 0.709321 0.285011 0.324123 0.0828582 -0.906539 0.694202 -0.285584 0.704309 0.778552 0.0887606 0.118939 0.545608 -0.317057 -0.832319 0.107773 -0.576296 -0.594955 1.16621 -0.235378 -0.346047 0.581691 -0.00680438 0.13909 -0.856611 0.471847 0.571947 -0.157567 0.837477 -0.124136 0.34185 0.181215 0.102708 0.443677 0.5235 -0.934262 0.265534 -0.382052 0.175941 0.409357 -0.21186 0.00250733 0.47577 0.555859 0.342446 0.651625 0.372382 -0.734029 0.874025 0.0545329 -0.62905 -0.557814 0.654261 0.725822 0.461776 -0.817133 0.891827 0.171875 0.0468359 -0.501265 0.473948 -0.123519 0.7898 -0.780429 0.316483 -0.420695 -0.442895 0.797248 -0.966585 -1.12006 0.662881 -0.125006 0.787286 1.05653 0.726067 0.159467 1.00566 0.966837 0.273053 0.8488 0.814306 0.915891 0.455611 -0.213599 0.493394 -0.375039 -0.573691 0.643434 -0.106813 -0.685465 0.900806 -0.354197 0.447854 0.853582 -0.74859 -0.289621 0.652357 0.328294 0.187079 1.15243 -0.715911 0.327919 -0.35381 0.313548 -0.0223023 0.560191 -0.629957 0.491843 -0.0958609 -0.789666 0.0162053 0.361736 -0.773492 -0.64317 0.512658 0.32752 0.696928 -0.708777 -0.410114 0.963962 1.05298 -0.595785 0.68564 -0.717156 0.134054 0.889788 0.796992 0.870754 1.00976 -0.335085 0.234939 -0.242934 1.09708 0.328677 0.901492 0.417953 0.523542 0.58684 0.882199 0.680288 -0.185217 0.08065 -0.495188 -0.0702792 -0.167128 0.59252 0.323506 0.890956 -0.228675 0.455002 -0.925896 -0.206363 -0.961339 -0.373719 -0.428771 1.14531 -0.0190912 -0.156174 0.439265 -0.257759 0.970002 0.998924 -0.439635 0.729637 0.955076 -0.510361 0.844234 0.99762 -0.392256 0.400695 -0.364586 -0.446193 0.279046 -0.823594 0.373673 -0.967906 0.547857 -0.291962 -0.699048 -0.273689 -0.926868 0.323617 -0.171842 0.989831 -0.18338 -0.456236 0.281032 0.509448 0.92233 -0.910268 0.515189 -0.0924312 -0.187009 0.632679 -0.912107 0.775811 0.163326 0.810886 0.948314 -0.285509 0.191989 -0.941493 0.707529 0.422608 0.11445 0.980753 -0.227193 0.407081 0.726727 -0.751554 -0.280974 0.0951865 -0.0239448 -0.349765 0.964904 0.196655 -0.317677 -0.0346826 0.184272 -0.0754893 0.666189 -0.116245 -0.710257 0.144505 0.61546 0.34023 0.0496047 0.46693 0.743107 -0.0843224 0.277061 -0.258962 -0.330464 -0.380026 -0.35581 0.72315 0.725807 0.504068 0.660765 0.719022 -0.970889 0.243284 -0.346343 0.133451 -0.252847 -0.382519 -0.487034 -0.534908 0.318644 0.168981 -0.344768 0.536851 -0.48548 -0.216057 0.17924 0.0782991 0.176247 -0.497298 0.0540861 -1.13298 0.14746 -0.412372 -0.359864 -0.553962 -0.986152 0.652752 0.891891 0.61741 -0.469221 0.352081 -0.667988 -0.807228 -0.788774 -0.958553 0.431621 -0.678646 -0.55974 0.333415 0.0856044 -0.0602741 0.82934 0.447798 0.777467 -0.86515 0.7433 -0.819222 0.149071 0.810905 -0.413445 -0.321305 -0.16709 -0.341435 0.867217 -0.851562 -0.822741 0.721485 0.145138 -0.527043 -0.74609 0.228007 -0.17801 0.679423 -0.591454 0.4305 -0.768808 -0.103122 -0.339091 -0.805963 0.793703 0.368424 0.578145 -0.0257928 0.586062 -0.661143 0.564742 -1.01073 0.719861 -0.627988 0.218316 -0.798981 0.132087 0.0253681 -0.0480624 0.211656 0.389846 -0.722984 1.03704 0.363214 -0.572308 -0.78759 -0.467085 -0.135179 0.807866 -0.358318 0.627125 0.783624 -0.708768 0.895845 -0.432272 -0.389042 0.788798 -0.594036 0.543855 -0.892628 0.918444 -0.677476 1.00554 0.198888 -0.826931 0.556849 0.269213 0.410289 0.881198 -0.276542 0.26173 0.399443 0.406169 0.0110299 0.0351238 0.799975 -0.992692 0.969726 0.0744957 0.54973 0.461173 -0.400686 -0.0614784 -0.374698 -0.463166 -0.0980645 0.946451 0.665391 -0.431046 0.173458 -0.471436 0.840415 -0.368768 0.298017 -0.316095 0.0687749 0.292436 -0.386356 0.345126 -0.167011 0.723267 -0.904839 0.486731 0.819575 -0.730399 -0.0334788 -0.504868 -0.230995 0.214576 0.536683 -0.784024 -0.610418 -0.192713 -0.107231 -0.0141531 -0.209048 0.482002 0.885778 -0.859627 -0.875454 0.210964 -0.508142 -0.39505 0.766968 -0.265687 0.292834 -0.176484 -0.540568 -0.212404 0.059355 -0.32208 -0.0639973 -0.669362 -0.889706 -0.593249 0.032258 -0.651296 -0.391576 -0.157846 0.248544 0.6299 -0.20428 0.0469952 -0.100057 -0.882419 0.572962 0.731218 -0.797096 0.0495533 0.930341 -0.0634765 -0.721517 0.560907 -0.392154 -0.55903 -0.974453 -0.934833 0.995157 0.496703 0.790033 0.369488 0.56267 -0.769951 0.361125 -0.0540483 0.126825 0.214234 0.975361 0.321312 0.424843 -0.837737 0.456492 -0.225369 0.215829 -0.0879604 -0.308859 -0.665406 0.568993 0.0124141 -0.771743 0.878546 -0.241201 -0.0308506 0.564075 0.0807215 -0.523057 0.897763 0.462325 -0.677664 -0.0213935 -0.391705 -0.998962 -0.254433 0.437788 -0.498947 0.140647 -0.0136954 0.397481 0.597168 0.869808 0.923142 0.686737 -0.985767 0.0499576 -0.569802 -0.568964 -0.827725 0.938138 0.904576 -0.288427 -0.873592 0.655995 -0.655751 0.377422 0.197546 0.337016 -0.956359 0.774102 -0.645253 -0.672842 0.175939 0.604297 -0.421796 -0.668386 0.688955 -0.166356 0.541734 -0.385052 0.930601 -0.00601214 0.92468 -0.684133 0.954527 -0.48497 0.66509 -0.0623493 -0.701285 0.63921 0.466781 0.0768151 -0.950621 0.479965 0.872738 -0.547105 0.00228894 -0.21189 0.217689 0.301126 0.73394 -0.0130925 -0.228187 -0.809137 -0.603687 0.0397046 -0.611621 -0.667043 -0.951486 -0.271342 -0.032136 0.439841 0.328477 0.796408 0.0626578 0.199088 -0.714098 0.817743 0.853633 0.363933 -0.799554 0.923093 -0.946165 -0.219581 0.199866 0.27604 -0.351787 0.916074 -0.600024 0.764824 0.184423 0.491989 -0.455428 0.436201 0.686514 0.940672 0.853621 -0.647697 0.550715 0.839057 -0.23617 -0.112121 1.00278 -0.303225 -0.145857 0.509622 -0.572074 -0.304732 -0.158122 -0.676794 -0.105564 0.862117 -1 -0.82635 0.760308 -0.932432 -0.224708 -0.730094 -0.587573 -0.333049 0.172656 -0.0949234 0.795131 -0.769515 0.953823 0.306559 0.232762 0.745474 0.238353 -0.853365 -0.569747 0.342504 0.86885 0.909482 0.357068 -0.616584 0.94293 0.540763 -0.992981 0.2537 -0.445357 0.567248 -0.330973 0.288003 0.629566 0.0946989 -0.0252337 -0.729905 0.281902 0.464633 -0.331974 -0.353009 -0.820317 -0.204366 -0.385264 -0.683316 -0.538648 0.502902 0.235366 0.41719 -0.0467828 0.0778187 0.161343 -0.296363 1.08333 0.0394867 0.149536 -0.796197 -0.484298 0.308512 -0.603809 0.780816 0.54619 0.905178 -0.38104 0.806839 0.0778693 0.187074 -0.386087 0.00527776 -0.70224 -0.312481 -0.273734 0.121456 0.549157 -0.0881228 -0.323683 -0.462146 0.600193 0.596707 -0.726243 0.118778 -0.265704 0.78706 0.345386 -0.00525665 0.718882 -0.288064 0.528733 0.194372 -0.647267 0.895327 -0.309101 0.353391 -0.134097 -0.628633 0.669541 -0.21272 -0.657865 -0.152479 -0.68449 -0.677362 -0.672379 -0.799649 -0.588068 -0.575763 -0.0255512 -0.571663 0.324799 -0.880809 -1.04769 -0.625383 0.682499 0.452219 -0.472482 -0.730666 -0.180822 0.570605 -0.975857 0.834507 0.77625 0.431526 0.125517 -0.987685 -0.569007 0.254744 -0.390876 0.221706 -0.525267 0.354752 0.706353 -1.05372 0.735873 -0.867192 0.234253 -0.735154 0.0649471 -0.257207 -0.332091 -0.828607 -0.130243 -0.141657 0.495816 0.330906 0.91522 0.907285 -0.254419 -0.372336 0.722692 0.483538 -0.0690905 -0.900549 -0.238235 -0.650071 0.0162232 -0.0130563 -0.718667 0.852032 -0.474009 0.094493 0.162972 -0.0269819 0.171459 -0.14462 -0.971212 0.464492 0.547929 -0.769328 -1.04561 0.299303 -0.742494 -0.336772 0.404828 -0.229296 -0.17528 -0.649817 -0.498791 -0.0879627 0.316985 -0.288506 0.160705 -0.0248387 -0.67766 -0.296002 0.676221 0.396922 -0.845619 0.0208511 -0.450648 -0.921912 -0.888324 0.410661 0.350577 -1.32428 -0.0551504 0.0674169 -0.495919 0.490576 0.661582 0.851314 -0.633717 -0.600868 -0.868788 -0.324124 -0.48152 0.730334 0.702414 -0.215852 0.284004 0.332707 0.228827 -0.477242 -0.292183 0.708043 1.03544 -0.472821 0.568946 0.762288 -1.1051 -0.840669 -0.204123 0.439783 0.121675 0.0753893 -0.0910355 -0.403765 0.892865 -0.524277 -0.391034 -0.27427 0.781324 -0.467225 0.195796 0.852165 0.618886 0.97956 0.305762 -0.155194 0.179413 -0.882843 0.0305551 0.267569 0.910227 -0.0106813 -0.926858 -0.887446 0.251166 -1.06654 -0.0874764 0.715394 0.10662 0.498352 0.718682 -0.346958 -0.586947 -0.017304 0.793146 -0.22721 0.697854 -0.944722 -0.408857 -0.0104275 -0.830361 0.175079 0.0801948 -0.0690356 0.607113 0.0230703 -0.770212 0.795123 0.260365 0.415535 -0.500327 -0.509642 -1.02088 0.673486 -0.960183 0.0403312 0.279176 -0.519916 0.102733 0.847666 0.541405 