0.551134 -0.441939 -0.312296 0.463302 -0.205542 0.373028 -0.716483 0.526475 0.135167 0.514267 -0.891537 -0.90875 -0.0332591 -0.489409 -0.546251 -0.343974 0.677053 0.542405 -0.273537 0.137486 -0.89642 0.341105 -0.979247 0.406232 -0.825495 -0.499191 -0.587634 -0.345988 0.0575274 -0.711112 -0.212134 0.15598 -0.876278 0.00283825 -0.978576 0.989318 -0.958982 0.941039 0.312506 0.271614 -0.690925 -0.947774 -0.512492 -0.537805 -0.455827 0.306995 -0.866811 0.428126 0.837383 0.91341 -0.787529 0.411359 0.491318 0.331584 0.245094 0.177099 0.436995 -0.730094 -0.407636 0.183116 0.668335 0.642023 0.827834 -0.229949 0.00100708 0.61176 0.954373 0.810646 -0.603302 -0.421276 -0.785371 0.222613 0.364768 0.750731 0.546378 -0.546417 -0.656937 -0.61274 -0.854592 0.648849 -0.787097 0.892819 -0.887204 -0.271767 -0.105686 0.842402 0.209388 0.825677 -0.22626 0.689969 -0.828839 -0.525311 0.487482 1.10889 0.726349 1.2246 0.951889 0.608762 0.388706 0.438234 -0.13148 -0.266057 0.00664101 0.823645 0.0150674 -0.520364 -0.683363 0.787871 0.78969 -0.911063 -0.988776 0.331462 0.325907 -0.585803 -0.875241 -0.505822 -0.42355 -0.499334 0.445996 0.319107 -0.189703 0.312796 -0.824312 -1.06326 0.491585 -0.637162 -0.605804 0.463102 -0.759086 0.708482 -0.490075 0.0281605 -0.132 -0.60715 -0.134449 -0.233903 0.849038 0.206484 0.544881 0.879094 -0.28367 0.0185858 -0.722443 0.253316 0.234061 0.696955 -0.867229 1.11358 0.505379 0.531878 -0.19882 -0.789902 0.550537 -0.162622 0.921866 0.66929 0.484455 0.343627 -0.525387 0.539528 -0.622886 0.388119 -0.679286 -0.0191192 -0.343711 0.344144 0.394008 0.805241 0.915097 -0.264809 -0.455368 -0.877079 0.729939 -0.802633 -0.352346 0.163081 0.570016 0.31623 0.23926 -1.39162 -1.03171 -1.17701 -1.86198 -1.18523 -0.115138 -0.0488215 -0.452599 -0.320258 -1.30484 -0.803682 -0.226657 0.351393 0.5231 -0.570604 0.777385 -0.144937 -0.0212576 -0.586971 -0.669356 -0.898749 -0.345707 -0.345445 -0.860624 0.461739 0.524893 -0.753213 -0.155147 -0.698785 -0.756595 -2.19854 -1.70639 -0.518606 -0.923461 -0.844142 -1.35376 -2.03765 -0.342245 0.330904 -0.480451 -0.93196 -0.142463 -0.671022 -0.786562 0.00922662 0.267368 0.130783 0.898195 -0.292796 -0.0959807 -1.06447 0.351994 0.360015 0.177212 -0.840761 -1.22776 -0.313288 -1.04173 -1.68585 -1.09189 -0.765429 -1.01037 -1.02346 -0.895801 -0.365713 -0.00788138 -0.462706 -1.04094 -0.484855 -0.850653 0.3623 -0.159368 0.362006 -0.517493 0.83241 0.271146 -0.651693 -0.0431304 0.105408 0.19097 -0.869416 -0.504667 0.39349 -0.580946 -1.01208 -0.909527 -0.362442 -0.609551 -0.730133 -0.0446849 -0.430716 -0.158015 -1.61971 -0.122159 -0.211592 -0.238665 -1.36166 -0.822179 -0.635362 0.798898 0.97565 -0.165868 0.580294 0.224459 -0.93067 0.393995 0.515028 -0.216411 -1.00237 -0.861573 -1.18083 0.16567 -1.13189 0.177884 -1.45837 0.139833 -0.626116 -0.576326 -0.745271 -0.892139 -0.57556 -0.806784 -0.768947 -0.140098 0.234586 0.203364 -0.667278 0.418595 0.689387 0.523362 -0.146022 0.0776632 -0.29317 -0.281553 -1.01112 -0.392081 -0.427125 -0.24579 -0.242136 -1.49655 -0.388677 -0.428293 -0.222776 -0.333294 -0.517551 -0.70188 0.454773 -0.412729 0.700805 -0.479334 -0.94687 0.244671 -0.316295 0.196548 -0.612122 0.889847 0.62348 0.729606 0.330538 0.0798664 -0.778163 -0.776919 -0.0279074 -0.573853 -0.358516 0.295986 -0.0421219 0.021195 -0.683922 -0.170065 -0.523795 -1.42506 0.739635 -0.157845 -0.632586 -0.704942 0.1456 -1.10549 -1.17425 0.292269 0.380994 0.768664 0.544485 -0.472679 0.596393 0.289407 -0.388835 -0.899029 -0.885194 -0.0426497 0.0415843 -0.454249 1.3135 -0.6936 -0.262078 0.900965 0.0536386 0.653413 -0.415351 -0.800902 -0.98318 0.177052 0.403711 -0.0127686 -0.719031 0.57633 0.414049 0.328447 0.281989 0.827746 0.663438 0.710294 0.183603 0.253395 0.320285 -0.910973 -0.686943 -0.463295 -0.50338 0.64287 0.61167 0.249306 1.23339 0.555558 2.21856 1.4106 0.497699 -0.205155 -0.430625 0.572308 0.432552 0.395361 -0.936444 -0.21541 -0.268963 0.574382 -0.694344 -0.150037 -0.263879 0.286246 -0.606866 0.5103 -0.0938078 -0.823496 0.67718 -0.743341 0.22982 1.7497 1.45856 0.676686 1.479 0.407445 1.29249 0.780014 0.682669 -0.300039 -0.463395 0.960246 -0.600011 0.31063 -0.3373 0.379589 0.537188 1.0138 -0.408061 -0.549918 0.894281 -0.159977 0.996372 0.664602 0.851685 -0.909906 -0.331144 0.427868 0.339355 0.643462 0.887353 0.801336 -0.018654 1.35353 1.05929 1.12148 0.0575824 0.248564 0.281984 1.59649 0.403794 1.44927 0.108019 1.26554 1.08503 0.142554 0.810619 1.0236 -0.580105 0.150714 -0.676314 -0.644642 -0.586901 0.540922 0.803568 0.268319 -0.466581 0.81546 0.253398 1.45892 0.284579 0.610261 -0.360418 -0.31932 0.309879 0.631966 1.2734 1.54462 1.03659 1.16557 0.631763 0.72775 0.235914 -0.053929 0.395469 0.974287 1.20718 0.18839 -0.482113 0.204749 0.539964 0.222631 0.162035 -0.0812998 0.740898 -0.384938 1.53532 -0.304897 1.31127 0.965628 0.74898 -0.327581 0.0467375 0.289402 1.54697 0.633302 0.625717 0.220431 0.612439 -0.267509 1.07873 0.639857 -0.0540956 -0.421976 -0.56902 -0.27052 0.207921 -0.418073 -0.669546 -0.7634 0.382823 -0.959945 0.0202377 0.752944 -0.70709 0.493668 0.124478 0.20021 0.654055 0.508908 0.340274 1.07385 0.794346 0.982343 0.723132 0.573347 -0.672909 0.755154 0.742973 -0.0847897 -0.0596084 0.524919 1.0514 0.558489 -0.490977 0.371746 0.477084 0.492941 0.902575 -0.286387 -0.185243 -0.761929 0.265137 -0.46545 0.406742 -0.103334 -0.135714 0.106893 -0.671149 -0.463692 0.559296 0.945727 1.14744 1.01923 0.46704 0.198988 -0.864944 0.0026823 0.825265 -0.193758 -0.261767 -0.95069 -0.727714 0.93408 0.137098 0.777482 0.507408 -0.329312 -0.394721 0.23746 0.375086 -0.666204 -1.48465 -0.343213 0.418438 -0.541515 0.789198 -0.631072 -0.224061 0.847626 -0.749483 -0.871343 -0.748439 -0.399984 0.14235 -0.0759545 -0.0117143 -0.704844 0.00245477 -0.305713 -0.435163 -0.557238 -0.333049 -0.610105 0.138146 0.103057 -0.25732 -0.856942 -0.963209 -0.0770764 0.277958 -0.416317 -0.326808 -0.804403 -0.695457 -0.388591 0.503716 -0.25707 -0.661652 -1.72274 0.0135481 -0.630034 -0.460321 -0.601292 0.340086 -0.0408299 -0.429463 0.823176 0.281533 0.790704 -0.342998 -0.260837 0.885715 0.207324 -1.00129 0.499693 0.172421 -0.0841198 -1.07596 -0.753052 -0.714578 -0.6799 -1.12281 -0.295696 -1.26064 -0.367403 -0.563248 -0.367966 -1.38945 -0.0678367 0.184378 -1.02963 0.731505 -0.0333022 -0.229248 -0.780571 -0.15775 0.248207 -0.295206 -0.185339 -0.460069 0.735425 -0.584933 -0.983596 -0.728847 0.157718 -1.23789 -1.31966 0.283027 -0.909142 -1.1418 -1.18838 0.550251 -0.933417 -0.844091 -0.811864 -0.916175 -0.249879 -0.0476653 -0.0761069 0.511019 0.142483 1.01397 -0.457358 -0.0914029 -0.93585 0.363872 0.0592364 -0.489684 0.600022 0.913349 0.554673 0.256163 0.294515 0.412975 -0.459505 -0.832628 -1.09483 -1.25876 0.254614 -1.42186 -0.873057 -1.25905 -0.149712 -1.55787 -0.869566 -0.758317 -0.410131 -0.163642 0.725141 -0.3421 0.931512 0.0574054 0.194739 0.706351 0.435163 0.355302 -0.414308 -0.986126 0.121271 -0.944717 -0.198471 0.626173 -0.990026 -0.322753 0.440619 -0.881141 -0.595787 -0.365481 0.201111 0.606086 -0.285017 -0.769241 -0.937981 0.448804 -0.90617 -0.611192 -0.819391 0.370586 0.818781 -0.651235 -0.65099 -0.0643635 -0.661061 -0.134922 0.40141 0.478766 0.0978366 -0.0563968 0.391587 -0.544939 0.770235 -0.667522 0.68679 -0.101267 -0.740469 0.0362417 -0.279117 -0.718695 0.108666 -0.208178 0.0108108 -0.329602 0.710885 -0.291672 -0.464827 -0.708365 0.394452 0.726432 -0.461165 0.487899 0.046968 -0.544908 0.0636311 -0.527512 -0.657888 -0.954588 0.197058 0.362774 0.788263 0.391461 -0.998673 -0.252438 0.313883 -0.357891 -0.777337 0.783929 -0.805353 -0.329386 -0.855831 0.940001 -0.859371 0.0626545 0.860225 0.369793 -0.643971 -0.812983 0.319742 -0.940794 -0.615894 0.911008 -0.569749 -0.241568 0.524345 -0.515301 -0.478928 0.77754 -0.19609 -0.607655 0.595429 -0.261266 0.843752 -0.859461 -0.569941 0.239288 0.131411 0.275104 -0.982381 0.640695 0.916286 0.818594 0.862117 -0.995788 0.950377 -0.34257 -0.0895108 0.995911 0.303018 -0.598194 -0.0850541 -0.66829 -0.0148225 0.569163 -0.722033 -0.703908 -0.584155 0.5492 0.855214 0.572104 0.582546 -0.495516 0.169155 -0.714467 0.614103 -0.513561 0.271592 -0.365847 0.689464 0.298564 -0.646999 0.349659 0.695547 -0.484542 -0.620228 0.485458 -0.940184 0.700587 -0.42649 0.892573 -0.0506524 -0.511158 -0.826995 -0.087829 -0.799696 -0.761892 -1.04607 -0.824774 -0.421688 -0.587235 -0.0309986 0.310339 -1.08396 -0.932571 -0.688933 -0.871449 0.687172 0.555872 0.74638 0.882914 -0.395784 -0.306681 -0.913877 -0.0135197 0.676809 -0.452181 -0.238677 0.696805 -0.0163751 0.00523273 -0.269738 0.658871 0.677621 0.419848 -0.748661 -1.40713 -1.17121 -1.10143 0.186111 -0.314011 -1.0752 -0.879169 -0.776016 -0.79444 0.811719 0.16556 -0.51894 0.447742 -0.492978 -0.702979 0.55974 -0.666555 -0.62472 -0.899444 0.550824 0.986115 -0.811642 0.632638 -0.187058 -0.547384 -0.253123 -0.697527 -0.326782 0.154156 -0.676653 -0.753285 -1.02717 -0.908244 -0.71503 -0.211417 0.592571 0.26259 1.04711 0.718416 -0.100566 -0.489724 -0.570596 -0.294058 0.0126041 -0.0445265 -0.327971 0.408303 0.0847555 0.628374 -0.267585 0.277488 -0.176031 0.0952074 0.765936 -0.34331 -1.36953 -0.561276 -0.911786 -1.90068 -1.26872 -0.614657 0.0217214 0.0244635 -0.0802412 0.830802 -0.395362 1.55743 1.11611 0.820175 0.158594 1.00544 0.665837 0.647947 0.822827 -0.14502 -0.0610386 -0.357951 -0.171622 0.512221 -0.147798 0.479474 -1.06503 -0.117117 -1.1133 -0.312677 -2.24517 -3.11629 -2.45796 -1.34315 -1.79972 -0.631947 0.0876406 0.513383 1.70811 0.0730227 1.55883 -0.161379 0.263785 0.830902 0.0802311 0.320648 0.306906 -0.69645 0.0828092 -0.585713 0.374386 -0.823147 -0.65979 0.421666 -0.0356654 -1.12123 -0.831699 -1.25856 -1.64387 -1.34338 -0.974946 -0.969406 -0.788883 0.0964956 0.58885 0.294874 1.15175 0.757711 0.474797 -0.389585 -0.896415 0.426714 -0.321534 0.189405 0.966429 -0.478966 -0.813221 0.564214 -1.03929 -0.770599 0.160746 -0.211546 0.0158913 -1.19306 0.553617 -0.762672 -2.08183 -0.640905 -0.609223 0.269492 0.945982 0.0195618 -0.188107 0.143372 0.777596 0.790064 0.702618 0.996152 -0.814351 -0.040627 0.646509 0.832864 -0.245352 1.06749 -0.522677 0.765619 0.476039 -1.05071 -1.40573 -0.483248 -0.0133418 0.926875 -0.474481 0.713874 -0.378395 0.0631067 1.36217 0.968575 0.149685 1.24046 0.0533573 0.364478 0.699422 0.489475 0.0135136 0.611492 0.131641 -0.116551 -0.599727 0.522999 0.26736 0.56027 0.615173 -0.24093 -0.460904 -0.134667 0.372985 -0.338756 0.557537 0.539408 2.01126 -0.189641 0.00173756 -0.878484 0.156126 -0.20381 0.130284 -1.03047 -1.21678 -0.677725 -1.02785 -0.191816 -0.880136 0.87211 0.154882 0.505131 0.808771 0.305579 -0.612657 0.400207 -0.248292 0.677438 -0.447806 -0.121195 0.597752 1.03509 1.49172 0.663138 0.318363 0.2799 -1.22123 -1.39761 -0.734099 -0.276476 -0.278157 -0.825236 -0.691069 -0.0833883 -0.229012 -0.266555 0.533635 -0.367548 -0.365839 0.491048 0.355144 0.285062 0.155778 0.339734 -0.230317 -0.0326134 1.02546 0.294834 1.56726 1.09361 1.74961 1.16141 1.08976 -1.1996 -0.796367 -0.689967 -0.0884464 -0.863943 -1.01935 -0.364346 -0.813304 -1.27744 -0.708016 0.32296 0.405402 0.539794 0.864066 0.360545 -0.570665 0.47466 0.906034 -0.940645 0.781338 0.594516 0.21326 -0.0870456 1.20924 1.10775 0.610195 1.13748 0.678342 -0.89502 -1.41054 -0.0694506 0.552899 -0.0547839 -0.560439 0.44359 -0.642259 -0.389001 0.140956 0.430475 -0.820069 -0.85351 -0.180004 -0.140344 0.936216 0.748542 -0.612737 0.869969 -1.05375 -0.171782 0.740705 0.054135 0.465155 0.959643 0.398177 1.13555 -0.85541 -0.323854 0.0602012 1.06558 -0.0830199 0.801446 1.15021 0.904055 -0.448476 0.821607 -0.34004 -0.0876838 -0.92892 0.266441 0.63217 -0.83148 -0.592763 -0.768426 0.947505 0.684954 -0.358295 0.186912 0.864824 0.533038 1.54418 0.174181 -1.05626 -1.01231 -0.815329 0.0271772 -0.0171588 1.64552 0.192084 0.476133 0.454698 0.205295 -0.271331 1.18306 -0.562942 -0.391819 0.908257 -0.299518 0.556297 0.900298 0.804437 -0.349773 0.63761 0.217735 -0.326762 -0.213506 1.22815 0.0396001 0.0603486 -0.330032 0.0770379 -1.01489 0.0874339 -0.448031 0.477277 0.836317 -0.605086 0.943365 0.875939 0.0481032 -0.781117 -0.275541 -1.02338 0.603453 -0.655306 0.326097 0.0145337 0.784328 0.202367 -0.966491 -0.390455 0.408761 -1.19056 -0.369894 -0.934821 -0.134614 0.832422 -0.503484 -0.829 -0.916267 -0.480815 0.526201 0.166861 1.06579 0.681544 -0.373816 1.01633 0.0911241 -0.860708 0.377873 -0.403807 0.431792 0.279804 -0.53361 -0.673458 -0.0108866 0.537095 0.216834 -0.575403 -0.751256 -0.689191 0.155261 -0.0590643 -0.97275 0.0962044 -0.219852 -0.975259 0.0738332 -0.114369 0.437068 -0.0248954 0.367598 -0.939327 -0.593617 -0.223068 0.614345 -0.712317 -1.34287 -0.523371 0.470986 -0.0882314 0.903966 -0.956795 -0.950683 0.608814 0.583729 -0.432213 0.188633 -0.808038 -0.585187 0.367135 -1.07357 0.122645 0.268354 -1.01072 -0.617999 0.222672 0.309436 -0.487674 0.083209 -1.0673 -0.394613 0.00509554 0.125259 -1.08585 -0.108297 0.431901 -0.848646 -0.655023 -0.0717451 -0.618363 0.299286 -0.473983 -0.516523 0.973833 0.635084 -0.457051 -0.192999 0.20707 -0.0933729 -0.798446 -0.486705 -1.02249 -0.187253 0.421931 0.541445 0.525599 -0.907493 0.321991 0.517429 0.485205 -0.397876 -0.316407 -0.466389 0.489995 0.899703 -0.397967 -0.642083 -0.509615 0.762749 -0.221534 -0.237465 -0.871027 0.852911 -0.171015 -0.152159 -0.458387 -0.239314 -1.08041 -0.327221 0.521479 -0.76665 0.688016 -0.0770862 -0.426261 0.784231 -0.762623 -0.0710076 -0.375742 1.12194 0.472178 0.648655 -0.200836 -0.754823 -0.687124 0.278007 0.285858 0.441206 0.126438 -0.154149 -0.337886 0.387904 -0.587101 0.690312 0.148197 -0.141896 -0.630126 -0.664381 0.196653 -0.0671323 -0.859008 0.168936 0.676148 0.168317 0.534687 0.943932 0.403287 -1.10161 0.890303 -0.525033 -0.430257 -0.037703 -0.607409 0.94373 -0.51188 -0.0674765 0.494247 -0.192785 -0.185705 0.132134 0.625391 0.419528 -0.840221 0.0274318 0.104817 0.51442 -1.06718 0.0787263 0.205481 -0.0143922 0.155411 0.0639329 0.140327 -0.188088 0.526294 0.15764 0.698745 -0.428875 -0.236517 -0.292898 0.447074 -0.997726 0.5786 0.319254 0.0548418 -0.134983 0.715079 0.329969 0.971741 -0.349586 -0.468916 -0.818027 -0.77491 -0.210465 -0.894316 -1.28384 0.306828 0.258629 0.571283 0.243373 -0.394169 -0.284157 -1.47376 -0.626037 -0.247425 0.368118 -0.238676 -0.677172 0.37359 -0.368572 0.351054 -0.735588 0.693533 0.741325 0.0643635 -0.719294 0.318767 -0.605107 -0.26821 0.156757 -0.20689 0.193973 -0.272842 -0.8376 -0.333248 0.195598 0.356352 -1.17662 -0.0445004 0.214389 0.689843 0.134689 0.22242 -0.262992 0.48653 0.143845 0.203162 0.820246 0.746574 0.251137 -0.962157 0.32194 -0.100742 0.792047 0.500169 -0.565581 -0.197384 0.146829 0.895976 -0.067477 -0.0389825 0.193819 0.478524 0.394574 -0.374762 -1.01892 -0.528105 -0.509403 0.21343 0.0582917 -0.930619 -0.169138 -0.406566 -0.911028 -0.687429 0.343608 -0.335673 0.904904 -0.758232 0.0544145 -0.850703 -0.742485 -0.219214 -0.41142 -0.730216 0.200415 0.621509 -0.687857 -0.400006 -0.00796533 -0.970949 0.185048 -0.337199 -0.438826 0.771477 0.610889 -0.877926 -0.821467 0.202796 0.657582 0.385785 -0.100925 0.338847 -0.139317 0.431013 -0.665029 -0.289285 -0.477706 -0.335063 0.324503 0.625416 -0.742927 0.612277 0.0183888 0.00761378 -0.389757 0.379204 0.208461 -0.658828 -0.116443 -0.674901 -0.289616 0.591227 -0.776572 0.318935 0.540235 0.819242 -0.241729 0.954091 0.385402 0.871639 0.558458 0.617359 0.43321 -0.0440382 0.632008 -0.594775 0.0791955 -0.116306 -0.434697 0.466667 0.946776 -0.954275 0.645303 0.768815 0.0612258 -0.321113 0.817977 0.130251 0.298113 0.603516 0.0583744 0.860384 -0.0106005 -0.0652795 0.301228 0.442798 0.120939 0.1603 -0.215735 -0.108921 -0.933287 0.765374 -0.1489 -0.525803 0.689138 -0.385007 -0.354382 0.452072 -0.140201 0.407871 0.872332 -0.96813 0.11516 0.752079 -0.228277 -0.634233 0.646607 -0.51115 0.150243 0.761472 -1.04491 -0.22232 0.00328779 0.328749 -0.616285 0.0155099 -0.895505 -0.408612 0.103671 -0.122288 -0.0652756 0.691827 -0.558035 -0.251037 -0.45483 0.51751 0.435523 0.526752 -0.290164 -0.317382 -0.726368 0.785164 0.571464 -0.0618653 0.603356 0.113995 0.0996827 0.722299 -0.520501 0.645768 0.86986 -0.623359 -0.605406 0.110736 -0.753975 -0.285496 0.20719 0.348979 -0.422651 0.388185 -0.896707 0.616712 0.818947 0.225506 -0.517939 0.0284484 0.737887 0.693978 0.448978 -0.230169 -0.635738 -0.605716 0.53544 0.602004 -0.371978 -0.437208 0.552776 -0.00771504 -0.999093 -0.420988 0.398441 0.674855 0.247183 0.00312926 -0.662109 -0.20304 0.428571 -0.89241 0.591698 -0.946338 0.0742765 0.521965 0.427737 0.509538 0.439211 -0.268891 -0.387136 -0.460461 -0.122549 1.09317 -0.311716 1.32911 -0.40656 1.13741 -0.30211 0.508512 0.95422 0.616428 0.343116 -0.632365 0.515382 0.794993 0.900969 -0.287271 -0.0907458 -0.0902625 -0.228714 -0.709709 -0.0643571 0.59854 0.112537 0.450193 0.963052 0.60839 0.709185 0.00454372 -0.226391 1.01444 0.709196 0.558001 -0.365882 0.621223 0.274022 0.774828 0.516882 -0.694993 -0.105715 0.444874 0.856315 0.367952 0.467622 -0.974488 -0.736266 -0.0652732 -0.541096 0.867443 0.079835 -0.780388 -0.110384 -0.337241 0.248871 0.478489 -0.20896 0.950406 -0.360333 1.09521 0.897113 1.08767 0.264336 -0.393353 -0.670715 0.410252 0.0228122 -0.396518 -0.397009 0.0394617 -0.618265 0.46809 0.0346479 -0.890195 -0.702944 -0.975994 0.561782 -0.863115 -0.573861 -0.937952 0.229306 -0.925874 -1.14439 -0.556445 -0.690938 -0.450553 -0.00688553 -0.109746 0.0229351 -0.0426176 -0.233235 -0.892988 -0.745244 -1.20077 -0.0434701 -0.334999 -0.883783 0.375702 -0.776951 0.636584 -0.273799 0.42033 -0.792373 0.869234 0.991947 0.0755249 0.620083 0.0982491 0.554358 -0.687924 0.331479 0.112583 -0.171309 0.678388 -0.242519 -0.0852163 -0.200775 -0.0135164 -0.842731 -1.04796 -0.934639 -0.393986 -0.596467 -0.513439 -0.216817 -0.328189 0.70954 -0.887053 -0.125227 -0.0558191 0.989545 -0.370764 0.887461 0.29163 0.756959 0.891058 -0.081105 0.0228209 -0.645464 -0.210208 0.00954648 0.636433 -0.198816 0.44762 -0.346931 0.272975 1.33625 0.510574 -0.404133 0.196927 0.178614 -1.11902 -0.504351 -0.666128 0.637435 0.881272 -0.516921 -0.343181 0.815728 -0.516538 0.532107 -0.593737 1.00223 -0.139235 0.677678 -0.182454 -0.325425 0.992847 0.258315 -0.457845 0.794892 0.450418 0.146313 0.087316 0.890597 0.814713 0.0262492 -0.0472581 -0.54225 0.244361 0.454558 -0.998768 0.0108918 0.700657 -0.0947664 -0.831235 -0.158751 0.0158711 -0.815947 1.09371 0.688262 0.364556 0.239097 0.743354 -0.33484 0.446729 0.399057 -0.300691 -0.654317 -0.423211 0.167203 -0.402646 0.256482 -0.449431 0.267545 -0.647718 0.119178 -0.687466 0.0216356 0.589707 0.378136 -0.131373 -0.249995 0.752489 -0.123671 0.91155 -0.550396 -0.326169 -0.118708 0.246955 0.160039 0.674991 -0.158273 -0.334072 -0.0896515 0.662892 -0.165917 -0.265549 1.04394 -0.0835951 -0.433464 -0.255503 -0.509542 0.433873 0.313233 -0.795569 -0.27577 -0.262666 0.176811 -0.121382 -0.0306365 -0.0658898 0.360935 0.791381 -0.477017 0.681849 -0.824107 0.258369 0.714747 -0.765085 0.928958 -0.504327 0.320824 -0.165433 0.961079 -1.00901 0.448606 -0.00697656 -0.00876149 0.115873 0.959561 0.0364405 0.0305509 -0.83247 0.154323 -0.646184 0.320512 0.515315 0.941373 -0.159572 0.0726728 -0.168947 0.314521 0.408696 -0.252058 -1.20471 -1.09875 -0.557899 -0.723977 -0.0528041 1.03717 -0.629993 0.374777 0.65262 0.114565 0.306004 0.354153 0.46649 0.0956072 0.598174 1.11639 -0.527546 -0.836256 0.560646 -0.348202 -0.810578 0.644784 0.486557 0.0180455 0.881494 0.824329 0.627381 -1.11128 -0.734155 -0.345241 -1.37364 -1.09258 -0.88815 -1.22081 -0.820604 0.317523 -0.374259 -0.37438 -0.390759 0.37346 -0.841095 -0.661313 -0.667713 0.887463 -0.405761 -0.504137 0.69448 0.528053 0.973255 -0.206592 -0.807418 0.925448 0.705866 -0.960976 -0.284794 -0.655322 -1.41269 -1.30087 -2.27301 -1.32162 -1.04988 -2.0915 -1.90015 -2.03743 0.0353076 -0.130079 0.88473 0.364839 -0.620036 0.80442 -0.311626 1.22279 -0.723802 0.258028 -0.512942 -0.89669 0.409062 0.809563 -0.683157 -0.197965 0.0053588 0.537981 -0.869952 -0.835169 -0.132114 -1.20257 -1.1594 -1.01208 -2.02336 -1.63674 -2.58453 -2.08787 -0.135048 -0.989124 0.312341 0.582152 0.281215 0.176635 0.555707 -0.529141 -1.06648 0.0718434 0.514701 -0.494902 0.209145 0.682692 -0.506821 0.968745 0.136882 1.06951 -0.0518918 -0.165227 0.674499 0.209656 -0.967522 -0.22793 -1.43373 -1.22769 -0.931117 -1.59242 0.390763 -0.524258 1.20186 -0.410941 0.594579 -0.268011 -0.157246 -0.0952705 -1.03254 0.270004 0.292716 0.255308 0.300838 0.566255 0.558824 0.0248666 -1.03989 -0.106861 -0.205845 -0.760874 0.541069 -0.727272 0.640926 0.62053 -0.318499 0.203618 0.531857 -0.28706 0.183955 -0.209334 0.544463 -0.055586 0.882725 0.886604 -0.239904 -0.676063 0.491337 -1.10184 -0.513663 0.629682 -0.0730428 0.093051 0.362346 0.177099 -0.34096 0.629721 1.12559 -0.828937 0.160947 0.370253 -0.145813 0.0865176 0.148851 0.339384 -0.0403913 -1.00017 -0.177906 0.0225608 -0.31199 0.614343 -0.0900126 -0.131014 0.256044 -0.38979 0.276653 -0.353828 -0.995795 -0.972875 0.680248 -0.664174 -0.362835 -0.629871 1.00435 0.441351 -0.008764 -0.303771 0.481342 -0.228262 0.0194873 -0.333316 0.442173 -0.274736 0.322003 0.402818 -1.36799 0.346524 -0.445045 0.820006 -0.153677 1.05985 -0.343348 0.731113 -0.837937 -0.326371 0.475623 -0.501063 0.7184 0.347819 -0.870724 -0.350505 0.874975 -0.269616 0.0958721 0.424251 -0.544231 0.610963 0.583404 0.338668 0.155555 -0.280893 -0.62162 -0.0317883 -0.402035 -1.39012 -1.18466 0.568834 0.826915 -0.377315 0.575898 -0.39402 -0.19497 0.0485391 -0.0418221 -0.4009 0.51438 -0.777581 -0.833491 -0.793085 0.236219 0.3944 -0.855566 -0.313526 0.278554 0.103534 0.226664 0.64926 -0.0590109 0.658707 -0.33627 1.00375 0.497578 0.383885 1.14739 0.726956 -0.384216 0.690402 0.306681 -0.429708 0.508004 0.141231 -0.327929 0.569574 0.179893 0.611133 -0.143834 0.535691 0.162511 0.558755 -0.272744 -0.392834 -0.596337 -0.327393 0.761361 1.03165 -0.096684 -0.12422 -0.480004 0.307401 0.344153 0.042266 -0.595682 0.636708 0.168869 -0.775758 -0.121284 0.276785 -0.106034 0.775512 -0.711356 -0.949522 0.423017 -0.365032 -0.900388 -0.862606 -0.47148 0.442793 -0.364666 0.657582 -0.419129 0.49413 0.734735 -0.172415 -0.415803 0.687207 0.930619 0.564666 0.632613 0.505737 0.717931 -0.344462 0.463533 -0.527601 0.361784 0.627694 -0.0224509 0.648077 -0.534043 0.534043 -0.280984 -0.871456 0.61095 0.217261 0.678762 0.131382 0.225868 0.693533 -0.287698 0.366436 -0.654225 0.362957 0.104526 -0.476974 -0.729658 -0.777928 -0.82049 0.688528 0.559435 -0.872555 -0.240944 -0.777154 0.657155 0.173193 -0.71923 0.653859 0.457991 0.243568 -0.610584 -0.84637 -0.874203 -0.19541 -0.186926 -0.839717 -0.519578 0.995971 -0.663467 -0.295643 -0.750823 -0.918459 -0.316173 -0.00285083 0.577488 -0.649212 -0.872708 -0.0752085 0.890592 -0.560405 -0.350112 -0.244258 -0.199319 0.355449 0.376018 -0.999147 0.843013 -0.162511 -0.721366 0.71923 0.991211 -0.262673 -0.215858 0.873335 0.665479 0.878046 0.173081 -0.643978 0.892673 0.790729 0.567501 0.233037 0.926977 0.409944 -0.599763 -0.254907 0.43191 0.575969 0.12621 -0.16264 -0.160877 0.552177 -0.435533 0.797039 0.457814 -0.661306 -0.284646 0.646901 -0.680654 0.946654 -0.00711105 -0.515139 0.868007 0.758427 0.649002 -0.201096 0.495588 0.840157 -0.188899 -0.95657 -0.570406 0.31362 0.599501 -0.496095 0.694841 -0.661854 0.192562 -0.907123 -0.0944397 0.565772 0.62251 -0.848668 0.764232 0.737254 0.447308 -0.482345 -0.102451 0.480087 -0.931458 0.784269 0.660165 -0.00945587 -0.0899603 -0.635076 0.234506 -0.169227 -0.755069 -0.22771 -0.314293 -0.894677 -1.22943 0.384665 -0.212023 0.250935 0.361936 -0.709825 0.522629 0.432625 -0.171093 -0.142298 0.887848 0.724967 0.240393 -0.36137 -0.962035 0.701041 -0.980684 0.436426 -1.06165 -0.777793 -0.540739 -0.510144 -0.31132 -0.103446 -0.852753 0.711249 0.291482 0.577877 -0.21486 0.442438 0.0277805 0.360827 1.48733 0.628499 0.480456 0.687988 0.836421 0.233923 0.611686 0.926972 -0.202156 0.96649 -0.442915 0.100375 0.559455 0.799571 0.311613 -1.00612 0.540698 0.548142 -0.0620316 -0.776203 -0.22773 0.814623 0.0988767 0.70021 -0.513676 0.154091 -1.11588 -0.962012 0.363785 0.484197 -0.0241071 1.35832 0.00753107 0.68206 -0.140505 -0.691791 -0.215943 -0.0760469 0.0713807 0.159737 0.240704 0.157777 -1.04819 0.574681 -1.06756 0.00263898 -0.527854 0.294442 -0.183872 -0.0147063 0.397483 0.395518 -0.875943 -0.353924 -0.873333 -0.726669 0.7254 0.179721 0.641496 0.145466 1.51195 0.464531 0.549801 0.540263 0.490755 -0.939865 -0.203353 -0.287306 -0.808962 -0.572865 0.389457 -0.466865 0.203689 0.100005 0.673408 0.677585 0.598506 1.24236 -0.0737895 0.278443 -0.84555 -0.439799 -0.790971 0.227858 0.162621 0.222577 -0.427163 -1.01162 0.913008 0.162476 -0.330248 -0.305642 0.918821 0.448168 0.0394121 -0.810707 -0.0125525 0.0832796 -0.567067 -0.854525 -0.549626 -0.521108 0.168725 -0.296086 -0.390467 0.965445 1.66543 0.810486 -1.19186 -1.90835 -0.169119 -1.50537 -0.41316 -1.35138 -0.60452 0.216234 -0.547107 0.167454 0.972781 -0.690748 0.0237671 0.836035 0.566366 0.289647 -0.501202 0.580506 0.758365 0.378932 -0.278515 -0.304519 0.736819 1.05049 1.08455 1.78118 1.34431 -0.27678 -1.77838 -1.74205 -1.58976 0.0622086 -0.227433 0.238355 -0.0112487 -0.265193 0.205308 -0.528953 0.379925 0.666366 -0.27359 -0.609003 0.0408566 -0.583213 0.339134 0.575636 -0.31008 -0.805921 1.23636 0.861039 0.949585 0.213371 0.920869 1.92752 0.431085 0.384337 -0.376358 -1.98202 0.190197 -0.834021 -0.796941 -0.734594 -0.823501 -0.223275 -0.821733 0.0394522 -0.556828 0.969481 0.362803 0.0942195 0.71313 0.363705 0.562511 0.784952 0.721164 1.25196 0.602273 -0.484403 0.367787 0.539523 1.85967 1.06594 0.516726 0.103155 -0.528489 -0.350595 -0.990283 0.408935 0.234426 -1.53855 -0.298904 -1.38548 -0.167874 -0.29284 0.40755 0.266142 0.309479 -0.423574 0.551622 0.649175 0.339349 -0.580901 -0.750745 1.14558 0.687402 1.34087 -0.581229 0.933691 0.682835 0.250922 0.754396 0.531162 -1.18733 -1.25193 -1.50838 -1.10845 0.252042 -0.869516 0.011514 0.228116 0.566463 -0.311368 0.00109107 -0.0243125 0.454855 0.454778 -0.995521 0.996338 -0.696592 -0.741701 -0.393835 0.719898 0.141044 0.964725 1.21234 0.270523 0.233637 0.312962 -0.699647 -0.0644701 -2.01445 -1.31814 -1.27681 -0.608433 -1.20371 -0.240633 -1.17712 0.469454 0.140156 -0.556545 0.910368 -0.110495 -0.842406 -0.9331 -0.426554 0.345727 -0.769574 0.0207709 0.375208 0.237469 0.870791 -0.107844 1.3412 -0.276244 0.46755 0.298075 0.157372 -1.49776 -1.09885 -0.478843 -0.742105 -0.138085 -0.369318 1.13525 -0.116085 -0.730633 -0.1494 0.762743 -0.483803 0.0138098 0.564433 -0.477374 -0.600521 -0.120042 -0.202275 -0.0717542 -0.81231 0.424704 1.21969 0.693556 0.151352 -0.378749 0.143132 -1.20195 -2.00768 -2.06075 -1.50932 -1.52097 -1.02469 0.096838 0.881348 0.629672 0.250323 1.08454 0.784068 0.710523 0.408351 0.705593 -0.311644 -0.971182 -0.968627 0.437846 0.0551254 0.414305 0.270001 1.3125 -0.327288 -0.556265 0.526656 -0.936752 -1.09605 -0.157161 -1.50833 -1.47487 -0.445985 -0.980909 -0.291804 0.106427 0.0848842 0.0768781 0.331347 0.598568 -0.204736 0.998196 -0.238679 -0.182405 -0.829166 0.424084 0.577563 0.821223 -0.80955 0.0138763 0.341202 -0.60115 -0.460218 -0.461394 -0.504467 -1.53929 -0.107881 -1.80818 -0.014315 -0.488354 -1.14232 0.484571 0.220659 0.68536 -0.0883631 1.21978 -0.0799162 0.37196 0.207457 -0.257076 1.16044 -0.218045 -0.686342 0.854879 -0.575915 -0.609673 -0.422019 0.300389 -0.449 -0.281155 0.730495 0.751986 -0.911736 -0.686116 -0.0384257 -0.42384 -1.51199 -1.22701 -0.981349 -0.279063 -0.637418 0.794123 1.02939 -0.895582 0.513713 -0.112995 0.0945171 0.811082 -0.792884 -0.41909 0.0718965 0.536127 -0.293802 0.398983 -0.539579 0.400915 -0.158958 0.594955 -0.625171 0.259919 -0.226591 0.560739 0.462144 0.583593 0.490147 -0.283905 0.227139 -0.915769 -0.0268649 0.172666 -0.00499911 0.195942 1.0559 0.60119 -0.904923 -0.6738 0.857378 0.882147 0.749362 0.531541 0.720572 -0.493126 0.204401 0.214995 -0.866588 0.698376 0.471293 -0.339739 0.50765 -0.692008 -0.13986 -0.313383 0.733007 0.326416 -0.801799 0.395954 0.39023 -0.0676318 -0.334613 0.813618 -0.610851 0.632023 0.472157 -0.150168 0.806925 0.423822 -0.13001 -0.514451 0.467574 -0.0966544 -0.292905 0.89328 0.572199 -0.21344 -0.618308 -0.250882 0.0307883 0.280186 1.20023 0.493194 1.0982 0.704186 1.02674 0.400488 0.429767 1.18176 -0.252174 -0.836195 0.171619 0.0531544 0.524183 0.895141 0.77778 0.713658 -0.644282 0.257546 -0.490829 -0.516648 0.52595 0.835771 0.888891 -0.242142 -0.400966 0.803287 -0.572103 0.62669 -0.416873 0.818386 0.460269 -0.153196 0.361703 0.257801 0.034617 -0.0625977 0.396194 0.537038 -0.491876 -0.643707 0.0477054 -0.590638 0.273462 -0.995988 -0.749247 0.38316 -0.668935 0.511582 0.691182 0.434838 0.599794 -0.076982 -0.781377 -0.739355 -0.764584 1.0681 -0.365383 0.713735 1.21357 0.687009 0.454971 0.16849 0.0664544 0.540286 -0.017203 0.404757 -0.612828 -0.0621728 0.619088 -0.534633 0.502499 0.152386 0.872005 -0.693411 0.396222 0.211524 -0.282082 0.730245 -0.98088 -0.335298 -0.238424 0.33747 0.156164 0.380917 -0.751887 -0.532695 -0.433129 -0.126793 -0.884244 0.783514 -0.265267 -0.436492 -0.786466 0.615122 -0.200341 0.837073 0.392965 -0.435298 0.79107 -0.255592 -0.905942 0.320292 0.0769982 -0.281167 -0.596301 -0.522078 -0.0110285 0.894206 -0.0710007 -0.778364 -0.363988 -0.877503 -0.0902607 -0.0910457 0.6468 -0.963499 0.643771 0.645276 -0.414924 -0.403853 0.436843 -0.701932 -0.996952 0.91801 -0.158521 -0.244573 0.040498 -0.935972 -0.596851 0.147801 -0.345744 -0.165258 0.431135 0.516648 -0.228186 -0.936256 0.236673 -0.0965622 -0.666051 0.761037 -0.686067 0.373328 0.707334 -0.67221 0.928164 -0.907956 -0.628284 -0.345966 -0.481181 -0.488581 -0.611302 0.0024749 -0.385864 0.452549 -0.144383 0.094943 0.424909 0.110446 0.569811 -0.982116 0.0729698 -0.924192 0.464217 -0.595996 -0.618091 -0.28074 0.904965 0.722831 0.241676 0.477645 -0.739511 -0.181143 0.234644 -0.774527 -0.95465 -0.230262 0.359844 -0.646596 -0.0798059 -0.93939 -0.33311 -0.883969 -0.0873135 0.245643 -0.387371 -0.188086 -0.879452 0.0522782 -0.0470901 -0.64214 -0.760613 0.0541925 0.971601 0.803659 0.202882 -0.0477445 -0.0690132 0.466368 0.348654 0.543372 0.343079 0.894233 -0.848233 0.41132 0.237791 -0.170542 -0.774091 -0.576273 -0.154347 0.0729829 0.634449 -0.920713 0.783258 -0.718863 -0.218421 0.828181 -0.54619 -0.947203 0.510358 0.32464 0.439947 -0.130217 -0.7065 0.668372 0.782915 -0.401617 0.24833 -0.924662 -0.962167 0.0310639 0.46653 -0.337651 -0.468774 0.624073 0.923801 -0.82532 -0.108969 0.990171 -0.634729 0.542231 -0.811823 0.508774 0.345439 -0.32609 -0.52739 0.824657 -0.778692 -0.429614 0.150156 -0.445168 0.179001 0.539675 -1.2013 0.822581 -0.35701 -1.22254 0.0892001 -0.516997 -0.899958 -0.517017 -0.998789 0.71378 -0.46352 0.672728 0.864162 -0.84092 -0.779817 -0.893522 0.80723 0.316202 -0.934446 0.675955 0.209826 -0.306906 0.475034 -0.832027 -0.62003 -0.675943 0.00672609 -0.537426 0.644722 0.809904 -0.647388 -0.670928 -0.302166 0.270232 0.639331 -0.154969 0.67412 -0.688538 -0.275947 -0.76429 1.0184 -0.312508 0.92482 -0.679474 -0.45523 -0.506767 0.990906 -0.575304 -0.317915 0.265252 -0.389906 0.755227 0.796773 0.586623 0.877621 -0.203353 -0.920143 -0.518288 -0.465417 -0.701809 0.423553 -0.910774 0.487099 0.891978 0.246217 -0.38982 0.91196 0.446834 0.578967 -0.403597 0.370212 -0.95839 -0.912537 0.147967 -0.320475 0.623829 0.64501 0.638651 -0.0604828 -0.25812 0.11186 -0.246913 -0.860555 0.33907 1.00544 -0.116318 0.80218 -0.264862 0.74181 -0.217866 0.993495 1.15766 0.811427 0.512843 0.631518 -0.792951 0.105257 -0.291995 1.17396 0.201578 0.848729 0.193812 -0.521605 -0.00391911 0.60159 -0.821941 0.63098 -0.935079 -0.64317 -1.04245 -0.264539 -0.67973 -0.825429 -0.311115 -0.33085 0.281336 0.225311 -0.301333 0.270564 0.748479 1.05026 0.528355 0.146923 0.744983 0.413309 1.07319 -0.516161 0.560526 -0.784048 0.908601 0.557462 -0.0550296 0.675852 0.876528 -0.599277 -0.41441 -0.163564 -0.283009 -0.567209 -0.342884 -1.01039 -0.00569039 0.325578 0.0151756 0.67412 0.455776 0.168293 1.18434 0.102869 0.252805 1.06087 0.514591 -0.552454 1.06272 -0.359522 -0.344215 -0.907765 0.569834 -0.110554 -0.633009 -0.272268 -0.870463 0.128978 0.670236 -0.845871 0.410598 0.439134 -0.964963 0.873358 1.22802 -0.404946 -0.31006 -0.676935 -0.283691 0.626323 -0.249013 0.399019 1.16384 0.476455 -0.434207 1.11755 0.263239 -0.111537 -0.618328 -0.91708 -0.110104 0.341899 -0.920895 -0.0297895 0.258764 0.191077 -0.0280425 -0.450366 0.28276 0.189704 0.147245 0.0577633 1.19371 0.317476 -0.178549 -1.00455 0.594176 0.636532 -0.574796 -0.155389 -0.227588 -0.29963 -0.23726 0.348306 1.12329 -0.23493 -0.257707 -0.424242 0.64845 -0.889218 -0.669686 0.222819 0.526293 0.505637 0.653268 1.18804 0.464053 0.790512 0.371895 1.25511 1.7577 1.02199 1.41201 1.27234 -1.06474 -0.441566 0.308276 0.986197 0.2168 0.690006 0.595713 0.837147 0.201356 0.644548 0.421126 0.575847 0.80365 -0.360515 0.762818 0.608754 0.194885 0.812423 -0.535938 0.362161 0.396408 0.73031 0.575161 2.15668 0.4695 1.40868 0.652196 1.38588 -0.545165 -0.0798194 -0.209049 0.653431 -0.434986 -0.148954 0.0697676 0.222238 0.43054 -0.476392 0.915097 0.887425 -0.393433 0.234779 -0.680988 -0.287754 -0.791265 0.969416 1.12192 0.71081 0.592653 0.896593 0.18545 0.881677 0.603851 0.484604 1.80229 0.49262 -0.982574 1.0238 -0.286174 0.321582 -0.523646 -0.0484045 0.297567 -0.131484 -0.790853 0.377124 0.0094781 -0.577612 0.33817 -0.437666 0.504367 -0.489607 -0.809787 0.57901 0.509979 0.96163 1.4201 1.14815 1.4586 0.829253 -0.610849 -0.0828482 0.927378 0.246568 -0.432858 0.725251 0.414592 -0.467496 -0.243618 0.883782 0.749014 -0.693601 0.59868 0.664922 -0.389552 0.455802 -0.302006 0.207923 -0.544725 0.915913 -0.537254 0.539613 1.19093 0.595289 0.927153 1.5116 1.41152 -0.134265 -0.598463 0.014763 -0.920177 -0.466913 -1.00942 0.829645 -0.240621 0.840027 1.11064 -0.731649 0.114185 -0.907737 0.705687 0.766437 0.675443 -0.874393 -0.203388 0.492477 0.243465 -0.375347 0.370241 -0.828364 0.0865849 0.738944 -0.375537 -0.312115 -0.40381 -0.712752 0.149359 0.448211 -0.992114 -1.21075 -0.458987 -0.643955 -0.234469 0.604102 -0.436116 -1.05553 0.231628 0.0427571 0.141289 -0.18353 -0.929485 -0.835904 -0.356572 -0.271218 0.854697 0.889691 -0.721069 0.956408 -0.300023 0.991496 -0.639954 0.351213 -0.47374 -0.753911 -0.968117 0.148397 -1.65382 -1.42801 0.630734 -0.0651573 0.534804 0.17903 -0.353495 0.925357 1.004 0.373629 -0.0824938 0.222699 0.254948 -0.531635 0.11041 -0.892941 -0.715629 1.0127 -0.659716 -0.676507 0.943325 -0.300648 1.08374 -0.722488 0.742398 -0.0426527 -0.575508 -0.641798 -1.65266 -0.508259 0.197299 -0.0194949 1.5275 0.143022 0.329375 -0.0773996 -0.173259 0.524429 -0.417357 -0.1767 -0.763811 -0.631003 -0.701419 -0.60332 -0.819507 0.17501 -0.341459 -0.729116 0.900922 0.612346 0.802198 -0.562729 -1.12554 -0.945991 -1.56906 -1.38617 -1.64401 -0.860118 -0.493281 0.828323 0.325075 0.284986 0.543941 0.667434 0.80878 -0.794196 0.596619 -0.926187 -0.956736 0.914108 0.162717 -0.348003 0.476322 0.332973 0.363514 -0.389568 -0.331822 0.708829 -0.516732 -0.434807 -0.952308 -0.842762 -0.987331 -1.73906 -1.16339 -0.0178087 -0.38658 -0.0455265 1.12523 -0.168823 0.0838514 -0.394319 -0.0791703 -0.641892 -0.933665 0.239246 -0.8882 0.0441269 -0.483688 0.109837 -0.551058 0.671201 0.676602 -0.847922 -0.486596 -0.156579 0.887941 0.643056 0.334387 -0.144877 -1.27933 -0.582262 -0.376214 -1.42821 -0.385403 -0.671107 0.000746783 0.413122 0.368126 -0.888982 -0.0939217 -0.00203932 0.0607035 0.0764444 -0.648705 -0.404171 0.170873 -0.534897 -0.358806 0.661991 0.794056 0.169553 0.657456 0.162306 -0.538867 -1.12716 0.635023 0.342434 -0.224197 -0.242853 0.15757 0.341145 -0.362507 0.689615 0.492334 -0.138382 0.0772273 -0.509203 0.782336 -0.280788 0.766357 -0.635424 -0.0547812 -0.604492 -0.763421 -0.285989 0.0835901 -0.802113 -0.550397 0.51313 0.886722 0.847993 0.455239 -0.349861 -0.494924 -0.0702116 1.39935 0.220656 1.16654 0.090566 -0.164121 0.305994 0.273641 -0.247686 -0.540142 -0.197237 0.71307 -0.839764 -0.243324 0.966215 -0.284889 0.360972 0.509262 0.749748 0.255165 -0.654715 -0.332068 0.227817 -0.649695 -0.962549 -0.557381 -0.208636 -0.201959 -0.056798 -0.222775 1.09308 -0.340009 0.409176 -0.318753 0.619953 0.130685 -0.000811478 1.01926 -0.673058 0.82131 -0.0609933 0.154545 0.196009 0.870286 0.314907 -0.126316 -0.0990326 0.22013 -0.291353 -0.0349181 -0.431937 -0.494399 -0.292121 -0.0169549 0.713578 -0.158593 0.210143 0.603758 0.857823 -0.136763 -0.672795 -0.425219 -0.808345 0.819038 0.0269878 0.483559 -0.481558 -0.352653 0.210223 0.909625 -0.0331278 0.33261 0.0995226 -0.334696 0.598132 -0.622608 0.0910367 0.443114 -0.029474 0.491277 0.156903 0.859422 0.35268 0.390443 -0.756142 0.898731 0.37734 0.940783 0.88578 0.0435327 0.629364 -0.574444 0.195724 0.559565 0.410663 -0.367485 0.166839 0.0165586 0.784722 0.695364 -0.254067 0.925535 -0.643239 0.261208 -0.372112 0.26371 0.221742 -0.468859 0.709712 0.873363 -0.777933 0.893824 -0.856705 -0.664498 0.403514 -0.327592 -0.684106 0.358158 -0.798103 0.0615748 0.455026 0.16146 0.466636 0.101028 -0.369703 0.43376 0.751823 0.0279244 -0.660024 -0.510849 -0.735221 0.830012 -0.226234 0.0782189 0.59624 -0.768487 0.307291 0.485702 -0.318522 0.0562456 0.580004 0.462386 0.261818 0.100925 -0.860286 0.549059 -0.839229 0.555895 0.432478 0.358379 -0.309977 0.0381787 -0.0483719 0.375652 0.495895 -0.699088 0.360576 0.842219 -0.839534 -0.319132 0.40025 0.282571 0.868892 0.346591 -0.606689 -0.762679 -0.548223 0.408456 -0.837477 -0.224053 -0.859247 0.963985 0.162425 0.318053 0.273431 -0.891793 -0.338076 0.378037 -0.61432 -0.976163 0.754925 0.742546 0.889279 0.166234 0.0464187 -0.314493 0.690237 -0.372356 0.807123 0.750491 -0.921052 0.742578 -0.579178 0.714718 -0.800059 1.01476 -0.116606 -0.834442 0.379293 -0.596579 0.33865 0.43283 0.350833 -0.387754 -0.01127 -0.61575 1.0195 -0.772926 -0.682785 -0.46163 -0.552441 0.486068 0.583422 -0.856319 0.432234 0.0794396 0.336528 -0.252056 0.553949 -0.93224 -0.453855 1.03179 0.592954 -0.201633 -0.383903 -0.00633173 -0.616592 -0.204489 0.437488 0.216613 0.0461202 -0.389383 0.724355 -0.632147 0.660697 0.736145 0.762157 0.363486 0.673436 0.0342519 -0.241413 -0.444014 -0.726005 -0.342473 0.272009 0.9983 0.50404 -0.274334 -0.442759 -0.809536 -0.755106 1.10264 -0.61623 0.265811 0.19732 -0.620727 0.951997 -0.348229 -0.0863026 -0.981999 0.586652 -0.854809 0.309335 -0.164709 1.15736 0.831571 0.563621 -0.210416 0.767323 -0.213474 0.231849 -0.511765 -0.29057 0.769664 0.419532 0.614668 0.251734 -0.436319 -0.187623 -0.499972 -0.550386 1.06834 -0.475523 0.0483576 0.506465 0.770581 0.766201 0.293615 0.543092 1.05415 -0.160001 1.19256 0.452639 -0.138059 0.408957 -0.641474 -0.102927 0.993049 0.898495 0.608814 -0.906248 0.073765 -0.94151 -0.327441 0.678888 0.105975 -0.500507 0.225389 0.576661 -0.352087 -0.248933 -0.973759 0.111857 -1.08365 0.0662034 -1.05003 -0.846296 -1.03486 0.495844 1.01064 -0.100331 -0.392518 0.0557317 -0.235748 -0.333321 -0.217816 -0.29252 -0.0770174 0.0920391 -0.292053 -0.629196 -0.722407 0.02748 -0.946031 -1.02763 -0.699152 -0.0933154 -0.497568 -0.787233 -0.591439 -0.0989218 0.0492302 -0.85836 -1.98133 -0.344523 -1.3448 -0.718273 -0.6436 0.740214 -0.436236 -0.342954 0.171359 0.356157 0.713081 0.201941 0.151658 -0.513988 -0.530551 -0.982847 0.0388778 0.626365 -0.790724 -0.199616 0.373056 -0.83645 -0.879433 -1.78101 -0.861155 -1.0749 -1.58596 -1.19939 -1.0302 -0.0653204 -1.75047 -1.09237 -0.77622 -0.410201 0.627828 -0.84161 0.182897 -0.821022 -0.940635 0.493698 0.191891 -0.101601 0.695898 -0.595941 -0.334406 -1.09183 0.463399 0.71516 -0.225128 0.265546 0.417191 -0.871626 0.323021 -1.51517 -0.475867 -1.04881 -1.66397 -0.830487 -0.182717 -0.772579 0.0966964 -0.564209 -0.647334 0.800435 -0.252626 0.326317 -0.23082 0.102329 -0.630499 0.718446 0.0384011 0.775861 -0.688551 -0.448162 -0.192242 1.14623 -0.139192 -0.0983264 -0.332594 -0.0935189 -0.358804 -1.45175 -0.422486 -0.542773 -0.229552 -0.121083 -0.381512 -1.13961 -0.408637 -0.113467 -0.477493 0.394354 0.099795 -0.842307 -0.407287 -0.639943 -0.0498611 0.337185 -0.106706 -0.972824 0.244615 0.124023 0.753672 1.41536 0.711351 0.00310197 -0.667667 1.18398 -0.161793 0.32126 1.26434 0.33194 0.202018 0.527137 -0.137949 0.128357 -0.0640478 0.974597 -0.455757 -0.576078 0.884062 -0.605887 0.27003 -0.429365 -0.591218 -0.993394 0.0296578 -0.616551 0.0423149 -0.410723 -0.0874106 0.604621 -0.346454 0.817893 0.576814 0.516263 0.936007 1.54273 0.705786 1.25096 -0.499206 -0.669157 0.641991 0.682363 0.423436 -0.967347 0.537704 0.616783 0.237655 0.905041 -0.24736 -0.890316 0.972567 -0.66069 -0.608656 0.17299 -0.796527 -0.479177 0.844237 0.191193 -0.846428 -0.230074 -0.000547164 0.978594 1.23875 0.0079831 0.495801 1.03757 0.116281 0.63692 0.417185 -0.805035 0.511098 -0.408261 0.113207 -0.233079 -0.143684 0.921318 -0.615183 -0.345925 -0.459341 -0.206458 0.0877161 -0.230556 0.168103 0.43105 -0.504888 0.283173 0.32498 0.474281 -0.0693607 0.798951 0.314527 0.955068 0.0368077 0.42417 0.883734 -1.01099 -0.428369 0.181127 -0.132869 -0.428103 -0.958428 0.450494 -0.151991 0.319358 -0.055694 -0.272509 -0.16747 0.0601679 -0.0622092 0.451512 -0.36059 0.47128 -1.04114 -0.970168 -0.708394 -0.298229 0.74862 0.423921 0.176905 0.932254 0.607038 0.245286 -0.401524 0.164316 -0.946971 -0.219404 0.563988 -0.368092 0.668104 -0.109154 0.638241 -0.48697 0.57524 -0.250096 0.0817085 0.0905161 0.358111 -0.604582 -0.666249 -0.835402 0.297509 -0.528231 -0.146357 -0.902747 0.538928 1.02364 1.1462 1.44113 0.17178 -0.296411 -0.605534 -1.42159 -1.99304 -0.277953 -0.49468 -0.0782761 0.729724 0.296067 -0.269912 -0.142352 -0.554489 -0.221168 -0.52047 -0.766584 -0.446688 0.33888 -0.535169 0.806621 -0.0528514 1.0642 0.932103 0.897934 0.0984171 0.577754 1.45686 1.30475 -0.0596624 -0.378183 -0.999545 0.0389564 -0.36815 -0.720814 0.73535 -0.53231 0.0975703 0.20005 -0.444974 -0.983949 0.114044 0.128679 -0.915256 -0.723437 0.0590707 0.132988 0.554723 -0.306117 -0.00517685 0.246473 1.25851 1.34884 1.55483 1.67512 1.3759 0.919373 0.615898 0.289486 -0.966853 -0.442316 -1.04609 -0.631256 0.324861 -0.416152 -0.203176 0.788793 0.684431 0.312594 0.560434 0.0576495 0.511316 0.239411 0.511587 0.458637 -0.779719 -0.14902 1.33117 -0.347659 1.11958 0.301403 0.481547 0.193164 0.260393 -0.413685 -0.0372831 -0.0780243 0.112851 -0.212159 0.603181 -0.884049 0.825756 0.943447 -0.454551 1.15192 -0.242088 0.407755 0.790762 0.70745 -0.129766 0.189704 0.720073 0.0627823 -0.5204 -0.125707 0.58589 0.71917 -0.360188 -0.260041 0.336179 0.113915 0.690131 0.0414528 0.435551 -0.303861 -0.470084 0.0573406 0.517119 -0.323569 -0.735924 1.10099 1.14809 -0.253547 -0.0646677 -0.848725 -0.0447081 -0.514873 -0.613981 0.235419 -0.979012 0.815461 -0.808674 1.18226 -0.222774 0.961707 0.582103 -0.796748 -0.0809254 -0.981524 -0.81846 -0.382736 -0.674464 0.954322 1.14032 0.0249367 0.921711 0.642274 0.320038 0.475751 -0.760716 -0.516834 0.728811 0.329164 0.930174 0.0735848 0.0473357 0.0924806 0.719364 0.216732 0.12808 0.0260584 1.00958 0.0131529 0.0149548 -0.584566 -0.858971 -0.209811 0.672907 0.540391 -1.15272 0.132122 0.616564 1.32056 0.560199 -0.460187 0.59922 0.187982 0.815033 -0.088677 0.0310387 0.905788 -0.708365 -0.741752 -0.0367138 -0.91725 -0.137633 0.451428 0.0558266 -0.719139 -1.12336 -1.26577 0.265288 -1.29337 -0.472696 -1.06261 -0.814458 -0.739672 -0.139352 0.275667 -0.322119 -0.240291 -0.0847346 1.17312 0.984251 1.08624 0.526825 0.0443104 -0.590841 -0.459884 0.62273 0.758171 -0.425703 0.148713 0.277372 0.445233 0.110085 -0.805467 -1.08488 -0.527948 -0.322264 0.00528823 0.0142768 -0.131305 0.197235 0.134833 -0.132015 -0.199354 -0.0594934 0.348725 0.45996 -0.785305 0.694047 0.88555 -0.901131 0.869904 -0.626561 -0.0878026 -0.911252 -0.752129 0.343669 -0.582263 0.864827 0.203385 0.712966 0.411795 -1.34356 -0.0286943 -1.47351 0.0371642 -0.766266 -0.130391 0.24081 -0.487075 0.110538 -0.942573 -1.1442 0.0295518 0.607408 -0.48871 -1.10859 -0.312046 -0.35637 0.656479 -0.320413 -0.203466 -0.779412 0.759087 0.304727 -0.593677 -0.779573 0.409645 -0.110053 -0.0248526 0.743287 0.478646 -1.17653 0.459249 0.020244 -0.150674 -0.752353 -0.424941 -0.954934 -0.630516 -0.44657 -1.01737 -0.600851 -0.969317 0.272802 -0.938625 -0.874799 -0.180151 -0.139073 -0.736015 -0.157933 0.647511 0.908506 0.206092 0.734733 0.895311 -0.860839 -0.691909 -0.259792 -0.685245 -0.840343 0.876335 0.668835 -0.178258 0.898376 -0.683466 0.630567 -0.970517 0.351649 -0.651769 0.810671 -0.375002 -0.465602 -0.213104 0.635038 0.084933 0.353923 0.963622 0.0793176 -0.685171 0.609119 0.47673 0.364116 -0.992615 0.831721 -0.916684 -0.807001 -0.844234 0.734916 -0.432905 -0.553026 0.423139 -0.587817 0.398297 -0.538072 -0.440229 0.335917 0.989074 0.514084 -0.800226 -0.781365 0.358867 0.073336 0.34788 -0.199377 0.0223091 0.390057 0.871456 -0.374554 0.912107 0.975402 0.308084 0.866451 -0.849971 0.539293 0.302486 0.267395 0.480148 0.95103 0.988067 -0.74599 0.151803 0.739403 0.598801 0.291085 0.175318 0.922082 0.718386 0.542326 0.498157 0.13712 0.285989 0.87524 0.299905 0.549547 0.927915 -0.68395 -0.134251 -0.77813 0.695425 0.976013 -0.950559 0.0277383 0.674132 -0.44672 -0.907754 -0.491109 -0.32402 0.375924 -0.448347 -0.817994 -0.584408 0.182268 -0.829436 0.0756866 -0.527559 -0.182192 0.847757 -0.302132 0.0124731 0.107554 0.678579 -0.468795 0.703543 0.604297 -0.175817 0.873531 0.171573 0.219979 -0.590993 -0.635212 -0.626674 -0.421741 0.635608 0.375664 -0.102961 0.90856 0.215716 0.248515 0.900945 0.633242 0.497801 -0.0222104 1.08119 0.394805 0.724817 -0.49679 0.957138 0.127649 0.0765107 -0.780511 -0.36198 0.892331 0.415632 0.54129 -0.576478 0.013756 0.645392 0.433417 0.51998 0.180587 1.07697 1.16452 -0.443477 0.932901 -0.143447 -0.390962 0.722615 0.252375 0.371418 -0.255208 0.08828 0.632324 0.258978 -0.257054 -0.20087 -0.260757 0.870822 0.892565 -0.304727 -0.0990326 0.641955 -0.264937 -0.600419 0.131912 0.703524 0.878192 0.222189 1.41677 0.000631966 -0.164683 -0.0613275 -0.160209 0.812429 0.10183 -0.357963 0.288657 -0.174763 0.997602 0.386383 0.934289 -0.70399 -0.576241 -0.322542 0.305932 -0.602112 0.407396 -0.454329 -0.127779 0.015238 0.178807 -0.921167 0.137156 0.492401 0.545973 1.09089 0.74391 0.774827 -0.000109663 0.731195 0.27855 0.187663 0.648933 -0.752318 0.0177142 -0.0365825 -0.54843 0.750386 0.114354 0.522777 0.399925 -0.414374 0.243998 -0.695464 -0.965131 -0.185339 0.573762 -0.690323 0.365616 -0.388352 -0.38957 0.628691 1.15821 1.21262 0.343416 0.388709 0.734954 -0.0731293 -0.997377 0.321688 0.519928 -0.921403 0.224288 -0.621101 0.283972 -0.0986732 0.210968 0.426639 -1.04748 -0.3311 0.720964 0.281664 -0.0987437 -0.414289 0.537915 0.56547 0.215174 0.0954829 -0.107047 0.571417 1.03794 1.03039 0.974902 0.658097 0.168089 0.584047 0.0461669 -0.683988 -0.545934 0.0426413 -0.552405 0.747908 -0.941842 0.144807 -0.927557 -0.0318849 -1.32226 -1.1274 -0.0191437 0.0117026 0.853167 -0.655812 0.986946 -0.895341 -0.152259 0.905347 0.297476 -0.681954 1.19585 1.06915 1.20401 0.187673 -0.47956 -1.1956 -0.118901 0.0260502 -0.364166 0.593042 0.224842 0.592715 1.12735 -0.152193 0.537766 -0.497504 -1.24809 0.202486 -0.458968 0.0140717 -0.0687472 0.550524 -0.152015 -0.820513 -0.654949 0.289061 -0.339421 0.69527 0.415887 0.466401 -0.465675 -0.730668 -0.997464 -0.996507 -1.03682 0.43851 -0.143096 1.11344 0.573571 -0.317085 0.845734 -0.154344 0.782597 -0.104718 0.322398 -0.988595 -0.685558 0.925073 0.16264 -0.970447 0.357103 -0.0286184 -0.519959 -0.197735 0.630128 0.583951 -0.326906 0.457367 -0.0538333 -0.921203 -0.476458 0.206117 -0.724956 -1.22065 0.199037 -0.506826 1.36546 0.989793 0.0230482 0.0680601 0.94949 0.799007 0.785219 -0.702776 -1.02818 -0.106652 -0.462728 0.363689 -0.385235 -0.349686 0.41161 0.214202 0.541539 1.05367 0.813392 0.393808 -0.857018 0.0123288 0.105517 -0.322437 -0.604704 -0.189681 -0.548723 0.964871 1.08824 -0.0769285 0.605929 0.508935 1.04812 -0.352052 0.541877 0.658221 0.748934 0.276544 -0.43348 0.478011 -0.418135 0.114842 0.0542534 -0.174336 -0.73787 -0.478215 0.403623 -0.195577 0.272966 0.725644 -0.769321 0.518007 -1.04377 -1.24018 -0.830694 -0.555503 0.775409 0.232503 0.750301 1.04453 0.194426 0.396465 -0.183806 0.00802824 0.222578 -0.390787 -0.1975 -0.397867 -0.0567214 0.166807 -0.620854 0.504642 -0.413742 0.174115 0.973068 -0.00353116 -0.295002 -1.18137 -0.213136 -0.940115 -0.119426 -0.836223 0.0542546 -0.501018 0.468529 0.812509 0.778746 1.09564 -0.606858 0.469112 0.00371136 0.412223 0.120333 -0.167908 -0.421966 0.806381 -0.73325 -0.190338 0.338711 -0.349725 0.557919 -0.585254 0.780813 1.18543 0.112845 -0.578621 -1.04133 -0.101979 0.461224 0.8398 -0.643478 -0.0386201 1.00117 0.970472 1.14881 1.22777 1.17555 0.675362 -0.73661 0.187705 -0.413368 0.764294 0.849188 -0.724583 -0.0971723 -0.735752 -0.59301 -0.758338 0.95144 -0.00627211 1.01961 0.799269 0.309342 0.778097 0.758498 -0.0264431 -0.535108 0.709088 -0.331301 0.0405463 -0.226248 0.307684 0.402559 1.01647 -0.0993959 0.275436 -0.126531 0.418534 0.850074 -0.0512379 -0.999092 -0.458358 -0.953136 -0.467981 0.817918 -0.0120351 -0.802675 0.794515 -0.244176 0.181219 1.27118 1.7861 1.23966 1.08506 0.0862468 -0.0444696 -0.130902 0.336018 0.713477 -0.46676 -0.210779 1.43786 1.3082 0.480616 0.113831 -0.699483 -0.565195 0.0552073 -0.300402 0.837519 -0.550128 0.0601797 0.248848 0.156643 0.472139 -0.822782 -0.913934 0.593389 0.121663 0.512587 1.15228 0.995312 0.888839 -0.124439 0.351014 -0.190486 0.679143 -0.359424 0.90613 0.286513 -0.595884 -0.557049 0.586611 -0.845763 -0.821217 -0.818213 0.534819 -0.23484 0.13425 0.279417 0.861705 -1.07501 -0.886251 -0.44911 0.101446 -0.0850504 0.0866405 0.958511 0.715658 -0.342646 -1.14854 -0.660293 0.858731 0.364855 0.590174 -0.131111 0.217774 0.34968 0.1992 -0.00700189 -0.702314 0.0022585 0.899423 0.926543 -0.425526 0.471847 0.630239 0.67172 0.852534 -0.794054 -0.232409 -0.779941 -0.235566 -0.926064 0.0331237 -0.112252 0.842719 -0.5855 0.189016 -0.382567 -0.0983235 0.553617 0.30433 0.714845 0.581002 0.606312 -0.271236 1.06512 0.937135 -0.562782 -0.202076 -0.102989 -0.353643 -0.48469 -0.873478 0.0949349 0.443246 0.864663 1.03989 0.676726 0.101833 1.07988 0.473656 0.310371 0.465319 -0.422065 0.854912 -0.628104 -1.00106 0.607651 0.734762 -0.324901 -0.368951 -0.0179093 0.182801 0.355943 -0.893208 -0.311237 0.103614 -0.714699 0.345622 -0.390876 -0.0143823 0.951421 0.989312 -0.524902 -0.824098 -0.234317 -0.175738 -0.424071 0.678877 0.183274 0.613115 -0.828009 0.926808 0.623015 0.842709 0.546192 0.174909 0.258064 0.0714895 -0.666916 0.841199 0.675021 -0.465698 0.832402 0.598211 0.232847 0.679556 -0.56621 -0.940428 -0.996095 0.246208 -0.282173 -0.191994 0.418273 0.652996 -0.105876 0.320621 0.308891 -0.307331 -1.13251 0.49622 0.533105 -0.194088 0.136036 0.138571 0.297816 0.429706 -0.345114 -0.309019 0.620482 -0.0908227 0.929697 -0.733788 -0.331467 0.295816 -0.298196 0.244911 -0.539604 0.900028 -0.461356 -0.436029 -0.490972 -0.664852 0.628819 -0.358868 0.727441 0.140295 -0.0795688 0.553311 0.156302 -0.177641 0.234208 0.0945085 -0.687575 -0.776116 0.597524 -0.901634 -0.89458 0.720449 -0.911063 0.524935 0.322022 0.23014 0.664418 -0.287454 0.033723 0.118088 -0.587964 0.0178791 0.915329 -1.00961 0.087099 0.702056 0.635743 0.367509 -0.23827 0.33461 -0.446211 0.83623 -0.87705 0.227306 0.667681 -0.496126 -0.0973122 -0.814897 -0.25409 -0.0889589 0.934421 -0.509976 -0.439902 -0.888852 -0.7528 -0.748527 0.660634 -0.810346 -0.745905 -0.764385 -0.0114821 0.175021 0.529 0.284912 -0.32167 0.282224 0.405749 0.422576 0.327177 0.245239 -0.0566218 0.559152 -0.980522 -0.758589 0.775656 -0.00407724 0.599541 -0.388258 0.667348 0.809503 0.774224 -0.240089 -0.998291 -0.837092 0.569262 -0.968627 -0.450117 -0.565109 0.991198 -0.921585 0.341522 -0.434073 -0.830778 0.697815 -0.542401 0.965154 0.858538 -0.426119 -0.0804177 -0.910221 -0.913181 -0.321391 0.0889987 -0.400471 -0.283589 -0.534959 0.695791 0.363567 -0.0135807 0.121128 -0.938475 0.142918 0.381329 0.647511 -0.381451 0.254982 0.121616 0.919492 -0.844234 0.0875576 0.779534 0.0145574 0.0591754 0.628468 -0.045259 0.442854 -0.130833 -0.957884 -0.204566 -0.164708 0.467879 0.359539 0.178991 0.650502 -0.793207 -0.656972 -0.634388 -0.535813 -0.710685 0.590808 -0.0628986 0.403241 -0.281045 -0.0591149 0.83312 0.286146 0.126325 -0.764814 -0.699379 0.0591023 0.787247 -0.465452 -0.433474 -0.0577808 -0.847891 0.754956 -0.00524142 -0.809144 -0.801814 0.951468 -0.275691 -0.376935 0.788385 -0.872372 0.341838 -0.208777 -0.196997 0.780633 -0.469588 -0.9317 -0.412332 0.145558 0.583342 0.548041 0.804096 0.339011 0.526114 0.262213 0.445996 0.92886 0.264658 0.44047 0.710242 -0.617635 0.910504 0.603009 0.939885 0.552834 -0.0507947 -0.578669 0.313697 0.40228 0.00527966 -0.610767 0.0683309 0.333781 -0.758476 0.568902 -0.0549845 0.212609 -0.158431 -0.110569 -0.828288 0.771756 -0.957149 -0.563806 -0.206987 0.231355 -0.728268 -0.752393 0.571657 0.271572 0.382356 -0.705458 1.04453 0.922338 0.704179 -0.555914 -0.746001 0.95715 -0.519972 0.465133 -0.254738 0.429608 0.0550859 -0.616337 0.0459592 -0.791765 -0.425927 -0.793047 -0.939577 -1.08077 -0.419291 -0.975296 -0.297957 0.0758094 -0.756944 -1.11549 0.530332 -0.673338 0.881245 0.291667 1.36383 1.51921 -0.222072 -0.195682 0.652733 -0.407297 -0.0518961 -0.19942 0.475753 -0.808283 -0.549594 0.519747 -0.458581 -0.699539 -0.826027 -0.582885 -1.34367 -1.1189 -1.28943 -1.58664 0.0586637 -0.266369 -1.00976 0.470266 -1.18895 -0.122404 -0.419023 -0.0442565 -0.0882902 1.28217 0.886298 0.439969 -0.176673 0.588098 -0.949019 0.35808 0.800775 -0.311869 -0.848688 -0.986617 -0.337329 0.666733 -0.658344 0.133098 -1.15972 0.259548 -1.14693 -0.519826 -0.888694 -0.426182 -1.5048 -0.974105 -0.561145 -0.89489 0.593994 0.0746875 0.649326 0.466333 0.326591 1.17312 1.10866 0.108773 -0.623491 0.80943 -0.606982 0.967753 -0.280925 0.88777 0.052572 -0.348228 -0.517945 -0.355389 0.0938508 -0.672911 -1.29629 -0.139347 -0.261575 -0.62167 -0.39374 -0.166603 0.0491249 -0.767626 0.571026 0.416905 0.750759 0.252374 -0.624913 0.145139 -0.21073 0.911231 -0.86009 0.786271 0.79449 -0.332519 -0.280098 0.517315 0.82295 0.524837 0.53889 -0.658779 0.822237 0.662001 0.239513 -0.601211 0.513134 0.197072 -0.49153 -0.0526458 -0.92459 0.633226 -0.0644839 -0.0481732 -0.0801902 0.188988 -0.292832 -0.57639 -0.345064 -0.559284 0.477646 -0.841877 0.844478 0.346181 0.0403057 0.295077 0.83922 -0.321065 0.635962 0.183899 0.230287 1.15223 1.1834 0.63428 0.563406 1.28714 -0.0631809 -0.107803 -1.20341 -0.29188 -0.422012 -0.497111 -0.151121 -1.03871 0.386885 -0.262435 -1.11478 0.897585 -0.247186 0.699593 -0.0128483 0.430115 -0.866897 -0.528418 0.679579 0.117281 0.659676 -0.0445894 1.07563 0.493482 0.933712 0.985853 1.47388 -0.0396514 -0.0152266 0.571854 -0.498288 -0.976524 -0.335364 -0.293441 -1.65635 -1.29116 -1.33993 -0.92969 -1.07567 -0.384498 0.676753 0.560286 -0.354514 -0.215585 -0.0549615 0.561074 0.063439 0.248626 1.45765 0.103507 1.57751 1.08437 0.710176 0.342992 -0.0682089 0.64658 1.22901 0.205468 0.138788 -0.50338 -1.59909 -1.67656 -1.06767 -1.08448 -1.32793 0.125436 -0.0098005 -0.0622571 -0.318866 0.371131 -0.15132 0.625523 0.0414366 -0.536389 0.858131 0.120472 0.977388 -0.0159241 1.33747 0.135862 0.128993 0.552752 0.996796 -0.563414 0.879676 1.41094 0.742972 -0.0937703 -0.393425 -0.0827278 0.207493 0.23341 -0.787941 -0.105387 -0.898421 -0.526684 -0.373553 0.76599 -0.698721 0.00656012 -0.279929 -0.21309 1.09509 -0.0407693 1.07435 0.464749 1.36528 1.25803 0.381164 -0.907808 -0.508325 0.483344 0.94777 -0.195589 -0.373641 0.831336 1.08381 -0.482807 -0.565589 -0.529665 0.168322 -0.487598 -0.68107 -0.940639 -0.00290401 0.408201 0.081576 0.50899 -0.21107 0.531134 0.902344 -0.932384 0.83997 0.899917 -0.607979 -0.119829 0.323823 -0.0742971 0.682497 -1.21644 0.411678 0.0689416 1.05791 -0.428247 -0.137997 -0.0298223 0.561333 0.471233 -0.535788 0.00370654 -0.320063 -0.875614 0.180608 0.396842 0.15537 -0.559496 -0.290346 0.16776 -0.623433 0.260463 -0.0491067 -0.224345 0.642269 -0.679497 0.752474 0.487277 0.666861 0.919959 0.220855 1.1559 0.373303 1.55075 0.577799 0.733681 -0.988924 -0.873537 -0.00466246 -1.00819 -0.973078 -0.507413 -0.867767 0.0126986 -0.105319 0.0314021 -0.249246 0.898371 -0.768286 -0.446986 -0.801197 -0.759152 0.348797 -0.940942 1.00686 0.0652662 0.564737 0.958055 0.30544 -0.539538 0.773207 0.804145 -0.666077 0.222701 -0.580977 0.166427 -0.743507 0.0588364 -0.175388 -0.955337 -0.937687 0.7385 -0.2125 -0.944521 -0.125027 -0.894484 0.343284 -0.917134 -0.345785 0.246207 -0.0288728 0.211036 0.418058 1.4306 0.000215115 1.28556 1.23369 0.220283 -0.137987 0.426428 0.180593 0.285937 0.404905 -1.19901 -0.598231 0.219387 -0.806439 -0.909581 -0.486499 0.46426 -0.473799 0.313406 -0.977846 -0.18913 -0.752309 -1.24925 -0.133096 -1.3877 -0.574006 0.194416 -0.704865 0.439598 0.993146 -0.516511 0.255699 -0.126855 -1.31553 -0.149043 -0.118508 -0.604522 0.296404 0.330622 0.305735 -0.848078 -0.578853 -0.788674 -0.107766 0.864032 -0.337321 0.418062 -0.430011 0.178253 -0.591896 -0.98578 -0.293811 -1.10734 -1.09716 -0.624609 -1.03752 0.0716856 -1.09049 0.200837 -0.506079 0.527921 -1.05218 -0.115987 0.717115 0.309741 0.15821 0.15416 0.10734 -1.17563 0.162452 -0.110016 0.826764 -0.155274 0.017365 0.317445 0.443607 -0.693128 0.118673 -0.641192 0.454097 -1.09595 -0.651111 -0.17318 -0.894148 0.0955112 -0.520366 -0.351154 -0.503429 -0.171351 -0.0256843 0.0448382 0.387399 0.366354 -0.548221 -0.568776 0.11737 0.202813 -0.221614 -0.767248 0.27255 0.000764946 0.0292671 0.994292 -0.170373 0.364648 -0.510967 0.477325 -0.72475 -0.779326 -0.748771 -1.09658 0.15991 -0.147063 0.165744 0.111244 -0.413595 -0.108734 -0.289614 -0.124356 -1.48378 -0.918122 0.121693 -0.232043 -0.0467426 -0.140682 -0.606176 0.236869 -0.958763 -0.950011 -0.764275 0.776967 0.884856 0.188517 0.442092 -0.233534 0.191717 -0.466035 -0.0589664 1.06955 -0.233825 0.181866 -1.06746 0.0303361 -0.513033 0.0480735 -0.133746 0.635906 0.405541 0.941158 -0.771525 0.966036 -0.799113 -0.0720398 -0.792039 0.252382 -0.765425 -0.854549 -0.932493 0.704093 -0.512803 -0.871225 -0.704291 0.637086 -0.744392 0.132689 -0.854868 -0.873063 0.620848 0.90438 -0.717291 -0.765919 0.646223 0.419348 0.177297 -0.32774 -0.189988 -0.415936 1.07387 0.468384 -0.577682 1.04738 0.679584 0.295154 0.377198 -0.973327 0.1489 -0.62505 -0.533544 0.0685047 -0.472918 0.262909 0.370361 0.17912 -0.0820702 -0.681455 0.289977 0.0954656 -0.573331 0.383058 -0.962734 -0.153957 -0.0235413 0.297338 0.700816 0.184847 0.948653 -0.805564 -0.597385 0.329359 -0.420892 -0.965711 -0.892154 -0.0604572 0.288064 -0.273232 -0.0883985 0.973006 0.538053 -0.124291 0.533231 0.639591 0.156213 -0.158591 1.0693 0.622594 0.748153 0.894814 -0.68568 1.05469 -0.0283899 0.644206 -0.0406899 -0.466713 0.447547 -0.183814 0.199549 0.349556 0.588595 0.136569 0.859305 -0.737175 -0.652516 -0.824824 0.543504 -0.405376 0.850885 -0.725446 0.276586 0.99131 -0.600509 -0.687475 -0.0681896 0.29155 0.311272 0.571741 -0.10077 -0.131532 -0.80253 0.501018 -0.0610961 0.547592 0.77411 0.476649 -0.478523 -0.84331 -0.679067 0.371504 -0.652882 0.779717 0.180151 -0.444685 -0.31254 0.556078 -0.959129 0.657986 0.56912 -0.348654 -0.269626 -0.715974 0.910385 -0.986673 -0.866052 0.529282 -0.666431 0.398273 0.462301 0.269904 0.201272 -0.934417 -0.686466 0.574948 0.185673 -0.0569284 -0.41496 0.867 0.540635 -0.469283 -0.180761 0.301126 0.441084 -0.619434 -0.864559 -0.803766 0.89996 -0.455977 -0.892941 0.649831 0.172582 -0.388592 0.894446 0.393928 0.445293 -0.103916 -0.0616779 -0.0612506 0.621509 0.325053 -0.452193 -0.887387 -0.981262 -0.400555 -0.341533 0.983337 0.787408 0.186926 0.110385 -0.699088 -0.1348 -0.291238 0.736198 -0.521397 0.273156 0.26972 -0.435294 -0.819719 0.599705 0.384513 -0.439915 -0.363574 0.416912 0.815978 0.846826 -0.448247 0.478554 -0.75131 -0.563064 -0.948603 -0.414558 -0.945496 0.89526 -0.76043 -0.213111 0.879452 -0.0283517 0.865658 0.830805 0.516526 -0.851784 -0.111812 -0.35023 -0.300819 0.478317 -0.900853 -0.340115 -0.652095 0.133623 -0.0893769 -0.0534984 0.067081 -0.0340963 -0.604483 0.363704 0.411377 0.70155 0.0674264 -0.27945 -0.506785 0.838717 0.727591 0.0989715 -0.57622 0.47087 -0.751946 -0.788996 -0.711305 -0.396892 0.670066 -0.537226 -0.0363576 -0.00169898 -1.03836 -0.990354 0.284079 -1.02594 -0.316294 -0.310273 0.536862 0.274911 0.290934 -0.736093 0.482909 -0.47449 -0.894862 -0.619633 -0.677989 0.022513 -0.54873 -0.125034 -0.123325 0.906125 -0.849239 0.108615 0.0874155 0.810287 0.0481213 -0.925731 0.0144059 -0.616303 -0.0550001 -0.296071 -0.562669 0.844875 -0.326604 0.76669 -0.403771 0.347683 -0.445954 -0.598062 -0.479082 -0.297257 -0.776672 -0.298809 -0.0796245 0.717186 -0.976604 0.494029 0.361483 -0.922056 -0.341044 -0.194491 0.449734 -0.00396491 -0.150161 -0.337705 -0.569595 0.754725 0.547512 0.102498 -0.822186 0.156379 0.664194 -0.240036 -0.0495834 -0.136156 0.513571 -0.505238 -0.969874 0.349143 0.492236 -1.05144 0.660336 0.291669 0.140007 -0.238615 0.101351 -0.0591754 -0.962525 -0.877362 0.0619201 0.609593 0.921218 -0.625395 -0.0583084 -0.346851 -0.785723 0.785128 -0.13597 0.564702 -0.639949 0.558397 -0.752755 -0.839425 -0.37704 -0.882265 0.282987 -0.677048 0.542159 -0.576179 0.438936 -1.03749 0.484064 0.729178 0.594634 -0.179232 0.829665 0.883344 -0.830209 -0.929793 0.105743 0.456466 0.600015 -0.430139 -0.527001 -0.61367 0.229681 0.197545 0.491984 -0.364906 -0.416222 0.00521256 0.728071 0.339103 -0.0694101 -1.58628 -0.492294 -1.32284 -0.970644 -1.14758 0.806843 -0.541243 0.874758 0.386436 0.688306 -0.859422 -0.574395 -0.784911 -0.860945 -0.727317 -0.0614459 -0.642519 0.416834 -0.0128748 0.299761 0.40664 0.555437 -0.0526939 -0.195432 0.0203992 -0.0137577 -0.113093 -0.048611 -0.512272 -0.114427 -1.14251 0.109943 -0.343604 -0.197557 0.0749737 -0.207556 -0.442021 0.383614 0.8794 -0.199112 -0.345475 0.152165 -0.447577 0.0421042 0.557445 -0.966753 0.574297 0.418977 -0.119826 0.117415 -0.404421 0.0418443 0.513114 -0.414436 0.146803 0.110161 -0.651398 0.340253 -1.43522 -1.02005 -1.01639 -0.743838 0.813864 -0.709512 -0.43962 0.454921 0.0312547 -0.473697 -0.390305 -0.542859 -0.268214 -0.324573 0.410011 -0.779983 -0.572726 0.0334357 -0.096481 0.53687 -0.190858 -0.310577 -0.505503 0.109576 0.205302 0.803287 0.726913 0.973961 0.418658 -1.52918 -1.08367 -1.22203 0.483372 -0.583434 -0.730683 -0.138482 -0.0872083 0.584089 -0.678767 0.38166 0.524824 0.744421 1.18741 1.08675 0.865181 1.30619 0.487223 -0.361433 -0.867437 -0.282751 -0.122911 1.24667 0.610555 -0.274292 0.0391618 0.594337 0.788511 -0.1788 -0.822487 -0.97229 -0.202772 -0.584454 -0.922048 0.123374 0.815979 0.753387 0.745309 -0.140382 -0.181807 -0.166132 0.0501117 -0.0587494 1.36533 1.21537 -0.386642 -1.09262 -0.329947 -0.0298017 0.99276 1.10365 0.735101 0.596106 0.0180303 0.789318 -0.427887 0.390405 -0.556839 0.19109 -0.714431 -0.594615 -0.548387 0.467989 0.18259 -0.920714 -0.330435 0.638875 0.621641 1.23304 0.211388 -0.256173 0.825249 0.241488 0.239437 -1.41704 -0.480692 -0.316833 1.00907 1.05021 0.35755 1.46034 0.707477 1.20772 0.928866 0.576767 -0.833804 0.116017 -0.312105 0.792734 -0.641066 -0.756754 0.220374 0.331304 0.923223 0.848624 -0.933284 0.92619 0.750803 0.966893 0.42474 1.43375 -0.225234 -0.950997 -0.553457 0.282437 0.696026 0.673075 1.12043 0.136553 1.53937 -0.0178174 1.10113 0.703792 0.443267 -0.92401 -0.213496 0.421728 -0.23151 0.181651 0.796331 0.585304 -0.430815 -0.586658 -0.728843 0.0955918 -0.184171 -0.438941 1.1344 -0.520376 -1.49395 -1.66156 -1.02092 -0.737149 0.834963 0.282747 0.514053 0.0395334 1.03259 -0.176118 -0.925967 0.523877 0.881211 0.8351 -0.580339 0.168542 0.406569 0.89117 -0.235003 -0.659823 0.615713 0.63346 0.503012 0.626423 1.34402 0.737417 0.634465 0.0379734 -0.905053 -0.863091 0.2745 0.211033 1.15589 0.416433 1.15184 -0.640107 -0.768678 0.259083 0.346943 0.556066 0.0989737 -0.416585 -0.4696 -0.791947 0.94702 0.0275128 -0.848739 -0.298049 -1.16336 0.183998 0.0411863 0.830308 0.600345 0.801867 0.0246662 -1.21479 -0.872566 -0.0425631 -0.379081 0.189842 0.606219 0.441445 0.145405 0.671214 -0.170809 -1.03344 -1.01038 -0.21793 0.43075 -0.579107 0.20196 0.551082 0.835385 0.566698 -0.966812 -0.737674 -0.544227 -0.302898 -1.0733 0.902074 0.868123 -0.839418 0.272189 -1.04299 -0.627896 -0.599589 -0.487726 0.600796 -0.534476 0.927124 0.946213 -0.504536 0.370481 -1.03249 -1.31897 -1.01341 -0.571165 -0.903592 0.397731 -0.821345 0.92877 -0.356237 -0.146213 -0.130245 -0.494555 -0.54972 -0.428449 -0.628222 -0.141144 -0.117687 -1.47091 -1.05733 -1.52139 -0.111242 -0.316427 -0.318833 0.0557736 -0.193712 0.53213 0.0897508 -0.744934 -0.653573 -0.412856 -0.110015 -0.0488107 0.594251 -0.397551 -0.643338 -0.861385 0.370556 0.825629 -0.242768 0.260926 -0.0483014 -0.0240493 -0.419727 -1.11413 -0.492491 -1.2095 -0.495591 0.316207 0.49531 -0.270839 -0.554181 -0.442766 -0.679564 -1.24863 -1.32423 -0.639559 -0.252313 -0.83458 -1.0088 -0.463331 -0.873973 -0.397921 0.292886 -0.73394 0.0842201 0.718856 -0.726952 0.0905698 0.288843 -0.777675 0.0878713 -0.0876841 -0.00605127 -1.50112 -0.986796 0.925985 -0.441538 -0.278326 -0.415258 -0.6122 -0.429082 0.239216 -1.1721 -1.0835 0.190982 -1.26444 -1.06944 -0.548947 1.00087 0.740151 -0.0228584 -0.785211 0.449139 -0.632793 -0.759919 0.530003 -0.0202547 -0.785255 -0.0726059 -0.67447 -0.675452 -0.596093 -0.131571 -0.306023 0.977372 -0.651451 -0.619709 -0.433056 -0.0527817 0.251957 0.139579 0.662315 0.59539 -0.803571 0.497015 0.801844 0.677878 0.522442 0.173009 -0.22837 -0.12711 0.229157 0.0372305 0.155537 -0.835843 -0.492735 -1.16646 -0.438445 0.187212 -0.665661 -0.180882 0.0681226 -0.555619 -0.832228 0.328727 -1.20198 -1.1514 -0.0844244 -0.540295 -0.832846 0.188345 0.300979 -0.149663 0.843146 -0.485616 -0.797393 0.489303 0.140233 -0.345622 -0.291624 0.711681 0.205716 -0.705563 -0.54107 -0.598613 -0.566612 0.160644 -1.01994 -1.08826 -1.25755 -0.0401242 -1.15528 -0.407696 0.205583 -0.350145 0.47833 -0.883814 1.06476 0.524073 -0.503464 0.891461 0.423051 -0.473026 -0.044286 0.471908 -0.583605 0.305826 -0.138042 -0.660596 -0.997058 -0.90987 0.672317 0.632672 0.372242 -0.122691 -0.882839 0.210754 0.631948 -0.405783 -0.30017 -0.0872346 -0.158166 -0.0249465 -0.400794 -0.382714 -0.0547814 1.14325 0.336265 0.748231 0.477158 0.880565 0.472819 -0.347758 0.192663 -0.509507 0.37376 -0.208601 -0.839762 -0.15395 -0.21023 0.269392 0.766316 -0.292394 -0.217794 0.683892 -0.303944 1.21281 0.79806 0.713157 -0.147358 0.642496 -0.0728739 0.854711 -0.612495 0.986519 0.933333 0.878766 -0.502548 0.209756 -0.442732 0.49028 -0.521653 0.0110172 0.347148 -0.738029 0.571273 0.0118443 -0.0111705 0.927883 -0.798012 -0.908081 0.400764 0.989115 -0.0643164 -0.575535 0.869936 -0.04442 0.05735 -0.474817 0.396393 0.382454 0.439385 -0.0772079 0.331582 -0.0467489 -0.836299 0.443831 -0.550279 0.149937 -0.87524 -0.71453 -0.386761 -0.996155 0.299234 -0.755119 -0.787469 -0.00363171 -0.717154 0.414472 -0.669423 0.797296 -0.683002 -0.619698 0.447249 0.401776 -0.910642 -0.128025 0.491012 0.224586 -0.221656 -0.725578 0.0513016 -0.286843 0.386212 -0.516343 -0.43675 0.0436109 0.940733 0.749687 0.277749 0.460372 -0.283119 -0.77923 -0.171813 0.821833 -0.13542 0.37748 0.214532 0.92609 -0.370463 -0.645277 0.99482 0.138387 -0.241061 0.267516 -0.493066 -0.0186306 0.135838 -0.267985 0.990169 -0.974186 0.890561 0.171484 0.315958 -0.916318 0.687551 0.622486 0.17539 -0.346531 -0.821279 0.613802 -0.393563 -0.263115 0.00353582 0.392036 -0.447652 0.242223 -0.474896 -0.55947 -0.402621 -0.0146827 0.391683 0.659585 -0.438411 -0.472896 -0.546833 -0.261489 0.312981 0.057573 0.562657 -1.01503 0.749016 -0.420698 0.140416 0.471786 0.921445 -0.220713 -0.029582 -0.054341 0.85144 -0.769103 -0.991744 -0.962343 0.488956 0.465805 -0.153134 0.148602 0.310931 -0.428119 -0.537225 0.849197 0.509076 -0.135731 0.156721 -0.158034 -0.0317839 -0.651647 -0.196977 -0.00647139 0.622801 -0.285806 -0.596484 -0.980773 0.248451 0.948127 0.844367 0.776701 0.680131 -0.0279733 0.465098 -0.816942 -0.0145972 -1.35901 -0.241233 -0.681231 -0.416886 0.726886 -0.0327644 0.160995 -0.649423 0.568017 0.413543 -0.259423 -0.490307 -0.111217 0.719233 -0.725809 0.644154 -0.451955 0.666738 -0.379437 -0.684704 -0.990865 -0.695005 0.521437 0.072081 0.056699 0.799136 -0.335284 -0.845868 0.126738 -0.443301 -0.200187 -0.769953 -1.00715 0.472895 -0.332377 0.24202 1.06076 -0.397981 0.877954 1.04107 -0.701647 -0.889679 0.417515 -0.387552 0.459049 -0.409284 0.858516 0.677668 0.392356 0.804794 -0.463331 0.321115 0.555966 0.169252 -0.957198 0.460279 -0.724573 0.487785 -1.2541 -0.113649 0.640862 -0.796375 0.658823 -0.947092 -0.0508103 0.37534 0.271156 1.05339 -0.364445 0.670646 0.710461 -0.0261111 -0.997932 -0.490646 0.687657 -0.396471 0.885602 0.0848638 -0.122307 0.852493 -0.64018 -0.986806 0.444403 0.108274 -0.178742 0.0880134 0.42663 0.875529 -0.137477 -0.773013 -0.176308 0.783715 0.519391 0.714894 -0.5819 0.0465792 -0.108202 0.819902 0.120035 0.794999 -0.892281 0.635426 -0.433451 0.430166 -0.643026 -0.0599962 0.117359 0.784677 0.779584 0.629102 0.535664 -0.194352 0.228233 -0.966222 0.61729 0.0137549 0.176079 0.74036 -0.507361 -0.419761 -0.132692 0.546988 0.135902 0.254908 -0.883888 0.573005 0.394135 -0.590651 -0.501177 -0.542589 -0.982749 0.620966 0.25358 -0.686908 -0.661292 -0.057448 -0.592221 -0.810291 0.613225 -0.172373 -0.718261 -0.454997 -0.540805 -0.0175799 -0.72351 -0.0978526 -0.293969 0.035939 0.338652 0.67363 -0.640672 0.87508 -0.000512384 -0.615351 -0.630071 0.857419 0.370176 0.516159 -0.95537 0.282385 -0.030353 0.332277 -0.47611 -0.0142132 0.70051 0.58229 -0.213794 0.581525 0.473363 0.745677 1.21894 1.1444 0.288498 0.999835 1.17915 0.764031 0.409678 -0.48631 -0.822215 0.307156 0.890183 -0.903079 -0.707615 0.481093 0.183684 -0.252845 0.860574 -0.277893 0.710307 -0.375218 0.881312 -0.0698025 0.603827 0.890408 -0.595809 0.0337275 1.04168 -0.149861 0.649672 0.729755 1.27979 0.45873 1.13017 -0.00131552 0.883787 -0.775504 -0.453775 -0.0634155 0.908481 0.944589 -0.134207 0.618833 0.558841 -0.423078 0.345802 0.824216 -0.729752 0.604053 -0.706342 -0.406647 0.50232 1.47954 1.43578 1.46699 0.187581 0.593714 0.265226 0.160544 -0.0307855 0.639887 -0.285114 0.794509 -0.357809 0.244386 -0.34459 0.799295 -0.479158 0.431016 -0.518361 0.832606 0.169441 0.960997 0.683538 0.889839 0.213132 -0.709202 0.426472 1.51811 1.34685 -0.171746 1.13425 0.409933 0.983413 -0.176622 0.406597 -0.213635 0.861606 0.420022 0.263089 0.305594 -0.458453 -0.0583339 -0.0758677 -0.306038 -0.501671 0.491083 0.786292 0.510863 -0.393758 0.55052 -0.392231 0.637248 0.586778 -0.216734 0.723542 0.836303 0.451702 1.01768 -0.260084 -0.109195 0.36833 -0.996761 0.130469 -0.256734 0.487532 0.989723 -0.800258 0.00011351 -0.49898 0.166668 0.97558 -0.793314 -0.70052 0.404049 0.466301 -0.387505 0.16049 0.175633 -0.286994 -0.949778 0.120254 -0.499014 0.350706 0.769504 0.622392 0.00217488 0.345841 -0.367588 0.119075 -0.449381 -0.355866 -0.954576 -0.833999 -0.195584 -0.293905 0.334722 -0.946192 -0.624859 -0.376834 0.0850473 1.12984 -0.253746 -0.673289 0.0601816 0.341176 0.83227 -0.764486 0.746557 -0.0444071 -0.610216 0.202355 -0.783954 0.574357 -1.29741 0.499283 -0.105351 0.405879 -0.0560562 0.814775 0.561029 -0.285442 -1.28652 -0.487329 -0.834247 0.132103 0.178805 0.676184 -0.616041 0.0533769 0.440604 0.0696716 -0.627179 -0.689175 0.360698 -0.245772 0.613668 -0.446233 0.382128 -0.370314 -0.867544 0.883653 -1.18449 -0.36315 -1.16025 -0.321484 0.169418 -1.06563 -1.52519 -0.317852 -1.49527 -1.40637 -0.793294 -0.887846 0.359358 -0.748162 -0.404408 -0.129741 -0.988877 0.353324 -0.22746 0.894671 -0.997009 0.307967 -0.625549 0.55366 0.570873 -0.484175 -0.0551568 -0.0783114 -0.756408 -0.708889 0.485709 0.364668 0.4124 -0.167596 -1.09834 -0.0281868 -0.474845 0.534155 0.607853 1.02851 -0.757384 -0.419876 -0.876611 -0.0981111 -1.07184 -0.152773 -0.261889 -0.663859 0.0269479 0.234402 0.520373 0.60091 -0.676047 0.89882 -0.490803 0.133113 -1.03284 -1.10501 -0.400479 -0.29872 0.273447 0.0843001 0.0101174 0.44105 0.119673 -0.0831646 -0.455387 -0.423303 0.415666 -0.516568 0.00198128 0.312773 0.110734 -1.0584 -0.822109 0.540722 -0.396832 0.305832 0.902887 0.730509 -0.444261 0.438361 -1.04011 0.0918137 -0.756743 -0.278845 -0.576506 0.232785 0.351774 -0.154363 0.307118 0.431464 -0.403326 1.33042 0.499697 0.464916 -0.619379 0.711527 -1.23125 0.370705 -1.01642 0.458762 -0.157357 -0.0894499 -0.875057 0.515628 -0.993881 -0.810107 -0.488338 0.624332 0.114719 0.0701486 -0.292864 0.632613 0.49177 0.804071 -0.222629 0.289689 1.42788 0.745678 0.423806 1.2223 0.78479 0.819327 0.497569 -0.483515 -1.24537 0.691429 -0.351264 -0.498281 -0.715889 0.611316 0.155614 -0.0128484 -1.00052 -0.331414 -0.402839 -1.17888 -0.958321 0.0841219 -0.675339 -0.0471998 -0.0845254 0.507535 -0.449384 1.32318 0.568208 0.778692 0.324699 0.924796 -0.239049 -0.788848 0.320155 0.643211 0.645554 -0.387167 -0.627618 0.812215 0.708027 -0.766289 -0.806696 -0.563341 -0.856321 -0.641905 0.00301905 -0.675605 -0.537231 -0.695093 -0.604722 0.448055 0.290094 1.11309 0.787252 0.0943311 0.980991 0.573671 0.184444 0.359137 -0.728032 -0.0746084 0.356334 -0.707405 -0.679263 0.00689375 0.906421 0.153327 0.885143 0.783196 0.439314 -0.394696 0.143659 0.116317 -0.459346 0.640519 -0.697761 0.595667 -0.149547 0.217547 -0.287271 -0.117089 1.02143 0.0582965 0.227146 0.860044 0.23308 0.800402 0.938863 0.678736 0.36454 -0.861419 -0.66626 -0.705467 0.249384 0.820236 -0.0709058 -0.0545366 -0.242592 0.138707 0.374123 0.0367376 -0.542393 0.716523 0.00139575 0.228019 -0.29802 -0.510622 0.774389 -0.293811 0.451776 -0.841362 0.0505891 -0.44936 -0.785046 0.438217 -0.331477 0.627187 -0.67962 -0.635903 -0.403928 0.0705702 -0.26242 0.126497 -0.255615 0.55681 0.0128483 0.319071 -0.651173 -0.500713 -0.913702 0.0595652 -0.203601 0.465256 -0.0630861 -0.0111077 0.857686 -0.292375 0.424147 0.225042 0.290974 0.239085 0.677402 -0.849353 -0.0533185 -0.267988 0.681649 0.0663589 -0.660398 -0.433897 -0.113926 -0.931128 0.733085 0.21897 0.977355 0.0999482 0.401227 -0.0969573 0.941585 -0.0888065 -0.409155 -0.760811 -0.148441 -0.50239 0.700619 -0.0865978 -0.973213 0.730303 -0.443437 -0.929557 0.129087 0.38524 -0.370046 -0.0250834 -0.585938 0.575548 0.927071 0.492774 0.502854 -0.306742 -0.521226 -0.00357068 -0.0122379 0.879757 0.109165 0.196142 -0.864071 0.134861 0.420026 0.507065 0.0541704 -0.918821 0.716788 -0.505051 -0.399196 0.475425 -0.270247 0.965888 -0.633045 -0.479843 0.931577 0.263466 -0.966796 -0.963988 -0.733818 -0.664479 -0.578845 -0.436445 -0.902158 0.132847 0.5468 0.450301 -0.802545 0.902219 0.991028 0.989868 -0.424239 0.936802 -0.101624 -0.326937 -0.0243394 0.345039 -0.0809369 0.620333 0.83969 0.402844 0.398846 -0.761342 0.552424 -0.97777 -0.87315 0.169268 -0.157505 -0.88348 0.0934172 -0.221656 0.926389 -0.275552 -0.948057 -0.440596 0.60155 0.679373 -0.859127 -0.25181 0.719131 0.120305 -0.11378 0.925686 -0.957641 -0.839806 -0.521639 0.396764 0.232306 0.16851 0.638101 0.596236 0.00671312 -0.20483 0.835203 0.305567 -0.0744999 0.440152 0.171469 -0.0204162 -0.751335 -0.711478 0.841426 0.523911 -0.62212 -0.662829 0.216996 -0.673963 -0.344775 -0.00148861 -0.775924 -0.577096 -0.572028 0.42774 -0.51063 -0.240771 0.632542 -0.497422 0.66668 0.423999 -0.614086 -0.664126 -0.287308 0.347385 0.786826 -0.210598 0.253492 0.785132 -0.253634 0.163121 -0.256691 -0.66935 0.150609 0.249432 -0.623968 -0.488526 0.50392 -0.714952 0.794445 1.50191 1.09387 0.353937 0.851898 -0.0650143 -0.11918 1.07498 -1.15841 0.616946 -0.367413 -0.163831 -1.2325 0.0947858 -0.581115 -0.821129 -0.887079 -0.931747 -0.639761 -0.325114 0.317057 -0.335978 0.780247 0.0947187 0.762748 0.126565 -0.288105 -0.578816 0.488852 -0.485468 -0.455132 -0.440148 1.16692 0.400753 -0.132093 -0.574631 -0.0491475 -0.854169 -0.231493 -0.194553 -1.03641 0.29123 -0.605514 -0.502742 0.200236 0.52059 0.2424 0.0235086 0.9729 0.29606 -0.0574118 0.895583 -0.638879 0.61917 -0.894846 0.843758 -0.424057 -0.575076 1.22513 0.12303 1.5984 1.30133 -0.0393457 0.318973 -0.308006 0.510251 -0.644576 0.114407 -0.540026 -0.858025 -0.181181 -1.33359 0.481208 -0.68519 -0.47203 -0.203938 -0.841928 0.278696 -0.703207 0.129869 -0.162569 -0.391571 -0.928984 0.0927498 -0.258388 -0.751209 -0.227505 0.48706 1.16978 0.503418 2.32703 0.728213 1.13598 0.205878 -0.248081 0.30579 -1.08453 -1.12037 -0.939883 -1.19909 -0.245355 0.000704149 -0.517842 0.0641018 0.797469 -0.636561 -0.0493539 0.295072 0.467458 0.646078 -0.887075 -0.394882 -0.940482 -0.713889 -0.673799 -0.0673263 0.943836 0.444234 0.787419 0.227569 0.575106 -0.122368 -0.579441 0.80394 0.702803 -1.19558 0.213602 -1.19583 -1.07483 -0.838057 -0.0348525 0.0211245 -0.823034 0.133182 -0.0538667 -0.692837 -0.669265 -0.261551 -0.9792 0.179454 -0.736583 -0.830643 -0.502226 0.0858104 0.0422894 0.445981 1.83393 0.111469 -0.388087 -0.98757 0.532333 -0.140656 0.230941 -1.03899 0.553394 -1.32609 -1.03542 -0.650767 -0.421254 0.0549485 -0.552057 -0.803934 0.254726 0.496761 0.814838 -0.672509 -0.614972 -0.273437 -0.105646 -1.14685 -1.03677 -1.34499 -0.905174 0.340547 -0.00998704 1.2206 -0.241336 1.07829 1.26624 0.529519 -0.263856 -0.619736 -0.327466 -1.15973 0.282534 -0.265836 -0.518176 -0.785985 -0.0389512 -0.0531095 0.301042 -0.128408 -0.0663455 0.807857 -0.686335 -0.890602 -0.475305 -1.18757 0.152279 -1.20539 -1.27661 0.37439 0.432303 0.818599 1.08747 0.73492 0.54612 1.43795 0.407893 -0.131446 -0.445787 0.423584 -0.0610731 -0.121222 0.32365 -0.965472 0.593349 0.358317 0.386733 -1.06085 0.537935 -1.01338 0.105581 -0.622684 -0.853699 -1.04537 -0.876552 -1.96124 -0.460832 -0.425679 1.46416 1.48528 0.715918 1.41976 0.637027 1.15723 0.208601 0.176735 -0.24071 0.283907 0.257776 -0.585587 0.170756 0.596476 -0.728507 0.131502 -0.0588727 0.862502 -0.0201135 -0.289422 -1.00175 0.453128 -0.334456 -1.39826 -1.26515 -1.79228 -0.0645555 0.76379 2.23019 1.03165 0.633864 0.278893 -0.0277853 0.576722 -0.220788 -1.19941 -0.184904 -0.255726 -0.667172 -0.903116 -0.0162215 0.815446 0.8716 0.767884 -0.914775 0.352923 -0.588009 -0.354146 0.00410592 -0.906128 -0.146383 -0.405923 -0.971563 -0.591453 -0.602951 -0.0539137 0.247448 0.649997 -0.194179 0.391893 0.872764 0.245547 -1.06482 -0.085998 -1.34161 0.406734 0.0099059 -0.3937 0.419862 0.868678 -0.307825 0.899596 0.348803 -0.591566 0.801399 0.353216 -0.76021 -0.406297 -0.653876 0.493182 -0.755742 -0.835948 0.541134 -0.921023 0.0879377 -0.560116 -0.960757 0.101116 -0.389428 -1.18164 -0.909083 -0.844341 0.534258 -1.11773 -0.73205 -0.763998 0.461388 0.705314 -0.334328 0.378337 0.203697 -0.391537 -0.267183 -0.634237 -1.02141 0.49655 -0.914971 0.232482 0.0346469 1.1982 -0.867477 -0.46045 -0.0291788 0.0623452 -0.213459 0.188735 -0.144013 -1.13531 -0.291228 -0.513292 0.135247 0.17036 -1.02497 -0.222632 0.0136263 0.568389 -0.470687 -0.456221 0.978466 0.817626 0.352381 0.218181 0.260721 -0.00488557 0.596573 0.226629 -0.263405 0.628945 0.421921 -0.41039 -0.760246 0.528932 -0.770139 0.139831 -1.15283 0.475712 0.416997 -1.17168 0.685701 -0.186559 -0.134694 0.625359 0.499487 -0.504128 -0.885067 -0.907712 -0.981718 -0.186246 0.490946 -0.857411 -0.105568 0.0289659 0.394468 -0.881497 0.545685 -0.113588 -0.510452 -0.0440558 -0.385108 0.471786 -0.36724 -0.639285 -0.693837 -0.76386 -0.0461277 -0.744166 0.401231 0.193819 -0.168007 -0.625407 -0.268103 -0.264147 -0.0438551 -0.99643 -0.37477 -0.0829505 -0.321453 0.718802 -0.944322 0.0512232 0.558818 0.310618 -0.390938 -1.08286 -1.27453 -0.0881115 0.312651 -1.02296 -0.14463 0.309712 0.530605 0.513318 0.812934 0.406603 0.606565 0.507072 0.923059 0.417676 -0.593705 0.781813 0.400983 -0.0446527 0.623654 1.06111 0.283431 -0.425 0.440115 -0.389537 -0.414843 -0.705236 -0.265948 0.318795 -1.1764 -1.47488 -1.12039 -0.144909 0.109501 0.353931 -0.254232 1.01917 0.461978 -0.780457 0.34196 0.814964 0.355909 -0.5245 0.943869 0.604633 0.415261 -0.335616 -0.935104 0.775478 1.19607 -0.910061 -0.49752 0.155553 0.566292 -0.452959 -0.317018 0.534997 0.251077 -0.634457 -0.537863 0.0858826 -0.440937 0.493729 0.350568 0.713732 0.97345 0.886327 -1.0089 -0.0856642 -0.465286 0.698562 0.709008 -0.7622 0.264988 -0.417037 0.777421 -0.238844 0.663479 -0.838292 0.541485 0.0682864 -0.262541 0.258907 -0.707615 1.15556 -0.797187 -0.992391 0.137535 0.00669287 0.419167 -0.200612 -0.258643 -0.656434 0.431719 -0.354817 -0.390956 0.0265656 0.581921 -0.73399 -0.340604 0.0376904 0.265114 0.410627 -0.269636 0.837285 0.789644 0.749003 -0.166673 0.576781 0.097979 0.953658 0.410034 0.838717 -0.66427 0.427742 0.0381669 0.0134791 -0.773141 0.641475 -0.780375 -0.359907 -0.452473 0.270314 0.648556 0.740768 -0.304437 0.0527511 0.605511 0.683889 -0.217689 -0.168249 0.528507 0.285283 -0.54126 0.154211 0.871511 -0.229511 -0.634724 -0.513154 -0.590532 -0.59817 -0.115308 -0.710044 0.303326 -1.0518 0.164557 -0.731789 0.380457 -0.838542 -0.732297 0.604654 0.152658 0.407747 -0.355401 0.223031 0.725183 0.591723 0.678945 0.934019 0.887127 -0.932261 0.808636 0.394723 0.868132 -0.321751 0.462351 -0.317927 0.750281 -0.742991 -0.273302 0.634772 1.0345 0.844411 1.35246 -0.126096 -0.242121 1.15701 0.715508 0.866442 1.03906 0.805817 -0.960352 -0.321814 -0.160741 0.804682 -0.613941 0.739494 -0.204688 -0.947748 -0.314308 0.469784 -0.950859 0.00550726 -0.539663 0.0752841 -0.160961 -1.01568 -0.332293 -0.103136 0.847922 0.973009 0.656101 -0.424573 -0.0589274 0.463021 0.95331 0.38808 -0.0462591 -0.0569518 -0.601306 -0.974424 0.206885 -0.718863 0.793023 -0.713492 0.0187689 0.284097 -0.19993 0.221115 -0.671073 0.0111469 -0.566574 -0.95862 0.721304 -0.751395 -0.793003 -0.731075 0.925729 0.990377 -0.582884 0.519639 -0.505966 -0.387171 0.344146 -0.824923 -0.373238 -0.0778524 0.583789 -0.515976 0.584033 -0.486373 0.140416 0.699637 0.643849 0.124363 0.207068 -0.00534075 0.699576 0.857479 -0.860591 0.306925 0.923154 -0.759331 -0.778008 -0.821772 0.502548 -0.729972 0.788629 -0.356487 -0.775262 -0.0904874 0.971496 -0.767266 0.719413 0.611133 -0.60802 0.149205 0.174657 -0.5833 0.105197 0.685476 0.338603 0.204382 0.111057 0.940735 0.619098 0.642637 -0.269672 0.89318 -0.914137 -0.59608 -0.745925 -0.0551231 0.217872 0.246464 0.894809 -0.161497 0.157066 -0.565212 0.81566 0.280621 0.31917 0.146428 0.108249 -0.940184 -0.817988 0.422895 -0.735954 -0.108066 -0.974425 0.15781 -0.593454 -0.0114361 -0.53573 -0.247789 0.568643 0.397068 0.526526 -0.0844164 0.381305 -0.619128 -0.576801 -0.391719 -0.459271 -0.609416 0.918705 0.393726 0.863451 0.252931 0.455174 -0.114552 -0.684824 -0.497909 -0.354839 -0.277749 -0.876522 -0.431928 0.652028 0.0600391 -0.88357 -0.677554 -0.0756383 -0.601879 -0.858628 -0.273174 -0.838862 0.596416 0.261161 -0.910184 -1.01578 -0.905045 -0.210168 -0.813367 -0.909173 0.00460337 -1.00969 0.234111 0.84098 0.900739 0.149014 -0.0102864 -0.751518 -0.415021 -0.0962859 0.96234 0.745109 0.511615 0.881153 0.629094 -0.036845 -0.64235 -0.39153 0.580225 0.614663 0.188339 0.549341 0.502146 -0.0516998 0.342945 -0.197303 0.383982 0.469902 0.755226 0.0326937 0.303341 0.427123 -0.0781249 0.18291 -0.645839 -0.209347 0.702323 0.264138 0.896298 -0.55962 0.302241 -0.274008 -0.399316 -0.848753 0.107359 0.787635 0.401598 -0.824392 -0.658083 -0.728614 -0.784104 -1.15937 -0.530429 -0.338586 -0.136556 -0.627095 -0.992601 -1.15492 0.641837 -0.392261 -0.331995 0.120369 -0.59598 -0.996045 -0.51451 -0.842586 0.952391 -0.335141 0.599932 -0.720411 -0.740609 -0.719048 0.990714 0.143675 0.228971 0.918678 0.421877 1.06944 -0.837463 -1.44091 -1.31409 -0.421242 0.327234 -1.02524 -0.235523 0.265391 0.440058 -0.199426 -0.188392 -0.397493 0.5408 -0.596349 0.263253 -0.999633 0.717747 -0.822965 -0.347812 -0.397435 0.720629 0.858745 -0.258913 0.760141 -0.152891 1.23422 0.278888 -0.353883 1.01468 -0.889381 -0.452559 -0.829803 0.211949 -0.36685 -0.957677 0.448742 0.223916 -0.519343 0.477754 0.852949 0.78209 0.862463 0.289796 0.348248 0.483118 0.165677 0.573653 0.671068 -0.452122 1.02991 0.546578 1.33155 1.05787 0.306545 1.36284 -0.172842 0.0763644 -0.538012 0.146572 -0.479373 -0.408839 -0.0244358 0.906527 0.527911 -0.692876 1.06009 -0.581407 -0.74473 -0.2255 0.562409 0.532926 -0.739159 -0.0610606 -0.9644 -0.823479 0.268653 -0.424541 1.13278 0.8527 -0.673541 0.512238 0.396445 -0.188009 -0.0740487 0.705873 1.11735 0.52186 -0.0353289 0.13787 -0.256854 -0.485272 0.280941 -0.0607504 -0.356846 -0.685618 0.89846 0.00597918 -0.721236 0.316554 -0.45261 0.162787 -0.0243481 1.08935 0.365624 0.78387 0.336207 -0.160645 0.578806 1.0127 0.646429 0.530434 0.530622 0.517386 1.22689 -0.254173 0.498871 0.302323 0.606006 0.642185 0.972878 0.229236 -0.301403 0.124666 0.550621 0.614143 0.804504 0.149993 -0.922162 -0.554411 -0.529265 -0.107045 0.142273 -0.203418 0.0645855 -0.0352406 0.0960079 -0.605838 0.600205 0.351563 0.808719 0.509729 -0.411177 -0.423855 0.741282 0.271349 0.354159 -0.732116 -0.275352 0.845324 -0.0253885 0.389961 -0.136569 0.728492 0.743798 -0.203385 0.347766 0.352186 0.783124 0.256058 -0.0124126 -0.286496 -0.191035 -0.376282 0.135989 0.31161 -0.155878 -0.924849 -0.139543 -0.656811 -0.829686 -0.894623 0.300853 0.782789 0.500119 -0.405382 0.364856 -0.327554 -0.361057 0.719892 -0.863514 -0.924413 0.879564 -0.663527 0.485641 0.346214 -0.508156 -0.40226 -0.713585 0.717576 -0.625849 0.0726314 0.217806 -0.953513 -1.14605 -0.380199 -2.10992 -2.43107 -2.80039 -1.17202 -1.40455 -0.0593354 -0.517393 0.772136 -0.202478 -1.095 0.354516 -0.511712 -0.664689 0.8067 0.358795 -0.104939 0.88757 -0.140256 -0.188977 0.527685 0.365172 -0.897119 -0.768527 -0.0399727 -1.10574 -1.30548 -1.1345 -0.271286 -2.18729 -1.22325 -0.731518 -0.109761 0.135518 0.924042 0.469407 0.655531 0.255783 -0.693316 0.225871 -0.533895 0.642964 0.887511 -0.25356 0.776736 -0.33036 -0.495667 0.0124477 0.855934 -0.669276 -0.183324 -1.03175 -0.624562 -0.285493 -0.508065 -0.641848 -1.21962 -1.82814 -0.32613 -1.16431 -0.23619 -0.0667922 -0.652164 -0.0749601 -0.721184 -0.329937 0.983535 0.814461 -0.432911 0.350119 0.182419 0.0892939 0.873796 -0.876445 0.497399 -0.804645 0.0858499 -0.656486 -1.11236 -0.639433 -1.17271 0.0473994 -1.507 -1.66394 -1.50064 -1.17729 -0.628196 -0.239787 0.988909 0.271407 -0.256107 -0.238992 0.121479 0.603242 -0.414561 0.122444 0.235267 -0.82105 0.0364229 0.922577 -0.630496 -0.636036 0.477672 -0.557907 -0.124483 0.748412 -0.572218 -0.326654 -0.359461 -0.0997029 -1.58301 -1.18402 -1.42279 -1.17338 -0.395891 0.897208 1.22697 -0.152883 0.411763 -0.492023 0.166775 0.267105 -0.14572 0.523762 -0.703227 0.497191 -0.171556 -0.133436 -0.347213 0.354531 0.182226 -0.352623 -0.851744 -0.965059 0.525204 -1.15917 -1.10117 0.0464602 -1.25015 -0.871661 -0.970469 0.40226 -0.378092 1.43776 0.0606356 -0.858341 0.564143 0.0706089 -1.2304 -1.14726 -0.0688737 -0.244164 -0.825918 0.472302 0.40776 -0.417144 -0.629611 -0.499619 -0.585986 -0.65127 -0.523684 0.0928832 0.26522 -0.950822 -0.790494 -0.116395 -0.604321 -0.707375 -0.958333 -0.131208 0.997397 0.41658 0.672082 0.425849 -0.592936 -0.747023 -1.16959 -0.0498171 -1.02195 -0.0312355 -0.050316 0.895414 0.369883 0.568756 0.540629 0.994812 -0.247231 0.30728 -1.04287 0.349529 0.298135 -0.13858 -0.841075 -0.622782 -0.136623 0.596964 0.651063 0.203838 -0.364803 0.228828 0.639955 0.0826695 -0.234088 -0.732948 -0.716614 0.144229 0.248625 0.458679 -0.422204 0.880603 0.640072 -0.250011 0.73986 0.1066 0.441389 0.684492 0.651404 -0.862961 -0.698623 -0.932501 -0.800243 0.685669 0.102951 -0.334805 -0.841308 0.429075 0.455377 0.551143 -0.439628 0.0066347 -0.34845 0.630046 0.626172 -0.483712 -1.26606 -0.0361402 0.361263 -0.320094 -0.738447 -0.660242 -0.807367 0.59746 0.885555 -0.754074 0.734743 0.638308 -1.02375 -0.777507 0.0613376 -0.0334331 0.835429 -0.185462 -0.35027 0.029471 0.195762 -1.03504 -0.107976 0.380166 0.944315 0.228132 -0.501813 0.118833 -1.01996 0.842938 0.222341 0.32952 0.389189 -0.254041 0.783319 0.454573 0.204504 0.329178 -0.310197 -0.996198 0.044811 -0.145414 0.68198 -0.430166 -0.497294 0.646158 -0.829878 -1.14785 0.421621 -0.612446 0.794286 -0.629395 -0.0892638 -0.0182356 1.05828 -0.357122 0.0791605 -0.6083 0.767029 0.062355 -0.262323 -0.776764 -0.107395 0.128025 -0.730216 -0.390298 0.312326 0.807269 0.926235 0.360686 0.742015 -0.0555842 -0.0488977 0.107258 -0.521882 -1.04624 0.355198 -0.11726 0.869352 -0.809335 -0.288258 -0.590743 0.338784 -0.35234 0.587896 -0.735047 -0.82809 0.0678153 -0.278583 -0.0869468 -0.994629 0.459212 -0.330241 -0.972257 -0.128537 0.0247042 0.729111 -0.431043 0.603874 -0.348246 -0.344427 0.783498 -0.484656 0.398095 -0.0340131 0.00366629 0.289338 0.182621 -0.60623 -0.438586 -0.891491 0.423253 -0.787051 0.032252 -0.961449 -0.177121 0.977355 0.981567 0.0248115 0.48796 -0.962462 0.418561 -0.353986 -0.520476 -0.38441 0.901267 1.03163 0.207872 1.18231 -0.708406 0.20331 -0.0245684 0.516368 0.129769 -0.120737 0.362378 0.325706 0.515175 0.196197 -0.224845 0.140044 -0.108513 0.890683 0.420026 -0.261269 0.564928 -0.769341 0.32664 -0.820368 0.935667 -0.489425 0.892758 0.518177 0.0480355 0.0783117 -0.357521 0.523775 0.596683 0.835567 -0.225157 -0.484233 0.699514 -0.832723 -0.828833 0.0400159 0.286201 0.251156 0.462986 0.306716 0.213657 0.215855 -0.452132 -0.795648 -0.836726 -0.179296 -0.712332 0.442976 -0.313517 0.69396 -0.141026 -0.402753 0.294534 0.629566 0.854976 -0.0445876 -0.0791956 -0.566027 0.0339072 -0.314023 0.667776 -0.0782189 0.594287 -0.665517 -0.343974 -0.381207 0.287271 -0.405255 -0.216712 -0.264748 0.775079 0.624012 0.206153 0.970458 0.452742 0.757561 0.356731 0.712516 -0.897702 -0.190384 0.294283 -0.827504 -0.379753 0.958681 -0.711895 -0.829553 -0.49934 0.450304 -0.782509 0.672487 0.300733 0.689646 0.920519 -0.579506 -0.844939 0.573106 0.072483 0.423179 0.0744957 0.410077 0.463057 -0.64922 -0.12949 0.792474 -0.507187 -0.73741 0.506803 -0.451019 -0.265266 -0.828119 -0.668168 -0.386324 -0.642891 0.243481 -0.466119 0.367613 -0.826818 -0.315503 -0.498406 0.406255 -0.840526 0.546097 0.616362 -0.598181 0.166518 -0.58597 -0.122223 0.738953 -0.0104678 0.0398877 -0.428571 -0.337443 -0.868282 -0.91195 0.278478 -0.116219 -0.676092 -0.269353 0.149892 0.615662 0.707626 -0.212212 -0.670145 -0.93757 -0.158487 -0.759248 -0.141325 -0.862706 0.340097 -0.344466 -0.871666 -0.455116 -0.890374 -0.330512 -0.187221 0.0767146 0.2963 0.7669 0.585742 0.623829 -0.534166 0.749758 0.435604 0.896987 -0.318382 -0.16745 0.131369 0.435599 -0.732849 1.10952 0.550457 -0.654063 -0.512026 -0.501129 -0.665232 0.641243 -0.878875 -0.488812 -0.389335 -0.883318 0.405515 -0.601507 0.323503 -0.939326 0.421204 0.423373 -0.846736 -0.806085 0.230085 -0.849122 0.765748 0.407433 0.712718 0.822795 1.08462 0.174534 -0.800221 -0.77022 0.783841 -0.182237 0.466968 -0.422031 -0.695312 -0.583155 -0.162961 -1.11076 0.0608457 0.278022 0.325781 0.0666399 0.400249 0.260975 -0.363556 -0.205855 0.312235 -0.863521 0.501737 0.990805 0.578252 -0.288099 0.152664 -0.674381 -0.240865 -0.427844 -0.216741 -0.252786 -0.154415 1.49678 -0.229894 -0.242658 -0.428558 -1.13217 -0.539189 -0.0934472 -0.156115 0.690381 0.304014 0.891623 -0.571418 0.965189 0.373833 -0.598353 0.0538652 0.747292 -0.399388 0.775525 0.272494 -0.207448 1.11423 -0.298951 0.634439 0.452454 0.601776 -0.176001 -0.864354 0.46283 0.868184 -0.677888 -0.189323 -0.269399 -1.37946 -0.721042 -1.16673 -1.05725 0.257938 1.00711 0.603603 -0.111856 0.15286 0.473665 0.231849 0.872604 0.740835 0.462534 -0.428752 -0.323493 1.19213 1.0327 0.0800977 -0.973153 -1.03334 -0.616915 -0.304935 -1.07606 0.164157 -0.506683 -0.261073 -0.996669 0.156799 -0.728159 0.208458 -0.76438 -0.0791118 1.03144 -0.04798 0.799189 0.132885 -0.107439 -0.587794 -0.883564 0.204633 0.848761 -0.0862104 0.23627 0.82847 -0.644715 -0.860663 0.763821 -0.880103 -0.515914 0.399006 0.279188 0.900182 1.10264 0.32287 -0.788819 -0.17907 -0.957969 0.202815 0.244046 -0.752423 -0.720892 0.193765 0.112328 -0.722094 -0.845435 -0.147135 -0.358776 -0.303313 -0.642402 0.706015 -0.334186 0.0918858 0.701704 0.00391566 -0.972256 -0.399574 0.540411 -0.108583 1.03024 -0.215043 -0.244883 0.922284 0.306986 -0.66492 1.19849 0.257872 -0.245544 0.394941 0.154667 -0.117471 0.715967 -0.899613 0.120892 -0.200798 -0.957097 0.413677 0.327699 0.137888 -0.365659 0.105166 -0.112146 0.242683 0.347825 0.979558 -0.473273 0.655244 1.27415 -0.348717 0.536068 -0.885189 0.131349 -0.583193 -0.228945 0.573462 0.995196 -0.794099 -0.952768 -0.451458 -0.125683 0.386308 -0.266077 -0.716727 -0.30047 0.834801 0.631813 -0.138353 -0.772942 -0.0900978 0.45239 -0.524936 0.438165 0.589848 0.987933 0.755403 -0.562477 0.215992 0.478156 0.487872 0.530783 -0.452199 0.577413 0.146658 -0.445952 -0.600509 -0.616395 -0.086736 -0.349638 -0.625676 0.40441 0.615833 -0.958133 0.582068 0.687628 -0.147014 -0.0500197 0.65861 -0.512147 0.612975 -0.849643 -0.0361011 0.602474 -0.73428 0.672053 0.537072 -0.241586 -1.0935 -0.162306 -0.672339 0.733212 1.06243 -0.621542 0.689398 0.0520766 0.415822 0.84277 -0.0597287 0.146251 -0.245675 0.197399 0.247784 -0.313889 0.480627 0.0765532 0.220645 -0.667798 -0.130823 0.303778 0.0442053 -0.000471232 -1.06376 0.390364 -0.906908 -0.0277054 0.236863 -0.776584 0.754976 0.990251 -0.115631 0.45165 -0.770228 -0.113299 0.16595 -0.374473 -0.385812 -0.638195 -0.257836 0.43282 -0.135622 -0.886989 -0.396165 -0.483633 -0.321726 -0.317479 -0.0645474 0.187141 -0.0215507 0.66719 0.668592 0.614179 0.720033 -0.0441054 0.620263 1.18316 1.0824 1.20436 0.132425 0.961651 0.560981 -0.147008 -0.311882 -0.716798 0.0114139 0.143809 0.39514 0.832757 -0.431008 -0.669117 0.687987 -0.726951 -0.801633 0.607309 -0.943292 -0.496298 -0.825054 0.490426 -0.67495 -0.852121 -0.291307 0.799965 -0.263637 0.490168 0.35574 -0.00132282 0.760267 0.830321 0.91692 0.111296 -0.498911 0.501718 -0.546896 -0.79006 -0.564318 -0.345539 -0.683709 -0.674835 -0.544113 -0.225145 0.173304 -0.988495 0.439347 0.219689 -1.36418 -0.351262 -1.02811 0.151318 -0.330814 -0.604121 -0.919934 -0.996895 -0.560664 -0.178626 -0.625773 -0.0625885 0.844454 -1.01681 -0.7311 -1.04501 0.484803 0.206872 -0.747124 0.796869 -0.783735 0.35743 0.269711 0.252553 -0.0236475 0.147122 0.493234 -1.29093 -0.435689 -0.455266 -1.06461 -0.684188 -0.853345 -1.25638 0.280743 -0.501734 0.666116 0.0974651 0.804498 -0.11283 -0.964047 -0.790128 -0.533976 0.936888 -0.166734 0.410931 0.478866 -0.180638 -0.782679 -0.313109 1.0239 0.710636 -0.309642 -1.0258 -0.0497654 0.387664 -1.01036 -0.624574 -0.567453 -0.477925 -0.337457 -0.453592 -0.0685687 -0.265966 0.0957803 1.07862 -0.796856 0.665933 0.508074 -0.133583 0.573146 0.418504 -0.342122 -0.154544 0.569933 0.949891 -0.162311 -0.967478 -0.749434 0.903021 -0.298168 0.507735 0.157866 -1.14084 -0.506124 0.10584 -0.948062 -1.28797 -0.757366 -1.1711 0.0667659 -0.896515 -0.437293 0.477913 0.855681 -0.0785514 0.511118 0.564974 0.477637 0.252552 -0.2885 -0.45665 0.5786 -0.482221 0.644279 0.17323 -0.424916 0.259243 -0.162902 0.207818 -0.639208 0.335854 0.123429 0.69207 -0.216509 0.580297 -0.624976 0.770273 -0.154862 1.10004 -0.065666 0.774736 0.548546 0.550501 0.535062 0.924489 0.442192 0.0829587 -0.941644 -0.887448 0.305094 -0.749138 0.0648527 -0.00208668 0.0520973 0.365593 -1.09263 0.0264064 -0.755415 0.660852 -0.631997 0.0425013 0.586763 -0.580936 -0.293453 -0.237527 -0.362905 0.0529629 1.00908 0.0509345 -0.147341 0.247518 0.157898 0.248236 0.812246 0.711635 -0.903352 0.407025 -0.985656 0.872616 -0.630351 -0.675116 -0.873215 -0.284488 0.169333 0.684233 -0.841123 0.271841 0.840324 0.923503 1.02894 0.0305191 -0.524842 1.0786 0.852349 -0.188593 -0.560396 -0.885609 -0.375818 -0.446983 -0.026811 -0.55891 0.931421 0.840747 0.565323 -0.713675 -0.0921354 -0.562426 0.418071 0.511279 0.916877 -0.661278 -0.801128 -0.630356 -0.686178 0.839739 0.48383 -0.410464 0.0178688 0.0432256 1.14297 -0.656631 -0.734323 -0.857477 0.304556 -0.685278 0.13975 -0.861085 0.487435 -0.496527 -0.416939 0.262496 0.196686 0.394696 -0.463607 0.843684 -0.131871 -0.472791 0.650098 -0.941086 0.869235 -0.988684 -0.861816 0.663729 -0.959279 0.205567 -0.814003 -0.279734 -0.606144 0.192669 -0.151213 0.036891 -0.692605 -0.329768 0.41159 -0.92697 0.569131 -0.888148 -0.393004 -0.634617 -0.281881 0.897031 0.341655 0.955931 -0.447188 -0.409401 -0.456487 -0.250718 0.692974 -0.382553 -0.606505 -0.990527 0.843279 -0.188019 -0.347709 0.863998 0.588136 -0.750216 -0.444505 -0.202769 -0.397578 0.627886 0.439299 0.310456 -0.509591 -0.265466 0.0571612 0.698965 0.897336 0.109592 -0.485519 -0.2172 -0.296243 0.238868 -0.686998 0.332754 0.709254 -0.182276 -0.718414 -0.727259 0.917767 -0.693992 0.246774 0.150913 0.715348 0.0465589 0.311012 -0.495421 0.435353 -0.850269 0.0457175 0.780187 -0.171884 -0.791247 -0.0532548 -0.988037 -0.694266 0.962706 0.357097 0.139683 0.709952 0.798578 -0.526597 0.610279 0.764885 -0.543687 -0.635487 0.347575 0.30961 -0.412458 -0.431085 -0.74379 -0.9317 0.704337 0.49675 0.267434 0.764763 -0.914243 -0.0400708 0.996643 0.39671 -0.795953 -0.855525 -0.921751 0.483627 0.232582 -0.663869 -0.761589 0.0987273 0.198279 -0.287393 -0.832575 -0.500351 -0.658499 -0.48553 0.257286 0.167796 -0.756743 0.846192 0.221813 -0.929797 -0.706202 -0.142201 -0.0527841 0.966525 -0.960858 -0.717259 0.817979 -0.457143 -0.00650277 -0.083285 -0.13242 -0.784051 -0.518967 -0.984436 0.64037 0.427351 0.0429397 0.386883 0.422468 0.192337 0.991669 -0.0659584 0.706486 0.660298 -0.445769 -0.0167257 -0.759018 0.0703612 -1.03224 -0.11276 0.690049 -0.158106 -0.907295 0.0867629 -0.0704469 -0.514872 0.274651 -0.786968 0.44264 -0.41319 -0.361126 0.0551469 -0.990051 0.771661 0.896541 -0.571925 0.714222 0.469774 0.699859 -0.697623 0.199967 0.908105 -0.449146 0.280289 -0.949399 -0.135308 -0.497635 0.601275 -0.898325 0.366999 -0.705004 -0.259746 -0.662394 -0.779614 0.970415 0.860139 0.0311781 0.507009 -0.828303 0.463057 -0.893246 -0.499374 0.711995 0.812434 -0.38725 -0.0269794 -0.897665 -0.340889 -0.0780588 -0.386151 0.150197 -0.913798 0.695204 0.834407 -0.34139 0.0889405 0.00459994 -0.882985 0.773383 0.515347 0.623227 -1.14938 -0.885062 0.0906942 -0.240513 0.404576 0.765617 -0.710013 -0.546983 -0.976868 -0.662524 0.776024 0.0843956 -0.0868452 -0.26546 -0.590597 -0.426321 0.993315 0.918552 0.804416 0.257699 0.941242 0.554127 1.13973 0.445921 -0.431353 0.583274 -0.314349 0.6245 -0.474668 0.670999 0.772213 0.218579 -0.246443 0.468528 0.952696 0.114719 0.193574 0.0327738 1.04209 -0.243707 -0.642852 -0.361325 0.103584 0.796925 0.309676 1.19061 0.780231 -0.19611 0.415631 -0.747122 0.607642 -0.379839 0.240945 0.381214 1.28023 -0.0513208 -0.61565 -0.360956 -0.714528 0.932528 -0.849729 0.230966 -0.627671 -0.965122 -0.926761 0.0263804 0.985203 0.768268 0.388725 0.923578 1.02429 1.50669 0.584713 0.20523 -0.452139 0.965341 -0.340657 0.937932 -0.265194 0.624119 0.714107 0.830143 0.53549 1.09109 0.538629 -0.441634 -0.378511 -0.565538 -0.389385 -0.236098 0.119003 0.346765 -0.289335 0.76704 0.32483 0.261907 1.3953 0.0134795 0.132084 0.543654 0.736242 1.14668 -0.010822 0.318865 -0.130486 0.352756 1.44327 -0.408566 0.0760073 0.675812 0.603159 -0.145202 -0.179618 0.465419 0.684812 -0.395858 0.780671 0.689022 -0.254614 -0.86722 -0.311177 0.252692 0.0157841 0.359315 -0.454002 1.05202 1.08932 1.1977 -0.30013 1.13839 0.224673 0.795868 0.341634 0.608288 -0.45073 1.10222 0.857035 0.71724 0.354448 0.917665 1.00028 0.772462 0.625511 0.171675 -0.307579 0.884278 0.501084 0.0211241 -0.07119 -0.140815 -0.470441 0.454062 0.752616 -0.890701 0.466458 -0.370168 -0.638251 -1.14283 -0.294693 -0.619799 0.317682 -0.399246 0.280376 0.883511 -0.400705 -0.36444 0.0031917 -0.548446 0.327157 -0.512833 0.597465 0.330152 -0.0606965 -0.0249957 -0.387741 0.102767 -0.159008 0.213244 -0.900071 0.00382478 -0.268033 -0.00057583 -0.243314 0.536892 -0.244193 0.0611803 -0.269626 -0.404099 0.0266467 0.134097 0.496671 0.348273 -0.494232 0.153267 -0.442842 0.817814 0.753281 -0.0459454 0.757462 0.77975 -0.353248 -0.124357 -0.68413 -0.419514 -0.849888 0.589979 -0.0408311 0.0105167 -1.20411 -1.87037 0.0769444 -0.130668 -0.415712 0.676487 -0.284304 -1.31582 -1.24854 -1.35528 -0.110638 -0.395473 0.415504 -0.738729 -0.755828 -0.540948 -0.557459 0.421814 0.305908 0.0962628 0.207842 -0.563151 0.834773 0.572004 -0.948519 -0.470492 -1.17573 0.0856089 -1.82324 -1.6858 -1.49402 -1.27743 -1.05141 -0.0591622 0.326914 0.17976 -1.73598 -1.0482 0.400135 -0.760057 -0.406114 -0.187038 0.241977 0.540014 -0.944144 0.527919 0.754491 0.744174 0.412392 0.952675 0.481857 -0.413478 0.714732 0.476456 -0.611592 -0.437288 -1.01249 -0.450117 -0.701455 -1.00529 -0.962596 -1.08492 -0.847792 -0.593504 -0.617989 -0.70719 0.282547 0.0675341 0.413075 0.423388 -0.410134 0.456708 0.690474 -1.14738 -0.0440824 -0.119421 -0.526434 -0.408674 -0.91876 -0.0149124 